{"triplane_resolution": 2048, "triplane_voxel_size": 0.001953125, "sparse_grid_resolution": 512, "sparse_grid_voxel_size": 0.0078125, "range_features": [-7.0, 7.0], "range_density": [-14.0, 14.0], "data_block_size": 16, "atlas_width": 1615, "atlas_height": 221, "atlas_depth": 17, "num_slices": 17, "slice_depth": 1, "0_weights": [[0.8589508533477783, -1.4384206533432007, 2.069031238555908, 1.7134610414505005, -1.1629574298858643, 1.5172258615493774, -0.0031997819896787405, 0.488056480884552, -0.08315261453390121, 1.2962455749511719, -0.32954108715057373, 1.2403032779693604, 1.59404718875885, 0.013658778741955757, -0.053780701011419296, 2.634307861328125], [0.7708516716957092, 0.5387306213378906, 0.6715053915977478, 1.3696634769439697, -2.015944242477417, 1.449745774269104, 2.763373851776123, -0.4645012617111206, -0.05868339538574219, 1.7917771339416504, -0.491291344165802, -1.014930248260498, 1.7656340599060059, 0.04116988182067871, -0.0684908777475357, 2.956843852996826], [-1.7622530460357666, 0.346024751663208, -7.477562427520752, -1.5596247911453247, 2.2856271266937256, -7.23480224609375, 3.391514778137207, 1.380171537399292, -0.0551125667989254, -4.658025741577148, 2.5972204208374023, 2.391606569290161, 1.618260145187378, -0.008138153702020645, -0.06318526715040207, -1.653892159461975], [0.19478361308574677, -0.2331179678440094, 0.018316226080060005, 0.5997027158737183, 0.36379700899124146, -0.3075459897518158, 0.3207976818084717, 0.230034738779068, -0.14341074228286743, -0.2639293968677521, -1.1344174146652222, 0.012265310622751713, -1.797167181968689, 0.006205815356224775, -0.31980839371681213, -0.505947470664978], [2.8972418308258057, -2.0801045894622803, -0.9887657761573792, -2.757128953933716, -1.6037260293960571, 1.1902050971984863, 0.028185512870550156, 0.3203476369380951, 0.06813177466392517, 1.0760633945465088, 3.062849521636963, 2.143808364868164, -0.5873080492019653, -0.022603526711463928, -0.5632025599479675, -1.0726959705352783], [-0.27557337284088135, 1.6215782165527344, -0.08391769975423813, 2.0630042552948, 1.7817027568817139, -1.411604642868042, -1.4876717329025269, -1.3306013345718384, -0.23593474924564362, -1.0024728775024414, -0.0385119654238224, 0.24305950105190277, 0.057167794555425644, 0.045802049338817596, -0.2881876230239868, 0.8091056942939758], [-0.5780036449432373, -0.06252767145633698, 0.07746255397796631, 0.48765239119529724, 0.23211917281150818, -0.35896262526512146, 0.6288933157920837, -0.10918518155813217, 0.04996165260672569, 0.09270352870225906, -0.9663440585136414, 0.3489716053009033, -1.5209167003631592, -0.07172424346208572, -0.3240320384502411, -0.5082909464836121], [-0.38739022612571716, -0.5681825876235962, -0.02736733853816986, 0.026811210438609123, -0.13976135849952698, -0.8217096924781799, -0.20183490216732025, 0.010648123919963837, 0.032012999057769775, 0.34360143542289734, -0.15335506200790405, -0.4630756378173828, -0.34798651933670044, -0.1714705377817154, 0.13680967688560486, -0.20007115602493286], [-0.1705215573310852, 0.1026734858751297, 0.1421205848455429, 0.01373093668371439, -0.10522038489580154, 0.21021457016468048, 0.0125729376450181, -0.14469541609287262, -0.2603927254676819, -0.5896196365356445, 0.019504496827721596, 0.2888297140598297, -0.13329529762268066, 0.0562434121966362, 0.018885493278503418, -0.04056764766573906], [0.6298397779464722, -0.024876505136489868, -0.20202796161174774, 0.055478356778621674, 0.006628081668168306, -0.08790553361177444, -0.029178021475672722, -0.552001953125, 0.140840083360672, 0.15072833001613617, -0.05432884767651558, 0.7168084979057312, 0.1220594123005867, -0.01898423582315445, 0.07906831055879593, -0.039727840572595596], [-0.2944273054599762, -0.39742428064346313, 0.05914461985230446, 0.049395617097616196, -0.4035509526729584, -0.5598059296607971, -0.12467070668935776, -0.021286683157086372, 0.18019412457942963, 0.3174150586128235, -0.2528282701969147, -0.4995752274990082, -0.408307820558548, -0.1141299158334732, 0.010885100811719894, -0.43299898505210876], [-0.33770158886909485, -0.09552110731601715, 0.1648484319448471, -0.22406646609306335, -0.11405126750469208, 0.37332823872566223, 0.03845943138003349, -0.03756530582904816, 0.013235933147370815, -0.7337548136711121, 0.02585757151246071, 0.18194521963596344, 0.013553159311413765, -0.10388324409723282, -0.021829452365636826, -0.19692356884479523], [0.6066445708274841, -0.17754167318344116, 0.05209476500749588, 0.3336305618286133, -0.13637690246105194, 0.14933525025844574, -0.1582828164100647, -0.481084942817688, 0.04203024134039879, -0.006926142610609531, -0.045530181378126144, 0.6774455904960632, 0.22428078949451447, 0.04340190067887306, 0.035315852612257004, 0.10481937229633331], [-0.48277267813682556, -0.5381958484649658, 0.047830577939748764, 0.2265567034482956, -0.1814757138490677, -0.4678398668766022, 0.1197190061211586, 0.2581733465194702, -0.06033576279878616, -0.3108319938182831, -0.07310755550861359, -0.26320144534111023, -0.18934230506420135, 0.012036311440169811, 0.2007945477962494, -0.3711254596710205], [-0.4703198969364166, 0.4071800410747528, 0.054072022438049316, -0.3672238886356354, -0.12020736932754517, 0.18651485443115234, -0.13424961268901825, -0.1606423705816269, 0.0588984489440918, -0.5760009288787842, -0.07641053944826126, 0.5441362857818604, -0.09231946617364883, 0.02827530913054943, 0.046661972999572754, 0.17099414765834808], [0.5743712782859802, -0.28413698077201843, -0.21199248731136322, -0.022514790296554565, -0.04693233221769333, -0.028846150264143944, 0.17827726900577545, -0.22315077483654022, 0.1295498013496399, -0.0832417905330658, 0.02509589120745659, 0.867308497428894, 0.15596063435077667, -0.02896462380886078, 0.15505747497081757, -0.021468909457325935], [0.09893824905157089, 0.5241631269454956, 0.0025062249042093754, -0.1740207076072693, -0.16464197635650635, 0.7693877816200256, 0.00899104867130518, 0.14794832468032837, 0.04394238069653511, -0.03127818554639816, 0.07532592117786407, 0.1654764711856842, -0.043964922428131104, -0.08541889488697052, -0.05752715468406677, 0.4469761550426483], [-0.14683282375335693, 0.027720622718334198, 0.10679960250854492, -0.061086755245923996, 0.07509112358093262, 0.003647919511422515, 0.045333828777074814, 0.13857439160346985, -0.06219823285937309, 0.41821765899658203, -0.010717480443418026, -0.1318366825580597, -0.031057411804795265, 0.002559663960710168, -0.12454792112112045, 0.1405857801437378], [-0.22560317814350128, -0.28770849108695984, 0.018899936228990555, -0.25705739855766296, 0.1130112037062645, 0.026471272110939026, 0.27274075150489807, 0.32082459330558777, 0.11664611846208572, -0.33653414249420166, -0.034727416932582855, 0.4965066611766815, -0.10357558727264404, -0.0910378023982048, 0.1460503786802292, -0.6170103549957275], [0.03420161083340645, -0.06345487385988235, -0.02017677016556263, 0.03365100175142288, -0.09597349166870117, -0.05860033631324768, 0.015549170784652233, -0.11247119307518005, -0.10924097895622253, -0.05009537190198898, 0.021067187190055847, 0.09505815804004669, 0.04849804565310478, 0.14111097157001495, 0.06569486111402512, -0.08184195309877396], [-0.13280388712882996, -0.0875939205288887, -0.019563846290111542, -0.031994543969631195, -0.049418848007917404, 0.05811275169253349, -0.0036388440057635307, -0.02912798523902893, 0.042999137192964554, -0.06947267800569534, 0.002325771376490593, 0.004529205150902271, -0.044332921504974365, -0.06816792488098145, -0.001235468778759241, -0.0065959785133600235], [-1.5007457733154297, 0.16357216238975525, -0.0850374698638916, 0.3084048628807068, 0.3914806842803955, 0.27106451988220215, 0.014770733192563057, 0.5416906476020813, -0.09657981991767883, 0.2915154993534088, 0.03282767906785011, -0.021744905039668083, -1.300878643989563, -0.15284579992294312, -0.16872023046016693, -0.34660857915878296], [-0.15989993512630463, 0.0345887653529644, 0.14832423627376556, -0.19589439034461975, -0.22948743402957916, -0.04649496451020241, -0.0857694074511528, 0.1891767382621765, -0.12124370038509369, -0.10015024989843369, -0.32083192467689514, -0.1871156245470047, 0.6885241866111755, -0.17062781751155853, -0.09306401759386063, 0.17639297246932983], [-0.04172689840197563, 0.056623607873916626, 0.15011091530323029, -0.4247090220451355, -0.13643954694271088, -0.22725825011730194, -0.2402513176202774, 0.28206121921539307, -0.2347486913204193, -0.14811675250530243, 0.021802686154842377, -0.5305138826370239, 0.7414459586143494, -0.1739071160554886, -0.2522333264350891, 0.16050371527671814], [0.3263612985610962, 0.05568845570087433, 0.01733132265508175, -0.17925293743610382, -0.042007606476545334, -0.05121179297566414, -0.2757876515388489, 0.2129950374364853, -0.1794409155845642, 0.0296521857380867, -0.1904585212469101, -0.39338091015815735, 1.143722414970398, -0.24445123970508575, -0.22705982625484467, 0.4140399694442749], [-0.5035752654075623, -0.3378159701824188, -0.07364306598901749, 0.10297620296478271, -0.15978184342384338, 0.28655996918678284, 0.11194557696580887, -0.1266128271818161, 0.057121481746435165, 0.08039124310016632, -0.16836175322532654, -0.06153280660510063, 0.1586417555809021, -0.04543476179242134, 0.00021892673976253718, -0.36308765411376953], [0.28145959973335266, 0.47515109181404114, 0.31300753355026245, -1.2236980199813843, 0.11325506120920181, -0.5943449139595032, -0.14366841316223145, 0.698474645614624, -0.04472220316529274, -0.3648588955402374, 0.25302448868751526, -0.3476487994194031, 0.6478195786476135, -0.1726900041103363, 0.018574997782707214, 0.06699231266975403], [1.2571277618408203, 0.26789796352386475, 0.08447971940040588, 0.20054572820663452, -0.3843156397342682, -0.10482319444417953, -0.44827187061309814, -0.4180792272090912, -0.24795730412006378, 0.15759265422821045, -0.10591394454240799, -0.06624758988618851, 2.0006508827209473, -0.11404981464147568, -0.15227057039737701, 0.9339688420295715], [0.537727415561676, 0.040356799960136414, 0.01075879205018282, -0.26950159668922424, -0.19896259903907776, 0.008935408666729927, 0.0007691940409131348, -0.12594984471797943, -0.020077012479305267, -0.5785432457923889, 0.09069601446390152, -0.021566743031144142, 0.10337485373020172, 0.18157853186130524, 0.41131362318992615, 0.061306923627853394], [-0.38175129890441895, -0.09746237844228745, 0.014702752232551575, 0.4415048062801361, 0.14289696514606476, -0.4627494812011719, 0.02427535317838192, -0.07764074951410294, 0.06949738413095474, 0.35196471214294434, -0.12013038992881775, 0.19435377418994904, -0.29200637340545654, -0.038490619510412216, 0.10006961971521378, 0.28561505675315857], [1.7884221076965332, 0.050331734120845795, -0.10476341843605042, 0.10888417810201645, -0.09409723430871964, -0.04154482111334801, 0.0004645340668503195, -0.5376461744308472, 0.1910637766122818, 0.2104528695344925, -0.15819518268108368, 1.3900049924850464, 1.778428554534912, -0.06066187843680382, 0.11062362045049667, 0.12746696174144745], [-0.1508781760931015, 0.0215834379196167, 0.006237495224922895, 0.03644934296607971, 0.006944023538380861, -0.15811531245708466, -0.01034390926361084, 0.05612366646528244, 0.015849221497774124, 0.07517284154891968, 0.013887274079024792, 0.04260022193193436, 0.02515058033168316, -0.005775293335318565, -0.001460289116948843, -0.026902517303824425], [-0.11665061861276627, -0.05369601398706436, -0.045839399099349976, 0.048303913325071335, -0.06165385618805885, -0.003485120600089431, -0.030487479642033577, 0.05145135149359703, 0.04806727170944214, -0.026598118245601654, 0.0016873744316399097, 0.08466662466526031, -0.020305335521697998, 0.05413718894124031, -0.2050025910139084, -0.07715504616498947], [0.8424694538116455, -0.5269632339477539, 0.053338512778282166, -0.3007858693599701, -0.1819022297859192, 0.02710707113146782, -0.001828224048949778, 0.057236313819885254, -0.06311614066362381, 0.05262831598520279, -0.11781693249940872, 0.34275269508361816, 1.0758928060531616, 0.07330254465341568, -0.16555581986904144, 0.07547705620527267]], "1_weights": [[0.08695200830698013, 0.031339071691036224, 0.7319521903991699, 0.23858118057250977, -0.4072454571723938, 0.001939572743140161, 0.3080054819583893, -0.782141387462616, 1.4261120557785034, -0.3336981534957886, 0.49276110529899597, -0.5792195796966553, -0.3180064260959625, 0.202435702085495, 0.31714123487472534, 0.48098981380462646], [0.042514149099588394, -0.6013545393943787, 0.4149951934814453, -0.33736929297447205, 0.9199509620666504, 0.4201715886592865, 0.7830689549446106, -0.061387673020362854, 0.6820534467697144, -0.6699784994125366, 0.1295524388551712, -0.29374679923057556, -0.04909553378820419, -0.49590885639190674, -0.2913256883621216, 0.2548600733280182], [-0.005064697004854679, -0.38860002160072327, 0.26066261529922485, -0.9132924675941467, -1.4496303796768188, -0.7588704228401184, -0.05607669800519943, -0.6522529721260071, 0.14441445469856262, 0.42721596360206604, -0.6316821575164795, 0.679411768913269, -0.1769295334815979, 0.7075963020324707, -0.39635932445526123, -1.2967699766159058], [0.4784744083881378, 0.6138478517532349, -0.8832334280014038, -0.2688269019126892, 0.0820014700293541, 2.361984968185425, 0.1457352340221405, 0.43336033821105957, -0.6605225205421448, 0.9649049639701843, 0.16833390295505524, 1.2297543287277222, -0.264167845249176, -0.011414633132517338, 1.8252568244934082, 1.4994573593139648], [-1.3207459449768066, 0.658388614654541, -0.19884003698825836, 1.0768370628356934, 0.01022893376648426, -0.10088524967432022, -0.13139747083187103, 0.7746937870979309, 0.29198306798934937, -0.27770593762397766, 0.7235455513000488, -0.12255110591650009, -0.11198975890874863, -0.09583748131990433, 0.4834398031234741, -0.13453231751918793], [-0.5627434849739075, 1.711474895477295, -0.3078083097934723, 2.1168370246887207, 1.0554776191711426, 0.2726950943470001, 0.16740188002586365, -0.054881706833839417, 0.13149207830429077, 0.008400393649935722, 1.9342676401138306, -2.1088144779205322, -0.04552532359957695, 0.05738901346921921, 1.2022842168807983, 0.12975884974002838], [-0.277787983417511, 0.1493905484676361, -2.491792678833008, 0.18763895332813263, -0.9177121520042419, 1.8358092308044434, 1.5529693365097046, -0.04707031324505806, -5.583158016204834, 0.5853976607322693, 0.7495973706245422, -2.9669177532196045, -0.8734409213066101, -0.39678674936294556, 0.0007811657269485295, -0.005304339807480574], [-0.22483941912651062, 0.16901567578315735, -0.026405785232782364, 0.2533988654613495, -0.7433907389640808, -0.1803819239139557, 0.2960904836654663, -0.28674712777137756, 0.5205431580543518, 0.4333690404891968, 0.20830608904361725, -0.5482999682426453, -0.27645042538642883, 0.20779146254062653, -0.08274446427822113, -0.048483673483133316], [0.0034129321575164795, -0.07874599099159241, -0.4455432593822479, 0.18254975974559784, -0.0620238371193409, -0.008960175327956676, 0.0016801381716504693, -0.11141005158424377, 0.05312405154109001, -0.02706882916390896, 0.002615411067381501, 0.04805174469947815, 0.03805859759449959, -0.13586276769638062, 0.21593931317329407, -0.1807291954755783], [-0.18393099308013916, -0.1367269903421402, -0.13617120683193207, -0.25931620597839355, 1.3718169927597046, -8.619038581848145, -0.07639190554618835, -0.5147263407707214, -0.13431155681610107, -0.3062795400619507, -0.28763866424560547, -0.2486158162355423, 0.017865072935819626, -0.2889770269393921, 0.7232175469398499, -0.528680145740509], [0.21941633522510529, -1.0678279399871826, 0.4684700071811676, -1.1153078079223633, 0.3963705599308014, -0.7801197171211243, -2.031876564025879, 1.623009443283081, -0.6748046875, -1.5252254009246826, -3.3309500217437744, 0.0011387792183086276, -0.04421267285943031, 0.05714378505945206, -0.6202698945999146, 0.8937377333641052], [-0.014018751680850983, 0.44901424646377563, 1.318664312362671, 0.8553715944290161, -0.5200669169425964, -0.9008017778396606, 0.12868550419807434, -0.6992815732955933, 1.855377197265625, 0.22095969319343567, 0.7884905934333801, 0.06473684310913086, 0.012554596178233624, 0.2195962518453598, -0.21940654516220093, 0.6861233115196228], [-0.17859329283237457, 0.4135502576828003, 1.2822426557540894, 0.6617651581764221, -1.8832602500915527, -0.45775550603866577, 0.10373259335756302, 0.11748554557561874, 2.8726096153259277, -0.34317734837532043, -0.0515623465180397, 0.47359082102775574, -0.04912738874554634, -0.3724210262298584, 0.3527589440345764, -0.7629392147064209], [0.08786017447710037, 0.17924714088439941, 0.10653718560934067, -0.023498764261603355, -0.21644163131713867, -0.19449105858802795, 0.01277290377765894, 0.2465689778327942, -0.25275713205337524, 0.27145594358444214, 0.08286110311746597, 0.09122771769762039, -0.24781206250190735, 0.06872715801000595, 0.1014115959405899, -0.18800599873065948], [0.11990265548229218, -0.08907295763492584, -0.1939215511083603, 0.12194820493459702, 0.18252146244049072, -0.16744032502174377, 0.3055974841117859, 0.21976390480995178, 0.20465725660324097, 0.28563380241394043, -0.26540666818618774, -0.06742336601018906, 0.02107604779303074, -0.06312468647956848, -0.2639746069908142, -0.16046443581581116], [-0.39946097135543823, 0.6768637299537659, -0.22384537756443024, 0.18331265449523926, -0.2830571234226227, -0.8583087921142578, -0.805062472820282, -0.4308489263057709, -0.6494558453559875, 0.2526504099369049, -0.12629269063472748, -0.9316444993019104, -0.03526918962597847, 0.20645762979984283, -0.5097265839576721, -0.7071759700775146]], "2_weights": [[1.24812912940979, 1.2187548875808716, 1.0880028009414673], [-0.5360667705535889, -0.3735203742980957, -0.16782918572425842], [0.7925481200218201, 0.8101262450218201, 0.7870495915412903], [-0.36369746923446655, -0.5102346539497375, -0.6595444083213806], [0.7425866723060608, 0.7732262015342712, 0.7467967867851257], [-0.8336650729179382, -0.8730747103691101, -0.9239110946655273], [-0.5969135165214539, -0.5876802802085876, -0.6263441443443298], [-0.5573377013206482, -0.56987065076828, -0.6164916157722473], [-0.3279215395450592, -0.32868868112564087, -0.31069400906562805], [-0.46187350153923035, -0.4911532700061798, -0.5056573748588562], [0.7500502467155457, 0.7707416415214539, 0.7599724531173706], [0.4687953591346741, 0.3880740702152252, 0.2640629708766937], [0.016411511227488518, -0.10072054713964462, 0.15422849357128143], [0.2664472460746765, 0.2557140290737152, 0.04969969019293785], [0.24557749927043915, 0.2551974356174469, 0.24644415080547333], [-0.4233594238758087, -0.40767115354537964, -0.3679686188697815]], "0_bias": [0.18469038605690002, -0.00854436308145523, 0.24918468296527863, -0.22286123037338257, -0.08851053565740585, 0.0748588815331459, -0.020300505682826042, 0.24687910079956055, -0.14111194014549255, 0.04442445561289787, -0.2735559642314911, -0.4139147698879242, 0.6893890500068665, -0.03812937065958977, -0.3044259250164032, 0.23590125143527985], "1_bias": [0.27080389857292175, 0.2767705023288727, -1.8259096145629883, 0.5588720440864563, -0.8860445618629456, -0.20324189960956573, 0.5606852173805237, -0.1110161542892456, -1.7252384424209595, 0.8641486167907715, 0.5475069880485535, 0.9837512969970703, -0.08559801429510117, 0.14289391040802002, -0.4418849050998688, 0.663850724697113], "2_bias": [-0.08365634083747864, -0.07716706395149231, -0.052937448024749756]}