{"triplane_resolution": 4096, "triplane_voxel_size": 0.0009765625, "sparse_grid_resolution": 512, "sparse_grid_voxel_size": 0.0078125, "range_features": [-7.0, 7.0], "range_density": [-14.0, 14.0], "data_block_size": 8, "atlas_width": 1980, "atlas_height": 369, "atlas_depth": 9, "num_slices": 9, "slice_depth": 1, "0_weights": [[-0.3671688437461853, 0.6769324541091919, -0.394523024559021, 0.002425838727504015, 0.9838725924491882, 0.6687333583831787, 0.9364585876464844, 4.692080497741699, 0.01497956644743681, -0.600157618522644, -0.10676038265228271, -3.1764345169067383, 1.6886192560195923, 1.0523709058761597, -0.275143027305603, 0.41264501214027405], [0.5703912973403931, -0.76541668176651, 1.2002211809158325, -0.8743054866790771, 2.5464696884155273, -0.4520556330680847, 0.7371321320533752, -1.4904597997665405, -0.19810476899147034, 1.9077420234680176, -1.0351516008377075, 0.1311255693435669, -3.174370050430298, -0.004655185155570507, -0.16588257253170013, -1.4746915102005005], [0.13573680818080902, 1.3218330144882202, -0.6798530220985413, 1.8923813104629517, 0.430064857006073, 0.02079312689602375, -0.8094433546066284, 0.08597392588853836, 0.04461858794093132, -1.3007928133010864, 0.24872735142707825, 2.0278284549713135, 1.209905982017517, -0.49536338448524475, -1.4857233762741089, 0.15309280157089233], [0.4785690903663635, 2.283843517303467, 0.0775541290640831, 0.1847592294216156, 1.1409937143325806, -3.5146327018737793, 0.956526517868042, -2.258077621459961, -0.18748648464679718, -4.223124027252197, -1.9638205766677856, -1.3131641149520874, -2.0989866256713867, 0.8441781997680664, -0.8988059163093567, -3.3396759033203125], [-0.21241477131843567, -0.8962169289588928, -0.09343721717596054, -1.3320618867874146, -1.640772819519043, 0.8769714832305908, 0.05236290767788887, -1.4009807109832764, -0.03045419044792652, 0.6751819252967834, -0.29406362771987915, 0.1602901667356491, 0.3133688271045685, -1.6622605323791504, 1.6008901596069336, 1.2676570415496826], [0.6018366813659668, -0.15839695930480957, -1.6441309452056885, -0.5859636664390564, -0.8494657278060913, 0.13165436685085297, 2.8360979557037354, -0.9372993111610413, -0.19986917078495026, 0.5874176621437073, 0.074236661195755, 1.0370817184448242, 2.535534620285034, -0.4063248634338379, -0.660920262336731, -1.4287383556365967], [-1.014008641242981, 0.8231205344200134, -0.5958551168441772, 0.6781819462776184, -2.327650785446167, 0.8062413930892944, 0.08911056816577911, 1.9147542715072632, -0.12445554882287979, -0.5903239846229553, 0.19514399766921997, 1.254155158996582, 1.2454140186309814, -2.732010841369629, 1.0730993747711182, 0.6102597713470459], [0.0025822909083217382, -0.21827736496925354, -0.35122382640838623, 0.7278669476509094, -0.07402520626783371, 0.46614179015159607, 0.3605322241783142, -0.540925145149231, 0.04781358689069748, -0.07554733753204346, 0.07050640881061554, 0.1143435686826706, 0.4540158212184906, -0.014427803456783295, -0.29502832889556885, -0.1923166662454605], [-0.05658961087465286, -0.007025757804512978, 0.8651929497718811, 0.5029187798500061, 0.14586301147937775, -0.005460062995553017, 0.7658384442329407, 0.4481325149536133, 0.0403994619846344, -0.06213751435279846, -0.1833227127790451, 0.30289241671562195, -0.2517385482788086, 0.30598780512809753, -0.31371811032295227, -0.6137365698814392], [-0.07172469794750214, -0.26879021525382996, -0.07427339255809784, 0.02477123960852623, -0.2927475571632385, -0.4490750730037689, 0.2080855667591095, -0.15137915313243866, -0.06194646283984184, 0.23399610817432404, -0.24754755198955536, 0.2826464772224426, 0.43117737770080566, -0.09223846346139908, -0.04097192361950874, 0.5340708494186401], [0.20967397093772888, -0.0025110559072345495, -0.16909942030906677, 0.6249620318412781, -0.07544106245040894, 0.036133188754320145, 0.0686291754245758, -0.3949569761753082, -0.0722479522228241, -0.3979406952857971, 0.07742463797330856, 0.1236121729016304, 0.350398451089859, 0.006645182613283396, 0.09014811366796494, -0.25773537158966064], [-0.30255672335624695, 0.22768907248973846, 0.9058852195739746, 0.3011019229888916, 0.12643612921237946, 0.11799123883247375, 0.5234870910644531, 0.5528942346572876, 0.005747683811932802, -0.02880241349339485, -0.24244756996631622, 0.44873568415641785, -0.06444556266069412, 0.410334050655365, -0.45845264196395874, -0.687987208366394], [-0.2548472285270691, -0.18359167873859406, 0.09587261080741882, -0.05386446416378021, -0.295504093170166, -0.48233768343925476, 0.25475865602493286, 0.09284427016973495, 0.08634857088327408, 0.40500035881996155, -0.3116695284843445, 0.4681074023246765, 0.4217754304409027, -0.1763998419046402, -0.14679008722305298, 0.4277682900428772], [0.31350916624069214, -0.021457979455590248, 0.3891754746437073, 0.6814870238304138, 0.12371120601892471, -0.720697820186615, -0.23345007002353668, -0.1810559630393982, -0.0005656051216647029, -0.5261650085449219, -0.07001757621765137, 0.3467346131801605, -0.26669594645500183, 0.23683294653892517, 0.33091625571250916, -0.4904864728450775], [-0.511457085609436, -0.05121690034866333, 0.5335509777069092, 0.24228554964065552, -0.30497831106185913, 0.20271268486976624, 0.7534446120262146, 0.06266360729932785, -0.018458597362041473, -0.4686742424964905, -0.5046322345733643, 0.6294614672660828, -0.09989327192306519, 0.3952893614768982, -0.35471394658088684, -0.3887788653373718], [0.02362467534840107, -0.24240471422672272, 0.03263890743255615, -0.006671058014035225, 0.021635010838508606, 0.08440499007701874, -0.0807444155216217, 0.2510073482990265, 0.007932030595839024, 0.26973211765289307, -0.2637564241886139, 0.5437932014465332, 0.19477492570877075, -0.06870190799236298, 0.18199767172336578, 0.5333954095840454], [-0.11374866217374802, -0.007400092203170061, -0.3256923258304596, -0.09373467415571213, -0.6779859662055969, 0.20419557392597198, -0.07020905613899231, -0.1606518030166626, -0.1352756917476654, -0.36738452315330505, -0.21548955142498016, 0.9918546676635742, 0.20877565443515778, 0.03328394889831543, -0.00038317323196679354, -0.45606234669685364], [-1.4210740327835083, 0.31195852160453796, -0.1539919078350067, -0.5991401076316833, 0.409502774477005, 0.8969762921333313, 0.03922713175415993, -0.6590907573699951, -0.0397663414478302, -0.9505561590194702, -0.14601215720176697, 0.9387893080711365, -0.36395707726478577, 0.16356535255908966, -1.3004205226898193, -1.0279929637908936], [0.10392677783966064, 0.23692157864570618, -0.29801836609840393, -0.016580820083618164, 0.4290163815021515, 0.14508534967899323, -0.21680177748203278, 0.16995973885059357, -0.018688315525650978, -0.014650034718215466, -0.07353857159614563, 0.5138201117515564, -0.4055776298046112, 0.18200942873954773, -0.10274043679237366, 0.6811697483062744], [0.07041726261377335, -0.10007999837398529, 0.09357187151908875, 0.06771736592054367, 0.22314754128456116, 0.09004928171634674, 0.11166516691446304, -0.03958747535943985, -0.03914937004446983, 0.34194302558898926, 0.03745725378394127, -0.8587744832038879, 0.008227317593991756, 0.031083635985851288, -0.0362093448638916, 0.37357097864151], [-1.6618372201919556, 0.0656190738081932, 0.244884192943573, 0.060567233711481094, -0.42129018902778625, -0.49398893117904663, 0.030167780816555023, -0.1828654408454895, -0.0037262574769556522, 0.24128548800945282, 0.3764890730381012, 0.856436014175415, -0.04024723544716835, 0.08625727891921997, -1.1639705896377563, 0.3563995361328125], [0.48617538809776306, -0.009583747014403343, 0.19708353281021118, 0.22696737945079803, -0.2399996668100357, -0.14338526129722595, 0.08389632403850555, 0.32892274856567383, -0.1167774498462677, -0.3265383839607239, -0.11298424750566483, 0.18844935297966003, -0.13805657625198364, -0.023646632209420204, 0.2791289985179901, -0.6866976618766785], [0.0599815770983696, 0.08189591765403748, 0.6347380876541138, 0.08606736361980438, 0.3745293617248535, -0.29626715183258057, -0.38272368907928467, -0.4542597532272339, -0.23729468882083893, -0.49551066756248474, 0.12434461712837219, -0.5263688564300537, -0.650377094745636, 0.5536390542984009, -0.14248481392860413, 0.09098924696445465], [-0.24720194935798645, -0.035220615565776825, 0.506065845489502, 0.0749647244811058, 0.23410628736019135, 0.0023504355922341347, -0.2240142673254013, -0.2169075757265091, -0.06633122265338898, 0.2859404683113098, 0.37611889839172363, -0.5250821709632874, -0.688728392124176, 0.50101637840271, -0.3939255177974701, -0.2631489038467407], [-0.16985145211219788, 0.2615947425365448, 0.7279753088951111, 0.17596487700939178, 0.34850984811782837, -0.6802014708518982, -0.18926678597927094, -0.49910351634025574, -0.18862682580947876, 0.22893178462982178, 0.3544038236141205, -0.6869605183601379, -0.34970858693122864, 0.7212024331092834, -0.3210715651512146, 0.029249679297208786], [0.4340633153915405, 0.30089735984802246, 0.5490436553955078, -0.3916469216346741, 0.7481330037117004, -0.5818510055541992, -0.6705115437507629, 0.03271082788705826, -0.030685849487781525, -2.8164141178131104, 0.044551651924848557, -0.32901084423065186, -0.2040448635816574, 0.09598788619041443, 0.7624724507331848, -0.117965467274189], [-1.8641502857208252, -0.08859822899103165, 0.5512524843215942, 0.39592140913009644, -0.3656228184700012, 0.2832626402378082, -0.08329372853040695, -0.09063263237476349, -0.11425624042749405, 0.6621078848838806, 0.37677547335624695, -0.3802110552787781, -1.0543811321258545, 0.5210171937942505, -2.724015951156616, -0.39198967814445496], [-0.5663632154464722, 0.07347816228866577, 1.2074015140533447, 0.4799582064151764, 0.42274394631385803, -1.3736717700958252, -0.24494586884975433, -1.2633192539215088, -0.10187479853630066, 0.48936429619789124, -0.1963522583246231, -2.490579128265381, -0.1459520161151886, 0.918786883354187, -0.6356566548347473, 0.5831255316734314], [1.3846781253814697, -0.027096504345536232, 0.3425346314907074, 1.0346943140029907, -0.506338357925415, -0.8881646394729614, 0.3230052888393402, -0.6194720268249512, 0.026721980422735214, 0.2645697295665741, -0.02648298628628254, 1.2154161930084229, -0.17580947279930115, -0.08646038174629211, 0.8571991920471191, 0.15591983497142792], [-2.174095869064331, 0.43722856044769287, 0.12260247766971588, 0.4429183900356293, -0.6416585445404053, 0.008648145012557507, -0.19095738232135773, 1.2587013244628906, 0.09113314002752304, -1.1663954257965088, 0.11417105793952942, -1.0815030336380005, -0.6020472645759583, -0.6549696922302246, -0.9717244505882263, 0.3438218832015991], [0.6290842294692993, -0.7809091806411743, -0.07255382090806961, 0.05949191376566887, 0.1740242838859558, 0.6737980842590332, 0.3035252094268799, 0.1869950294494629, 0.021370192989706993, 0.799015998840332, -0.7990070581436157, -0.037039343267679214, 0.23967424035072327, 0.07096436619758606, 0.5048522353172302, 1.8811593055725098], [0.18338969349861145, -0.0265593733638525, -0.2509209215641022, -0.12960176169872284, 0.0476401261985302, 0.18342214822769165, -0.1124454140663147, -0.1416969746351242, -0.09680923819541931, 0.14928686618804932, -0.022238222882151604, 0.6746005415916443, 0.05095016956329346, 0.015794897451996803, 0.2011696845293045, 0.3170626759529114], [0.22523631155490875, -0.21805688738822937, -0.11315759271383286, 0.2980228066444397, -0.19744330644607544, 0.4198380708694458, 0.004914727061986923, 0.12730272114276886, -0.04684792831540108, 0.3780166804790497, 0.04393599182367325, -0.0476803220808506, 0.10621725767850876, 0.007514982484281063, 0.20296241343021393, 0.13675931096076965], [-0.7789908051490784, -0.11209997534751892, 0.06761842966079712, -0.15818262100219727, -0.21235404908657074, -0.28081807494163513, 0.04962660372257233, -0.3154512941837311, -0.10321667790412903, 0.6223675608634949, -0.27685821056365967, 0.2543138563632965, 0.1612253487110138, 0.038871973752975464, -0.6825388669967651, 0.47416841983795166]], "1_weights": [[-1.1117626428604126, -0.011478867381811142, -0.5363099575042725, 0.214870885014534, -2.3889575004577637, 0.9655431509017944, -1.6673204898834229, -1.7834237813949585, 0.3286290168762207, 1.2225749492645264, -0.29271066188812256, 0.3883311152458191, -0.002087633591145277, 0.10758338123559952, -0.4900571405887604, -0.20869874954223633], [-0.8930646777153015, -0.0004070439317729324, -0.6027655601501465, 0.22788947820663452, -0.43550658226013184, 0.6289518475532532, -1.0805798768997192, 0.08579114824533463, 0.6435256004333496, 0.16334286332130432, -0.5204198360443115, -0.0365612730383873, -0.3588678538799286, 0.03244077041745186, 0.20844297111034393, 0.5650652050971985], [-0.6502398252487183, -0.16079576313495636, 0.19783711433410645, 0.11932413280010223, 0.44961512088775635, -0.22831186652183533, -0.648726224899292, -0.9229673147201538, 0.17132018506526947, 0.10302536189556122, 0.9132573008537292, 0.07285220175981522, -0.34753039479255676, 0.2658526599407196, -0.693140983581543, 0.18391652405261993], [-0.6986709237098694, -0.13476768136024475, -0.789190411567688, 0.025854334235191345, -3.6313579082489014, 0.6715800762176514, 0.17716184258460999, -0.08271506428718567, 0.3324738144874573, 0.3643051087856293, -1.0485212802886963, -0.03134623542428017, -0.02337587997317314, 0.094802625477314, -0.011552831158041954, 0.26425909996032715], [-1.0943946838378906, -0.12514792382717133, -0.33965185284614563, -0.071834035217762, -5.048362731933594, 0.2867566645145416, 0.37344852089881897, -0.29571637511253357, -0.07311045378446579, -0.37821024656295776, 0.42968422174453735, 0.21161817014217377, 0.03256437927484512, 0.8603438138961792, 0.051819927990436554, 0.787421703338623], [-1.0591248273849487, -0.16935820877552032, -0.6189568042755127, -0.10356942564249039, 0.1328665018081665, -0.036490194499492645, 0.06725039333105087, -0.4829723536968231, 0.08012507855892181, 0.5878297686576843, -0.6049321293830872, -0.434031218290329, -0.3695422112941742, 0.21753907203674316, 0.0046900673769414425, -0.09844636172056198], [1.060854434967041, 0.9138180613517761, 0.16051699221134186, -0.24048946797847748, 0.18241077661514282, -0.46464985609054565, -0.5526912808418274, 0.9805665612220764, -0.5403221249580383, -0.3477456271648407, 0.12149900197982788, 0.1446773111820221, -0.08410374820232391, -2.0919089317321777, 0.8095306158065796, -0.03249747306108475], [-0.5957365036010742, -0.24274836480617523, 0.4909924864768982, 0.8580031991004944, 1.0277427434921265, 0.14862601459026337, -0.0007801332976669073, 0.4533279836177826, 1.0350947380065918, -6.0249223709106445, 0.9113147258758545, -0.3425320088863373, 0.13417251408100128, 0.5883679389953613, 0.16666792333126068, -0.6517829895019531], [0.15444986522197723, -0.11212611943483353, -0.1635368913412094, 0.10996843874454498, -0.14963851869106293, 0.14350572228431702, 0.14330807328224182, 0.1487290859222412, 0.06434124708175659, -0.23586946725845337, -0.16796575486660004, -0.022254783660173416, 0.03927018493413925, -0.2739778757095337, 0.27329444885253906, -0.13734212517738342], [0.5536866188049316, -0.1600460708141327, 0.3213561475276947, 0.3021553158760071, 0.27043595910072327, 0.2356748729944229, -0.09426550567150116, 0.15283510088920593, 0.3144698441028595, -0.3184053897857666, 0.6231883764266968, -0.5367283225059509, 0.10632840543985367, 1.8675167560577393, 0.10334111750125885, 0.07332618534564972], [0.4831622838973999, -0.1751532107591629, 0.17844972014427185, 0.20332516729831696, 0.6407864093780518, -0.048729997128248215, 0.37609708309173584, 0.33684873580932617, 0.22669686377048492, -0.3707609176635742, 0.7310950756072998, 0.05630557984113693, -0.33983123302459717, 0.42056724429130554, 0.29029205441474915, -0.3333479166030884], [0.07359185814857483, 1.6248929500579834, 0.4948344826698303, -0.19247332215309143, -0.1391047239303589, 0.16871827840805054, 0.295494943857193, -1.1829023361206055, -0.7580145001411438, 1.3567155599594116, 0.3715369403362274, 0.6550055146217346, -0.009154332801699638, -0.8308378458023071, -1.302909255027771, -0.6851300597190857], [0.5606861114501953, -0.14528502523899078, -0.4833582937717438, 0.6813811659812927, 0.47830161452293396, 0.5443625450134277, -1.1238213777542114, -0.024526705965399742, 0.9625729918479919, 0.13308395445346832, 0.3165789544582367, -0.15212056040763855, -0.5503628253936768, -4.681514263153076, -0.14026789367198944, -0.22243474423885345], [0.210225448012352, -0.4270210862159729, 0.7497264742851257, 0.0995631068944931, -5.966863632202148, 1.109330415725708, 0.030829906463623047, -11.659147262573242, -0.10973253846168518, 0.8299541473388672, -0.9318488240242004, -1.1600618362426758, -0.0722048431634903, -0.3024251461029053, -10.536237716674805, 0.47229793667793274], [-2.7436935901641846, -0.1071677953004837, 0.5839328169822693, -0.2702902853488922, -2.502213716506958, -1.1869922876358032, -0.7976223826408386, 0.029889870434999466, -0.3173142373561859, -1.4687918424606323, 0.5071882009506226, -0.3923475444316864, -0.39685648679733276, -0.35272103548049927, -3.5117645263671875, 0.16964863240718842], [-0.6361047029495239, -0.06234016269445419, -0.3744756281375885, 0.6394370794296265, -0.28906914591789246, -0.5757105946540833, -0.355842649936676, -0.020169086754322052, 1.0772264003753662, -2.035569906234741, 0.7386858463287354, 0.20226334035396576, -0.28939151763916016, -1.2085776329040527, -6.616763591766357, 0.18079471588134766]], "2_weights": [[0.21964849531650543, 0.20226849615573883, 0.14098164439201355], [-0.2761905789375305, -0.2753157615661621, -0.22508354485034943], [-0.26180440187454224, -0.32421863079071045, -0.37446677684783936], [-0.17150472104549408, 0.018832501024007797, -0.1413440704345703], [0.20977291464805603, 0.19470006227493286, 0.18401725590229034], [-0.38510268926620483, -0.3948277235031128, -0.441813588142395], [-1.3784005641937256, -1.1042629480361938, -0.7091217637062073], [1.2012639045715332, 0.777768075466156, -0.3165351152420044], [-0.2072427123785019, -0.3412204384803772, -0.252546489238739], [0.28241971135139465, 0.2524660527706146, 0.27825450897216797], [0.228976771235466, 0.23893016576766968, 0.27402421832084656], [0.10386902838945389, 0.03210744634270668, -0.11984771490097046], [0.20589393377304077, 0.16832636296749115, 0.1954565793275833], [-1.4904683828353882, -1.2640036344528198, -0.8384965062141418], [1.534348487854004, 1.5451502799987793, 1.5754826068878174], [-0.567014217376709, -0.5015943646430969, -0.3200834095478058]], "0_bias": [-0.009587801061570644, 0.10777516663074493, 0.6692185401916504, 0.26486778259277344, 0.465858519077301, -0.3242964744567871, -0.2649681270122528, -0.32019734382629395, -0.18089225888252258, -0.029944684356451035, 0.3192487061023712, -0.7756789922714233, -0.6832788586616516, 0.6215047836303711, -0.14804567396640778, -0.09572919458150864], "1_bias": [0.38812264800071716, -0.3872016668319702, 1.347115397453308, 0.35509854555130005, -0.8921039700508118, -0.014291773550212383, 1.61942458152771, -0.888236403465271, -0.023754606023430824, -0.47493988275527954, -2.1901168823242188, 0.4720699191093445, -0.3810800611972809, -1.219366431236267, -1.6875056028366089, -2.2256009578704834], "2_bias": [-0.4647258520126343, -0.38092613220214844, -0.390206903219223]}