{"triplane_resolution": 2048, "triplane_voxel_size": 0.001953125, "sparse_grid_resolution": 512, "sparse_grid_voxel_size": 0.0078125, "range_features": [-7.0, 7.0], "range_density": [-14.0, 14.0], "data_block_size": 16, "atlas_width": 1207, "atlas_height": 408, "atlas_depth": 17, "num_slices": 17, "slice_depth": 1, "0_weights": [[0.2116028070449829, 2.2963271141052246, -0.22568272054195404, 2.445516347885132, 1.7560571432113647, -0.9133001565933228, 0.10422372817993164, 0.74822598695755, 1.774482250213623, 1.9552021026611328, -0.8346912264823914, 1.861641764640808, 0.8112166523933411, -0.11108880490064621, -0.27837422490119934, 0.7261008620262146], [0.4488697648048401, 1.6152539253234863, -0.14260731637477875, -3.3153235912323, 1.6807535886764526, -0.011071373708546162, -0.1924886554479599, 0.5444365739822388, 1.9349753856658936, 0.0488119050860405, 1.0032854080200195, 2.1119964122772217, 0.11805004626512527, 0.048612479120492935, -0.04789062589406967, 1.1846531629562378], [-1.1247273683547974, 1.7081090211868286, -0.1616772562265396, -0.7512724995613098, -1.9630190134048462, -0.39565807580947876, 0.010865142568945885, 1.9364128112792969, 1.5679106712341309, 0.905613124370575, 0.5864951014518738, 0.2956017851829529, 0.10857387632131577, -0.03949173912405968, -0.26874247193336487, 1.8083266019821167], [-0.12960433959960938, 8.367162704467773, -0.19823606312274933, 8.356419563293457, 3.2068421840667725, 4.637099266052246, -0.021455151960253716, -3.427588939666748, 5.109614372253418, 4.270350933074951, -12.87642765045166, -6.693021297454834, -16.046947479248047, -0.07768537849187851, -4.1677398681640625, 2.99015736579895], [0.48701536655426025, -0.5381445288658142, -0.15704527497291565, 0.13033564388751984, -1.4775218963623047, -2.574324369430542, -0.078341543674469, -0.11842215061187744, 0.2564505636692047, 1.0012876987457275, 1.5171059370040894, -0.9733070135116577, -5.214643478393555, -0.11567078530788422, -0.10504914075136185, 1.760538101196289], [0.646458625793457, -1.0484254360198975, -0.23455284535884857, -0.20651991665363312, -0.7265071272850037, -3.144603967666626, -0.1898380070924759, -0.07218252122402191, -0.9326456189155579, -0.26503390073776245, 1.2503827810287476, -0.817441999912262, -0.27235147356987, -0.02520892396569252, 0.6041921377182007, 0.9534520506858826], [2.7177743911743164, -0.9574083685874939, 0.02396431379020214, -1.5611951351165771, -1.319868803024292, 0.16367919743061066, -0.14928562939167023, 2.8518543243408203, 0.5248140096664429, -0.5193032622337341, 0.8528282642364502, -1.146884560585022, 1.9187461137771606, -0.18355795741081238, 2.082050323486328, -0.8084397315979004], [0.22315973043441772, 0.21633422374725342, -0.04061349481344223, 0.18149763345718384, 0.04966495558619499, -0.23251625895500183, -0.03775377571582794, 0.2950454652309418, 0.037807170301675797, 0.13370344042778015, -0.35655394196510315, 0.10693111270666122, -0.041121672838926315, -0.0930359736084938, -0.3477548360824585, 0.0522879995405674], [-0.4593752920627594, 0.21601366996765137, 0.061786092817783356, 0.7229316830635071, 0.6476383805274963, -0.1232021227478981, -0.1813598871231079, 0.24682632088661194, -0.09579377621412277, -0.20652011036872864, 0.09999972581863403, 0.5583575367927551, 0.14758825302124023, -0.0016048047691583633, 0.5607059001922607, 0.24538388848304749], [0.38095584511756897, 0.035017240792512894, 0.035074248909950256, -0.26736146211624146, -0.1612078845500946, -0.38288649916648865, 0.052876003086566925, 0.43885043263435364, -0.15637533366680145, 0.042816273868083954, 0.24558700621128082, -0.4434274137020111, -0.06865407526493073, -0.0002774996683001518, 0.10475636273622513, 0.07150750607252121], [0.2820225656032562, 0.27883580327033997, 0.04918118193745613, 0.006697691045701504, -0.2228180319070816, 0.055608898401260376, -0.05481637641787529, 0.09307605773210526, 0.1713637262582779, 0.2415313869714737, -0.37541642785072327, -0.10400436818599701, -0.09071182459592819, -0.037409186363220215, -0.4601912796497345, -0.08920169621706009], [-0.5586885213851929, -0.05488567799329758, 0.05450830236077309, 0.5783823132514954, 0.5331389904022217, 0.07459396868944168, -0.05877973139286041, 0.29413044452667236, 0.23729777336120605, -0.3879941999912262, 0.09243448823690414, 0.36507749557495117, 0.23318752646446228, -0.16004455089569092, 0.4865047335624695, 0.07286762446165085], [0.40227025747299194, -0.1269109547138214, 0.29034918546676636, 0.03469445928931236, -0.3077888488769531, -0.1306789368391037, -0.0911865085363388, 0.47846129536628723, -0.25226646661758423, -0.09916771203279495, 0.2808225750923157, -0.4534861147403717, 0.06732722371816635, 0.061773303896188736, 0.06931724399328232, 0.24480536580085754], [-0.012426481582224369, -0.17311806976795197, 0.04164037108421326, -0.3341430425643921, -0.024116935208439827, 0.1568039506673813, -0.03671625629067421, -0.06864683330059052, -0.11010709404945374, -0.004347290378063917, 0.05170818045735359, -0.33306586742401123, 0.14542730152606964, 0.06181272491812706, -0.2264435589313507, 0.20923647284507751], [-0.47942036390304565, 0.2493131160736084, -0.13652077317237854, 0.6820045709609985, 0.20897150039672852, -0.012981461361050606, 0.02301846817135811, -0.02208133600652218, 0.43395715951919556, -0.34533828496932983, -0.04174777492880821, 0.4712235927581787, -0.046845730394124985, -0.022028259932994843, 0.4334770739078522, 0.38689476251602173], [0.5169116258621216, -0.255313515663147, 0.03160663694143295, -0.24470749497413635, -0.2236246019601822, -0.2644062042236328, 0.20054392516613007, 0.6444696187973022, -0.1551721692085266, -0.13065966963768005, 0.4283500611782074, -0.16939224302768707, 0.09815286844968796, -0.010757491923868656, 0.21352747082710266, 0.2135964035987854], [0.204825296998024, 0.07888384908437729, -0.0736364796757698, 0.25729072093963623, -0.0029312926344573498, -0.05766630172729492, 0.11791730672121048, -0.017196515575051308, 0.11484712362289429, 0.3395487368106842, 0.7963640689849854, 0.32757076621055603, -0.02081403136253357, -0.0966811329126358, -0.224305659532547, -0.3166210949420929], [0.6322064399719238, -0.27361682057380676, -0.017187630757689476, -0.40709802508354187, -0.6952502131462097, 0.035071961581707, 0.046964380890131, -0.34524211287498474, -0.07206974923610687, 0.20237676799297333, 0.3271491825580597, -0.19519351422786713, -0.03890946879982948, 0.030896497890353203, -0.9237223863601685, -0.01645614579319954], [0.2238464504480362, -0.07358371466398239, 0.12518854439258575, 0.17640604078769684, 0.9661173224449158, 0.014373373240232468, -0.00908050686120987, 0.6592170000076294, -0.038768693804740906, -0.2724522650241852, 0.6510175466537476, -0.10726884007453918, -0.02401699498295784, -0.04557150974869728, 0.3608416020870209, 0.2335745394229889], [-0.007978487759828568, 0.06256156414747238, -0.09306146204471588, 0.04734622687101364, 0.04122712090611458, -0.0007427530363202095, -0.02978348173201084, 0.16087466478347778, 0.015620089136064053, -0.20899450778961182, -0.14496906101703644, -0.006535472813993692, 0.02988509275019169, 0.014374676160514355, 0.19619804620742798, 0.05020695924758911], [-0.0754854828119278, -0.021764269098639488, 0.02894413098692894, 0.030887195840477943, 0.18343494832515717, -0.01115840021520853, 0.13723649084568024, 0.09957902878522873, -0.01520104892551899, 0.10708362609148026, -0.0704251378774643, -0.03179948404431343, 0.023102441802620888, -0.045556675642728806, 0.22943902015686035, -0.11542250961065292], [-0.011233767494559288, -0.022946396842598915, 0.006995582487434149, 0.1086789146065712, 0.24067990481853485, 0.026694856584072113, 0.04346330836415291, 0.21118536591529846, 0.14489184319972992, 0.35985037684440613, 0.34145301580429077, 0.45476070046424866, -0.10061188042163849, -0.19880570471286774, 0.3366020917892456, 0.26226940751075745], [-0.37887445092201233, 0.006606049370020628, -0.07899386435747147, 0.06364263594150543, -0.026147136464715004, 0.329697847366333, -0.0922231450676918, -0.2093885838985443, 0.20283228158950806, -0.019948529079556465, -0.605385959148407, 0.3656003475189209, 0.038663189858198166, -0.19234955310821533, -0.29654935002326965, -0.2234184592962265], [-0.34184759855270386, -0.04209473729133606, -0.17192955315113068, 0.08577101677656174, 0.09501191228628159, 0.2781073749065399, -0.21389098465442657, -0.27872514724731445, 0.0438375324010849, -0.2022547870874405, -0.4614786207675934, 0.15871255099773407, -0.014128987677395344, -0.1890161633491516, -0.2600184977054596, -0.21271656453609467], [-0.16223092377185822, -0.014693167060613632, -0.27626514434814453, 0.14449700713157654, 0.1776682734489441, 0.40862566232681274, -0.20017828047275543, 0.030850689858198166, 0.11327235400676727, -0.009433922357857227, -0.6461440920829773, 0.042129240930080414, 0.1642969846725464, -0.2670980989933014, -0.4079887866973877, -0.16715803742408752], [-0.5048338174819946, -0.07582816481590271, -0.14317357540130615, 0.1417502909898758, -0.021807851269841194, 0.4921342432498932, -0.012533696368336678, -0.3983386158943176, 0.20792119204998016, 0.3767731785774231, -0.1470005363225937, 0.21399620175361633, 0.04209655150771141, -0.06763454526662827, -0.6116005778312683, -0.4770776629447937], [0.06344742327928543, 0.38464176654815674, -0.13554160296916962, 0.013174948282539845, 0.3694583475589752, 0.2089303880929947, -0.2196831852197647, -0.31536930799484253, 0.15114520490169525, -0.5963004231452942, -1.1246081590652466, 0.3617468476295471, 0.008486524224281311, -0.18167555332183838, 0.3387817442417145, -0.03971324861049652], [0.1715032011270523, -0.0037260816898196936, -0.09717664122581482, 0.22194209694862366, -1.5687627792358398, 0.6040288209915161, -0.19159577786922455, 1.1859861612319946, -0.08058857917785645, -0.055175527930259705, -1.060032844543457, -0.5524650812149048, 0.021331049501895905, -0.1599539965391159, -0.7150589227676392, -0.6588192582130432], [-0.13286393880844116, -0.025423364713788033, -0.013053632341325283, -0.30412641167640686, -0.2641906142234802, -0.08534383028745651, -0.0039910743944346905, 0.23442687094211578, -0.023897338658571243, 0.16928939521312714, 0.3631134331226349, 0.24570082128047943, -0.011640379205346107, 0.11631636321544647, -0.23806226253509521, 0.19011615216732025], [0.226000115275383, -0.4108513593673706, 0.062042467296123505, 0.28101176023483276, -0.20384272933006287, -0.07595211267471313, 0.026434259489178658, 0.336000919342041, -0.048863302916288376, 0.2813737690448761, -1.1536293029785156, -0.21731173992156982, 0.032989200204610825, -0.005071194842457771, 0.3636288046836853, 0.0792413130402565], [0.647839367389679, -0.10658051073551178, 0.060946330428123474, -0.17914089560508728, -0.16903255879878998, 0.04115642234683037, 0.12663054466247559, 1.111628770828247, -0.05554189532995224, 0.0961318239569664, 0.38641032576560974, -0.2722734212875366, 0.031200604513287544, -0.04237234964966774, 0.05670086294412613, -0.07830300182104111], [-0.04098448529839516, 0.03309786692261696, 0.05104175582528114, 0.037032727152109146, -0.05322389304637909, 0.009401819668710232, 0.030353818088769913, -0.12153410166501999, -0.004956392105668783, -0.10129175335168839, -0.18831658363342285, 0.024829361587762833, -0.024370988830924034, -0.05525772646069527, 0.15094976127147675, -0.02816810831427574], [-0.1351919174194336, 0.03792236000299454, 0.16445329785346985, -0.12335643172264099, -0.07635260373353958, -0.024156877771019936, -0.09012939035892487, -0.0802934393286705, -0.057268496602773666, 0.14171840250492096, -0.528806746006012, 0.09898577630519867, 0.01306916307657957, -0.0585724338889122, -0.19133180379867554, 0.10260254889726639], [0.020436357706785202, 0.004584029782563448, -0.0017028094734996557, -0.03160560876131058, 0.10518797487020493, -0.0036366453859955072, 0.04854854196310043, -0.5021965503692627, -0.008316571824252605, 0.15964868664741516, -0.2533063292503357, -0.09035426378250122, 0.06572467088699341, 0.06527835875749588, 0.05901872739195824, 0.07008812576532364]], "1_weights": [[-0.16663914918899536, -0.3721346855163574, 0.3531001806259155, -0.42197880148887634, -0.9383478760719299, 0.16598835587501526, 0.2514260709285736, -2.2145583629608154, 0.4703224003314972, -0.23620085418224335, -0.6096938848495483, -0.5267109274864197, 1.1480025053024292, 0.46903669834136963, 0.46958810091018677, 0.34480658173561096], [-0.21530479192733765, 0.050497666001319885, -1.8372210264205933, -0.3961552083492279, 2.028748035430908, -0.011063109152019024, 0.06728830933570862, -0.3015967011451721, 0.10318750143051147, -0.13939298689365387, -0.12129481136798859, -0.6432735919952393, -1.9260996580123901, 0.9775875210762024, 0.3714592456817627, -0.6924324035644531], [-0.11091424524784088, 0.046532098203897476, 0.2957814335823059, -0.21613267064094543, -0.1558750867843628, -0.15678484737873077, 0.05781051144003868, 0.07965622842311859, -0.1653536707162857, -0.20077210664749146, 0.1533617079257965, 0.02829984948039055, 0.029827943071722984, 0.039545606821775436, 0.23169231414794922, -0.12463737279176712], [-0.40346625447273254, 0.15095824003219604, 0.4201194941997528, -0.26924312114715576, 0.6299592852592468, -0.23459894955158234, -0.21603111922740936, 0.2796454131603241, -0.39946985244750977, -0.206477090716362, 0.4090946316719055, -0.7555226683616638, 0.7785820960998535, -0.006287098862230778, -1.4713598489761353, -0.4612659215927124], [-0.28136807680130005, -0.1654817909002304, 0.5559701323509216, -0.05502805858850479, -0.1777791678905487, 0.16512885689735413, 0.08465591073036194, -0.27780959010124207, 0.29626089334487915, 0.03175443783402443, -0.21427594125270844, -1.087148904800415, 1.7874031066894531, 0.20239992439746857, 0.7963621616363525, 0.211777463555336], [0.04929812625050545, -0.11853913217782974, 1.8765414953231812, -0.2396927773952484, -0.07325682044029236, 0.14408211410045624, 0.6077912449836731, 0.17631013691425323, 0.6974183917045593, 0.8602985143661499, -0.3793485462665558, 0.02011173777282238, 0.4454711377620697, 1.4611061811447144, 0.11762580275535583, 1.7311290502548218], [0.17397892475128174, 0.20015284419059753, -0.024639464914798737, 0.06040200591087341, -0.16559849679470062, 0.009559416212141514, -0.26936179399490356, 0.1845157891511917, -0.25159966945648193, 0.05472852289676666, 0.23635755479335785, -0.18417853116989136, -0.1291312426328659, -0.03023381344974041, -0.2237759381532669, 0.1376989632844925], [0.009980764240026474, 0.11439687758684158, -0.19028440117835999, -0.1015772670507431, -0.1277906447649002, 0.4150140881538391, -0.14260834455490112, 0.03582076355814934, 0.2485177367925644, 0.4771558344364166, 0.007572362199425697, 0.13285768032073975, 0.45965835452079773, -0.10152315348386765, -0.27534300088882446, -0.029597679153084755], [-0.26540642976760864, -0.2889544665813446, -0.4769994914531708, -0.13926443457603455, -0.34757089614868164, 0.2409922182559967, 0.3136462867259979, 0.18207673728466034, 0.5449486970901489, 0.2440180778503418, 0.25891032814979553, 0.08863624930381775, -0.21936962008476257, 0.09199831634759903, 0.3773577809333801, -0.32813578844070435], [-0.1460486799478531, -0.01950729638338089, 0.3908921182155609, -0.31288468837738037, -0.06153438240289688, 0.08061687648296356, 0.0026973849162459373, -1.1425879001617432, 0.030675744637846947, 0.21559090912342072, -0.7011514902114868, -0.8236399292945862, -0.15142822265625, 0.033867038786411285, -1.0067085027694702, 0.03715561330318451], [-0.19535276293754578, -0.1821494847536087, -1.3639708757400513, -0.25888514518737793, 1.4623134136199951, -0.6008049249649048, -0.2271832823753357, 0.7101566791534424, -0.7395361661911011, -0.6262565851211548, 1.435012698173523, 0.6517963409423828, -1.7936803102493286, -0.8232545256614685, -1.4750745296478271, -0.09292513877153397], [-0.0005143395392224193, -0.21778538823127747, 0.05570223927497864, -0.08653078973293304, -0.6756617426872253, 0.2246105670928955, -0.02372818998992443, -0.1378324180841446, 0.1008395105600357, 0.212410107254982, -0.8354632258415222, 0.6725175380706787, -0.7268152832984924, -0.34804123640060425, -1.9049091339111328, 0.37971028685569763], [-0.2818033993244171, -0.4510418772697449, -4.103088855743408, 0.07847866415977478, -0.11012426763772964, -0.5052765011787415, -0.2219252586364746, -1.6318182945251465, -0.6537140011787415, -0.6510707139968872, 1.6673073768615723, 0.0045187813229858875, -0.2920796275138855, -0.7091333270072937, -0.16824406385421753, 0.5325444936752319], [0.08022259175777435, 0.17833393812179565, 0.13642096519470215, -0.14156651496887207, -0.16625836491584778, -0.11912322044372559, -0.1054571121931076, 0.15279360115528107, -0.24885128438472748, 0.21778057515621185, 0.1405331790447235, 0.14091111719608307, -0.22849012911319733, -0.04243545979261398, 0.12332488596439362, -0.10472024232149124], [-0.016888869926333427, -0.2517837882041931, -0.05864877998828888, -0.18684121966362, 0.09510470926761627, 0.11222906410694122, 0.02073071524500847, -1.3609235286712646, 0.11108101159334183, 0.22063572704792023, 0.025879662483930588, -0.9504992961883545, -0.3445958197116852, 0.28078246116638184, 0.3464548587799072, -0.029679642990231514], [-0.01900995336472988, -0.39454540610313416, -0.08589215576648712, -0.13244950771331787, -1.0647441148757935, 0.23685553669929504, 0.07407987117767334, 0.2609652578830719, 0.3273142874240875, 0.0005994476960040629, -0.5175045132637024, 0.18939723074436188, 0.48493891954421997, 0.32811442017555237, 1.6775908470153809, 0.7080610990524292]], "2_weights": [[-0.17074915766716003, -0.1697850376367569, 0.013362149707973003], [-0.100754514336586, 0.14098142087459564, 0.04493643715977669], [0.2609630823135376, 0.2798996567726135, 0.3236389458179474], [0.1467553824186325, -0.009295165538787842, -0.0024423194117844105], [-0.17250464856624603, -0.15334665775299072, -0.13902591168880463], [-0.21082639694213867, -0.07073298841714859, -0.15169376134872437], [-0.02487950399518013, -0.04035361111164093, -0.264835387468338], [-0.22088387608528137, -0.19410091638565063, -0.17729304730892181], [-0.4552288055419922, -0.4837867021560669, -0.3252510726451874], [-0.13044221699237823, -0.19333502650260925, -0.2108020782470703], [0.1814948171377182, 0.17467918992042542, 0.16374608874320984], [0.35324281454086304, 0.31376364827156067, 0.29325538873672485], [0.37762412428855896, 0.34307074546813965, 0.2988414466381073], [-0.29231327772140503, -0.3101237416267395, -0.31599488854408264], [0.31004130840301514, 0.3082292675971985, 0.3006283938884735], [-0.5674181580543518, -0.5010839700698853, -0.4502916634082794]], "0_bias": [-0.144300639629364, -0.0780380442738533, -0.03091028332710266, 0.13614800572395325, 0.13164900243282318, 0.517482578754425, 0.01153926458209753, -0.144300639629364, 0.15839534997940063, 0.04283834993839264, -0.672345757484436, 0.1514674872159958, -0.10128965973854065, -0.05736830458045006, -0.4241269528865814, -0.21348948776721954], "1_bias": [-0.42332834005355835, -0.4914051592350006, -0.33288487792015076, -0.26751405000686646, 0.5848570466041565, 0.36171215772628784, 0.4034290313720703, -0.2773876488208771, 0.3555486500263214, 0.38760805130004883, -0.7625994682312012, -0.17072468996047974, -1.3243366479873657, 0.10712641477584839, -1.1661561727523804, -0.7584587931632996], "2_bias": [-0.530299961566925, -0.4967683255672455, -0.29324576258659363]}