{"triplane_resolution": 2048, "triplane_voxel_size": 0.001953125, "sparse_grid_resolution": 512, "sparse_grid_voxel_size": 0.0078125, "range_features": [-7.0, 7.0], "range_density": [-14.0, 14.0], "data_block_size": 16, "atlas_width": 697, "atlas_height": 493, "atlas_depth": 17, "num_slices": 17, "slice_depth": 1, "0_weights": [[0.0813974142074585, -1.1059552431106567, 3.6505768299102783, -0.12047157436609268, 1.3850082159042358, -1.967078685760498, -0.23583893477916718, 0.36511528491973877, 0.9110400676727295, 0.08904869109392166, 0.054809845983982086, -3.5505051612854004, -0.03969728201627731, 1.0617426633834839, 0.11357875913381577, 3.0654852390289307], [-0.1840856671333313, 0.10894446820020676, -1.004723072052002, -0.19853951036930084, -1.0632927417755127, 4.519460201263428, 2.6649978160858154, 2.138303279876709, -0.22205603122711182, -0.5135490298271179, 1.572017788887024, 3.792112350463867, -0.26617497205734253, -0.40764614939689636, 0.02757389470934868, -0.6349085569381714], [1.4743157625198364, 2.7835769653320312, 3.449418306350708, -0.821750283241272, 0.3185623586177826, 0.6555519700050354, 4.3650898933410645, -1.2903004884719849, 5.563222885131836, -0.8131529688835144, 4.837502956390381, 2.9193410873413086, -0.17198224365711212, 2.105807304382324, 0.04284752532839775, 1.4424638748168945], [-0.6209670305252075, -0.9052271842956543, 1.4270540475845337, -8.088967323303223, -0.9857558608055115, -1.452114462852478, -2.635530471801758, 0.6061190366744995, -0.7403039336204529, -0.9273179173469543, -0.909214437007904, 1.8006634712219238, -0.2539030611515045, -1.8231736421585083, 0.48725154995918274, -0.7396238446235657], [-0.8310599327087402, 0.024863891303539276, -0.27342015504837036, -7.69815731048584, 0.03884735330939293, 0.09746881574392319, -0.22961269319057465, 0.3100699782371521, 0.07643240690231323, -0.9324105978012085, 0.09702570736408234, 0.006189133506268263, -0.05647148936986923, -0.1809125542640686, -0.1917552947998047, -0.38424423336982727], [-0.8171241283416748, -0.1813787966966629, -0.2851996421813965, -7.602743148803711, -0.0575639046728611, -0.1309691220521927, -0.6707131266593933, 0.5075992345809937, -0.15286803245544434, -0.9989299178123474, -0.004470058251172304, -0.1524752825498581, -0.3194083273410797, 0.07796428352594376, 4.138744407100603e-05, -0.44001534581184387], [-0.950532853603363, -0.059951845556497574, -0.20800350606441498, -7.696774482727051, 0.15632858872413635, 0.09145636111497879, -0.14379680156707764, 0.403335839509964, 0.004849022254347801, -0.9661571383476257, 0.03532451391220093, -0.03754343464970589, -0.15996778011322021, -0.07845224440097809, -0.1407352089881897, -0.38728204369544983], [-0.6213281154632568, -0.1975490152835846, 0.04545887932181358, 0.02564113214612007, 0.5171595215797424, 0.4462856650352478, -0.38731664419174194, -1.2131165266036987, 0.09389327466487885, 0.05353299155831337, -0.19628311693668365, -0.07009394466876984, 0.12625820934772491, 0.08979786187410355, -0.6786224246025085, -0.02296588197350502], [-0.28121715784072876, 0.35438272356987, -0.3609013557434082, 0.18511448800563812, -0.07799909263849258, 0.0019141982775181532, -0.15334786474704742, -0.21970203518867493, -0.25370481610298157, 0.0306900255382061, 0.1194862425327301, -0.20879046618938446, -0.08478006720542908, 0.2269774079322815, 0.17164066433906555, -0.10857958346605301], [0.8560484051704407, -0.33536583185195923, 0.14233538508415222, -0.1024952381849289, -0.6850106716156006, 0.07104869931936264, 0.12156324088573456, 0.968124270439148, -0.22009845077991486, -0.17287197709083557, 0.057238638401031494, 0.14105218648910522, 0.08121521770954132, -0.3117460012435913, 1.5487616062164307, 0.1980476975440979], [-0.4286203682422638, 0.02336741052567959, 0.00680005457252264, -0.043544474989175797, 0.2872288227081299, 0.25321969389915466, -0.41248655319213867, -1.165433645248413, -0.04058998450636864, -0.16105802357196808, -0.06320685893297195, -0.04270689934492111, 0.1672060787677765, 0.09433828294277191, -0.4563455879688263, -0.04554397612810135], [-0.4897783398628235, 0.46157947182655334, -0.13619984686374664, -0.03432687371969223, 0.07388225197792053, 0.08193913102149963, -0.33573442697525024, 0.02036154456436634, -0.25628116726875305, 0.16643302142620087, 0.095281682908535, -0.07455483078956604, 0.05782900005578995, 0.3198811709880829, 0.0556243471801281, -0.2435312271118164], [0.6005492806434631, -0.1985636204481125, 0.3036971688270569, -0.16013553738594055, -0.6600319147109985, -0.08625403791666031, 0.16624568402767181, 1.102501630783081, -0.05553603917360306, 0.01118530984967947, 0.018969357013702393, 0.29375728964805603, 0.11806334555149078, -0.3642994165420532, 1.348589301109314, 0.021035069599747658], [-0.33163732290267944, 0.008304144255816936, -0.043703801929950714, 0.12442897260189056, -0.12920311093330383, 0.14247816801071167, 0.029084280133247375, -1.167696475982666, -0.0020569695625454187, 0.03998866304755211, 0.15613427758216858, 0.20899814367294312, -0.07958289980888367, 0.25136151909828186, -0.5747541785240173, -0.10532975196838379], [-0.5638448596000671, -0.16778211295604706, 0.019987329840660095, -0.08104848116636276, 0.08894547820091248, 0.040570568293333054, 0.09069468826055527, -0.07523809373378754, -0.18417686223983765, 0.01493963971734047, -0.08467753976583481, 0.08545403927564621, -0.09015587717294693, 0.2776775062084198, 0.26917463541030884, -0.045434147119522095], [0.6476857662200928, -0.11973398923873901, 0.22283099591732025, -0.03382153436541557, -0.25402092933654785, 0.1390206515789032, -0.16419155895709991, 0.9525378346443176, -0.07905443757772446, -0.0864655151963234, 0.13707563281059265, 0.26568159461021423, 0.03296812251210213, -0.15729603171348572, 1.3861223459243774, -0.09907282143831253], [-0.07131218910217285, -0.03731638565659523, -0.023368561640381813, -0.16416475176811218, -0.01681484840810299, -0.20113851130008698, -0.046601809561252594, 0.1693774312734604, 0.05232151225209236, -0.12627862393856049, 0.05672982335090637, -0.056348323822021484, -0.04355736821889877, -0.4732937514781952, -0.05606844276189804, -0.053552765399217606], [-0.6831180453300476, -0.4390435814857483, 0.14057111740112305, -0.03436438739299774, -0.11255934834480286, -0.1188720241189003, -0.07188007235527039, -0.03556174412369728, 0.011027410626411438, 0.011237528175115585, 0.14675073325634003, 0.04667632281780243, -0.030464880168437958, -0.10124807804822922, 0.20027635991573334, 0.0200043972581625], [-1.0563905239105225, 0.27875304222106934, 0.04963160678744316, 0.6049304604530334, 0.7672886252403259, -0.03955322876572609, -0.19719024002552032, 0.3086709678173065, 0.5127534866333008, -0.2998618185520172, 0.21831129491329193, 0.03414139896631241, -0.02318701520562172, 0.8997384905815125, -1.7083436250686646, -0.5187059640884399], [0.07258874177932739, 0.012888673692941666, 0.009089898318052292, -0.018089715391397476, 0.037121132016181946, 0.02695750817656517, 0.012287350371479988, -0.09889961034059525, -0.013927305117249489, 0.1617746502161026, -0.02408437989652157, 0.02261512540280819, 0.06128492206335068, 0.08725962042808533, 0.21608202159404755, 0.020463939756155014], [-0.047364745289087296, 0.13504134118556976, -0.03507217392325401, -0.09398550540208817, 0.016160747036337852, 0.008805861696600914, -0.05158020555973053, -0.026778951287269592, 0.018659038469195366, 0.15517227351665497, -0.0746939554810524, -0.036936089396476746, 0.0008840678492560983, 0.047805916517972946, -0.04982608184218407, -0.023601729422807693], [0.947231113910675, 0.6607041358947754, 0.031151875853538513, 0.11109805852174759, 0.4668014347553253, 0.0364781878888607, -0.19460192322731018, -3.423943519592285, 0.067865289747715, -0.6474732160568237, -0.0067909942008554935, -0.0014713718555867672, 0.0639963373541832, 0.3597085177898407, 1.3200230598449707, 0.194425567984581], [-0.007048024330288172, 0.2732076048851013, 0.06314877420663834, 0.1650499850511551, 0.13714054226875305, 0.0591900534927845, 0.3802527189254761, -0.01827172562479973, -0.1456284075975418, -0.21632105112075806, -0.20703710615634918, -0.13890770077705383, -0.23353245854377747, 0.19464696943759918, -0.38573846220970154, 0.26605677604675293], [0.05940588191151619, 0.022998733446002007, -0.13096989691257477, 0.1713075488805771, 0.33268412947654724, 0.13386720418930054, -0.05992818996310234, 0.16847163438796997, 0.08640734851360321, 0.08270322531461716, 0.07636971771717072, -0.09039990603923798, -0.09579747170209885, 0.05007009953260422, -0.06116668879985809, -0.24707089364528656], [-0.2338028997182846, 0.2751522958278656, 0.053489506244659424, 0.3845359981060028, 0.018220458179712296, -0.050106123089790344, 0.32823309302330017, 0.5469341278076172, -0.14637525379657745, 0.1724749505519867, 0.011101599782705307, -0.008520257659256458, 0.005066626705229282, 0.06828320771455765, -0.40625470876693726, 0.062497399747371674], [0.11043108999729156, 0.7399595379829407, 0.11584732681512833, -0.4589877724647522, 0.3625890612602234, 0.15540659427642822, 1.1786807775497437, -0.32875940203666687, 0.05073276907205582, -0.5610998868942261, -0.21020373702049255, -0.3174247443675995, -0.12004528194665909, 0.15193232893943787, 0.22599871456623077, 0.7877411246299744], [0.23551629483699799, -0.12547540664672852, -0.19122304022312164, 0.35967767238616943, 0.7710435390472412, -0.26831960678100586, -1.0789825916290283, -0.517899215221405, 0.22147397696971893, 0.01921873539686203, 0.17657482624053955, -0.022853311151266098, -0.05555368587374687, 0.24641366302967072, 0.040991101413965225, -0.3532024621963501], [-1.783684253692627, -0.1304493248462677, 0.1835639625787735, 1.0702122449874878, -1.0605640411376953, 0.15823404490947723, 0.5927369594573975, 1.4781650304794312, -0.6526439189910889, 0.3738545775413513, -0.49121907353401184, -0.21015217900276184, -0.23521916568279266, -1.4258854389190674, -2.559103012084961, 0.25093385577201843], [0.742957592010498, -0.09304872900247574, -0.010228615254163742, 0.028600428253412247, 0.04070242494344711, 0.012575258500874043, -0.5574362874031067, 0.10655411332845688, -0.04871445149183273, -0.15464599430561066, -0.1224219873547554, 0.11123191565275192, 0.06872392445802689, 0.027951013296842575, 1.19313645362854, -0.4396248757839203], [0.7058430314064026, -0.19267937541007996, 0.05113028734922409, -0.25068628787994385, -0.10146285593509674, 0.10389023274183273, 0.6453689932823181, -0.002127954736351967, -0.23537349700927734, -0.006351186893880367, -0.1272180825471878, -0.04087550938129425, 0.06806524842977524, -0.04255186766386032, 1.1421871185302734, 0.4080943763256073], [-0.26821768283843994, -0.26077935099601746, 0.3246028423309326, -0.19495561718940735, -0.8336007595062256, 0.022388534620404243, 0.17509791254997253, 4.755660533905029, -0.23106475174427032, 1.1023916006088257, 0.06906577944755554, -0.14336076378822327, 0.166555255651474, -0.23148103058338165, -0.023795809596776962, 0.5476974844932556], [-0.02489408664405346, 0.039149075746536255, 0.0008098081452772021, 0.04319125413894653, -0.0021739457733929157, -0.05451745539903641, 0.03426499664783478, -0.10100561380386353, 0.05314120650291443, 0.20779483020305634, 0.05228367820382118, -0.007297832053154707, -0.028894862160086632, -0.046910062432289124, -0.45371371507644653, 0.05395474657416344], [-0.038516368716955185, 0.21247033774852753, -0.0010792245157063007, 0.05570197105407715, 0.019376877695322037, -0.007749234326183796, -0.008464786224067211, -0.18688476085662842, 0.06898350268602371, -0.06352413445711136, -0.06487268954515457, 0.003873463487252593, 0.07253248244524002, -0.030370961874723434, -0.3333049714565277, 0.015287939459085464], [1.0952401161193848, -0.3197901248931885, 0.10730660706758499, 0.04095253348350525, 0.24056008458137512, -0.4884897768497467, -0.3727736473083496, -0.7581320405006409, -0.32127103209495544, -0.4198407828807831, 0.39113566279411316, 0.27647271752357483, 0.004925984889268875, -0.10690826922655106, 0.8234893083572388, -0.009694808162748814]], "1_weights": [[0.5696395039558411, -1.0103892087936401, 1.7303626537322998, -0.48433157801628113, -3.9975242614746094, 0.33365634083747864, -0.06299145519733429, 0.7579013109207153, -0.019871175289154053, -1.4703789949417114, 2.748868942260742, 0.36354610323905945, 0.5387927889823914, 0.4215385913848877, -0.7051623463630676, 1.4131574630737305], [-0.4209331274032593, -0.3349611163139343, 0.6662300825119019, 0.22106200456619263, -0.6991077661514282, -0.08503753691911697, -0.32405319809913635, 0.2953158915042877, 0.2920554578304291, 0.22327592968940735, -0.743182361125946, 0.2656180262565613, -1.0973467826843262, -0.32565370202064514, 0.09873135387897491, 0.27268266677856445], [-0.5539312958717346, -0.34461042284965515, -0.18428446352481842, 0.4586171805858612, 0.6529548168182373, 0.23446057736873627, -0.27643445134162903, 0.265725702047348, 0.3829343020915985, -0.027513694018125534, -0.16186882555484772, -0.10837765783071518, -0.6152695417404175, -0.19585761427879333, -1.874819278717041, 0.605629563331604], [-0.11346700042486191, 1.3406965732574463, -4.776745319366455, 6.838313579559326, 0.7904453277587891, -0.44231411814689636, 0.13242173194885254, 4.063068866729736, 3.916088819503784, -1.2553389072418213, -0.23289348185062408, 5.685299873352051, -0.018958428874611855, 0.7860950827598572, 2.438521385192871, 0.2699325680732727], [0.12465545535087585, 0.11884085834026337, -0.5072864294052124, 0.5368063449859619, 0.5043437480926514, 0.48465514183044434, -0.04853110387921333, -0.1118626669049263, 0.1978210061788559, -0.2907705008983612, -1.1837244033813477, 0.44178393483161926, 0.01833321526646614, -0.2009611427783966, -0.2523231506347656, -0.6385496258735657], [-0.241598978638649, 0.2360200434923172, -0.2142098844051361, 0.014452465809881687, 0.070038340985775, -0.323536217212677, -0.35749509930610657, 0.4375995099544525, 0.20108015835285187, -0.4401935040950775, -0.4698873460292816, 0.14913657307624817, -0.24952439963817596, -0.6960373520851135, 0.4078125059604645, -0.1463649421930313], [-0.43554064631462097, 0.4160460829734802, 1.2156119346618652, 0.8601704835891724, -0.34965845942497253, -0.8235569000244141, -0.1466572880744934, 0.7390720248222351, 1.0439109802246094, 0.26182425022125244, -0.15638025104999542, 1.0266709327697754, -0.9967899322509766, -0.5368984341621399, -0.24680563807487488, -0.5647821426391602], [0.4006916284561157, 0.04689987003803253, 0.2962169647216797, 0.7836432456970215, 1.250209093093872, 0.073762446641922, -0.08545753359794617, 0.5072618126869202, 0.49217334389686584, 0.14633958041667938, -0.4115651547908783, 0.6733794808387756, 0.5322985649108887, -1.273427128791809, 0.004514733329415321, -0.1504753977060318], [1.3411452770233154, 0.9561096429824829, -1.171086311340332, 0.4009040892124176, -0.5889077186584473, 0.22182700037956238, 0.11275539547204971, 0.06923511624336243, 0.16872237622737885, -0.39629846811294556, -0.25268489122390747, 0.24101033806800842, 0.9941549301147461, -0.490707129240036, 0.5021322965621948, -2.606799364089966], [0.20259703695774078, -0.8289040923118591, -0.8783205151557922, 0.11348732560873032, 1.5630207061767578, 0.8310512900352478, -0.048649463802576065, 0.4886472523212433, -0.04323984310030937, -0.2105623036623001, -0.03899212181568146, 0.48619791865348816, 0.23056824505329132, 0.39989298582077026, -0.019621025770902634, 1.5770496129989624], [-0.6318458318710327, 0.9644463062286377, 0.9443725943565369, 0.505754292011261, -0.7083361744880676, 0.08718518912792206, 0.05931420251727104, 0.14415915310382843, 0.4973471760749817, 0.3864288926124573, -0.1988450586795807, 0.5576090812683105, -0.1072445809841156, -0.050438810139894485, 0.6022387742996216, 1.1876418590545654], [0.38943052291870117, -1.101301670074463, 0.6662476062774658, -1.266965389251709, -0.03454498201608658, -1.5046526193618774, -0.0887913927435875, 0.2876628339290619, -0.8452007174491882, 0.6521375179290771, 0.3616200089454651, -0.4730425179004669, 0.6543987989425659, -2.0954861640930176, 1.841649055480957, 1.6585805416107178], [-0.027416398748755455, 0.07513254880905151, 0.04982953518629074, -0.11856383830308914, 0.18159790337085724, 0.17436030507087708, 0.10386896133422852, -0.0054270606487989426, 0.19084255397319794, 0.006062727887183428, -0.07196852564811707, -0.2362593710422516, -0.21364010870456696, -0.2929694354534149, -0.0128637021407485, -0.11889342218637466], [-0.129216730594635, 0.27768078446388245, 0.22879968583583832, -0.02947963774204254, -0.67762291431427, -0.40295955538749695, -0.11668343842029572, 0.4106827974319458, -0.17242887616157532, -0.6420252919197083, -0.22616121172904968, 0.09876146912574768, -1.1884709596633911, -0.04501371458172798, 0.715126633644104, -0.15617863833904266], [2.874844789505005, -1.6549475193023682, 2.6129987239837646, -1.3856827020645142, -0.313089519739151, -0.49177032709121704, 0.02937605045735836, -1.341934084892273, -0.6920105218887329, -3.58569598197937, 3.8320722579956055, -1.2993509769439697, 1.4217792749404907, 0.24427464604377747, -2.3258519172668457, -1.6143782138824463], [0.7648088932037354, -0.511552095413208, -0.3704746663570404, 0.628663182258606, -0.5796090364456177, -0.17181698977947235, -0.25745564699172974, -0.48879602551460266, 0.25226548314094543, 0.8021178245544434, -0.08285592496395111, -0.5889855623245239, 0.6627843976020813, 0.39696910977363586, 0.27905261516571045, -0.056050073355436325]], "2_weights": [[0.7168219089508057, 0.6195922493934631, 0.6165294647216797], [-0.6197810769081116, -0.5158539414405823, -1.0628509521484375], [0.40720632672309875, 0.4755241572856903, 0.4114321172237396], [-0.6705937385559082, -0.19392916560173035, -0.24980314075946808], [0.24871516227722168, 0.2604560852050781, 0.30668905377388], [0.5084747672080994, 0.29266780614852905, 0.0271841399371624], [0.038254715502262115, -0.1916513442993164, 0.04092520847916603], [0.14959707856178284, -0.031859952956438065, -0.21449662744998932], [-0.2109193503856659, -0.32796382904052734, 0.08523070067167282], [0.4539124369621277, 0.34402480721473694, 0.23732566833496094], [1.8371833562850952, 2.0053088665008545, 2.2591874599456787], [-0.011866715736687183, -0.38666680455207825, -0.5257277488708496], [-0.4345557689666748, -0.3486577272415161, -0.3285429775714874], [-0.2422986775636673, -0.31186315417289734, -0.28151774406433105], [-0.504776656627655, -0.7612112760543823, -1.0406070947647095], [-0.3565843999385834, -0.3248308598995209, -0.24264469742774963]], "0_bias": [0.046372637152671814, 0.197062149643898, 0.04666425287723541, 0.3925398290157318, 0.3117179274559021, 0.03849991783499718, 0.21642304956912994, 0.2990471124649048, -0.08267857134342194, -0.04709316045045853, -0.009306665509939194, -0.2893745005130768, -0.22419467568397522, 0.14013831317424774, -0.15685497224330902, -0.022241435945034027], "1_bias": [-0.5348442196846008, -1.2274054288864136, 0.2547386884689331, 0.5933115482330322, -1.8956514596939087, 0.332952618598938, -0.015418098308146, -0.17459499835968018, 0.2759762704372406, 0.644776463508606, -0.6895783543586731, 0.5735325217247009, -0.13540039956569672, 1.0046970844268799, -0.6762737035751343, -0.8877281546592712], "2_bias": [-0.5072886347770691, -0.37878191471099854, -0.3370925784111023]}