{"triplane_resolution": 4096, "triplane_voxel_size": 0.0009765625, "sparse_grid_resolution": 512, "sparse_grid_voxel_size": 0.0078125, "range_features": [-7.0, 7.0], "range_density": [-14.0, 14.0], "data_block_size": 16, "atlas_width": 1751, "atlas_height": 255, "atlas_depth": 17, "num_slices": 17, "slice_depth": 1, "0_weights": [[-0.28697845339775085, -0.31152766942977905, 3.3923826217651367, -3.523261547088623, 0.610446035861969, -0.08422131836414337, 0.40147829055786133, -0.8356915712356567, 1.6055643558502197, -0.14305822551250458, -0.8681996464729309, -1.015807032585144, -0.1740928441286087, -0.1979864239692688, -0.028099780902266502, -0.5729537606239319], [-0.08344557881355286, -2.536947727203369, 1.86018967628479, 0.5820620059967041, -1.7713992595672607, -0.8638508319854736, 2.4320876598358154, 1.5379544496536255, 2.5278635025024414, -0.25364950299263, 3.491056442260742, 2.506404399871826, -0.4007675051689148, -1.3768483400344849, -0.05721350386738777, 1.0855045318603516], [0.013225957751274109, -2.0317225456237793, 0.37464532256126404, 4.952566146850586, -2.3836705684661865, 2.4482784271240234, 4.362520217895508, 0.08105923980474472, -4.046266078948975, 0.02474731206893921, -2.0596752166748047, -0.79063481092453, -0.3098745048046112, -3.4799368381500244, -0.1904105693101883, -0.47004514932632446], [-0.38969066739082336, -0.10155481100082397, -0.32445600628852844, -0.03394492715597153, -0.4003831744194031, -0.23694582283496857, -0.36535248160362244, -1.1157869100570679, 0.30545514822006226, -0.14036795496940613, -0.2899268865585327, -0.3766014575958252, -0.3335115313529968, -0.3134177029132843, 0.015993373468518257, 0.013907174579799175], [0.26759856939315796, -0.17966437339782715, -0.7165904641151428, -0.15690314769744873, -0.2153041809797287, 0.6161711812019348, -0.31122416257858276, -0.41758599877357483, -0.25272372364997864, -0.17512287199497223, -0.8685940504074097, -2.636489152908325, -0.04166312888264656, -0.17934873700141907, -0.22005626559257507, 0.8378996253013611], [0.45498666167259216, -0.303917795419693, -0.02643468789756298, -0.5164778232574463, 0.11983256787061691, -2.469289541244507, -1.612149715423584, -0.19600960612297058, -1.229128360748291, -0.20329096913337708, -0.6561618447303772, -0.28897759318351746, -0.3229541778564453, -1.7420024871826172, -0.03277401998639107, 0.5562312006950378], [-0.4128551483154297, 0.013871405273675919, -0.354144424200058, -0.09357854723930359, -0.16662533581256866, 0.12981146574020386, -0.24426975846290588, -1.2239117622375488, 0.22523923218250275, -0.2649138569831848, -0.190346360206604, -0.19344617426395416, -0.1499990075826645, -0.21046368777751923, -0.15825986862182617, -0.13799092173576355], [-1.171730399131775, -0.04755713790655136, -0.07173168659210205, -0.13181571662425995, 0.3950432240962982, -0.0347370021045208, -0.1067185178399086, -0.5902687907218933, 0.4997181296348572, -0.048482686281204224, -0.17324212193489075, 0.17712704837322235, 0.048634953796863556, -0.10811283439397812, -0.1663074940443039, -0.94730144739151], [0.10450524836778641, -0.2608828544616699, -0.22797521948814392, 0.20616140961647034, -0.2926112711429596, -0.22730953991413116, 0.1582857072353363, -0.3293135464191437, 0.23987196385860443, -0.05199120193719864, 0.09001406282186508, -0.23730230331420898, 0.0817355364561081, -0.5598645210266113, 0.02975558489561081, -0.18591362237930298], [2.005607843399048, -0.34554043412208557, -0.061082061380147934, -0.03289053216576576, -0.6058583855628967, -0.2521926462650299, 0.03974595665931702, 1.2446677684783936, -0.2957704961299896, -0.017812255769968033, -0.28148597478866577, -0.22250743210315704, -0.038836974650621414, -0.24354144930839539, 0.10494574159383774, 1.5217807292938232], [-0.9497785568237305, 0.13385172188282013, -0.05167416110634804, -0.10473059117794037, 0.25628161430358887, -0.11507898569107056, -0.12719061970710754, -0.6271053552627563, 0.2636333405971527, -0.26050493121147156, -0.08044040203094482, 0.13185711205005646, 0.11307952553033829, -0.11140013486146927, 0.031289130449295044, -0.9564210772514343], [-0.08054616302251816, 0.1046079695224762, -0.03598887845873833, -0.007611572276800871, 0.004382904153317213, -0.18808530271053314, -0.1060590073466301, 0.04761423543095589, 0.09884505718946457, 0.0865931585431099, 0.11909832060337067, -0.034708112478256226, 0.22132252156734467, -0.23265571892261505, -0.0807911604642868, -0.2127266824245453], [1.6734302043914795, -0.228568434715271, 0.0920240730047226, -0.11119858175516129, -0.6129181981086731, -0.3782358765602112, 0.08454279601573944, 1.3347625732421875, -0.12608130276203156, 0.17164777219295502, -0.33570078015327454, -0.05570880323648453, -0.00032008052221499383, -0.3181886076927185, -0.05514015257358551, 1.3446921110153198], [-0.7608103156089783, 0.013945705257356167, 0.053388435393571854, 0.3027108609676361, 0.09401308000087738, 0.08408232033252716, 0.3168240487575531, -0.9176658391952515, 0.014635301195085049, -0.050439998507499695, 0.021716004237532616, 0.16538460552692413, -0.13573352992534637, 0.04157152771949768, -0.16223712265491486, -0.9409883618354797], [-0.08973243087530136, 0.17521435022354126, 0.03128238394856453, -0.04601883515715599, 0.3855714499950409, -0.3287326395511627, 0.09515099972486496, 0.3078506588935852, -0.18767380714416504, -0.06803750991821289, 0.07851972430944443, 0.336546391248703, 0.059335559606552124, 0.37918901443481445, 0.14432527124881744, 0.2841632664203644], [1.4682527780532837, -0.1999368667602539, -0.003742167027667165, -0.05098222941160202, -0.29521211981773376, -0.06102919578552246, -0.24595680832862854, 1.0408889055252075, -0.1477331519126892, 0.09359872341156006, -0.25549015402793884, -0.0398898646235466, -0.07898645102977753, -0.18612903356552124, 0.13471736013889313, 1.2126694917678833], [-0.07244999706745148, -0.04622599482536316, -0.01318875327706337, -0.1238563284277916, -0.006297306623309851, -0.010229583829641342, -0.09085545688867569, 0.2909390330314636, -0.014661481603980064, -0.0035450533032417297, 0.02831633761525154, -0.18906882405281067, 0.04227199777960777, 0.012350563891232014, 0.0498858280479908, 0.2674078643321991], [-0.04378177598118782, -0.055700261145830154, 0.03350606560707092, 0.030789965763688087, -0.16240361332893372, 0.13133324682712555, -0.029942303895950317, -0.11388975381851196, 0.0386950708925724, -0.013951055705547333, 0.008521384559571743, -0.06869801878929138, 0.06011060252785683, -0.03694206848740578, -0.01742434687912464, -0.06401084363460541], [-2.5978736877441406, 0.24379633367061615, 0.06820179522037506, 0.2755497395992279, 0.6483842134475708, 0.24812579154968262, 0.3262350857257843, -0.0005209321388974786, 0.17756527662277222, 0.00659889867529273, 0.03668125346302986, -0.25533244013786316, 0.00395705783739686, 0.055447258055210114, -0.014158455654978752, 0.4915468394756317], [0.20650367438793182, 0.008679375052452087, -0.001522402511909604, 0.00532411178573966, -0.005216599907726049, -0.00644781906157732, 0.00931286159902811, -0.00568344397470355, -0.02017318457365036, 0.07214100658893585, -0.013459126465022564, 0.028361143544316292, -0.12185224890708923, -0.010739314369857311, -0.00011690652900142595, 0.010539019480347633], [-0.0020187068730592728, -0.001450924202799797, -0.015704816207289696, -0.034028418362140656, 0.04399450868368149, -0.01097429171204567, -0.029441479593515396, -0.005516498815268278, -0.037417810410261154, -0.026524726301431656, 0.01011686772108078, -0.0072077056393027306, -0.04635569080710411, 0.0001761552703101188, -0.007983661256730556, -0.0467754565179348], [2.185877561569214, 0.06146930158138275, -0.004200158640742302, -0.07966040819883347, 0.2253289818763733, 0.051362182945013046, -0.148546501994133, -1.934773564338684, 0.04817532002925873, -0.09482670575380325, 0.17035725712776184, 0.1847740262746811, -0.03521580621600151, 0.09010425209999084, 0.028691645711660385, -2.5632712841033936], [-0.32150334119796753, 0.46647801995277405, 0.27777308225631714, -0.08771847933530807, 0.15260888636112213, 0.22734463214874268, 0.05006023123860359, 0.6936748027801514, -0.24848707020282745, -0.32658860087394714, 0.07399224489927292, 0.5848470330238342, -0.3071005642414093, 0.5176799893379211, -0.31586703658103943, 0.3474060297012329], [-0.23901787400245667, 0.48088976740837097, 0.08172424882650375, -0.10875633358955383, 0.4094547629356384, 0.3961098790168762, 0.06901195645332336, 0.7906020879745483, 0.288290798664093, -0.10232806950807571, 0.286542683839798, 0.47971513867378235, -0.17462243139743805, 0.5384985208511353, -0.004933545831590891, 0.038936324417591095], [-0.7626506090164185, 0.748309314250946, 0.2673139274120331, -0.09193526208400726, 0.1523939073085785, 0.09173312038183212, 0.1851121187210083, 1.1430729627609253, -0.10158202052116394, -0.038269076496362686, 0.24028225243091583, 0.6944366693496704, -0.04565170779824257, 0.7075387239456177, -0.0880148857831955, 0.4661596119403839], [-0.07266876101493835, 0.28058671951293945, 0.278531551361084, -0.4303067922592163, 0.15087859332561493, 0.15028245747089386, 0.1846761852502823, -0.046583641320466995, -0.5471748113632202, -0.2713853716850281, 0.2041255086660385, 0.61504727602005, 0.030553000047802925, -0.09771403670310974, -0.23075450956821442, -0.16273534297943115], [0.9409667253494263, 0.5800591111183167, 0.06188493221998215, 0.28646767139434814, 0.8145586848258972, 0.20637643337249756, 0.004950718022882938, -0.32862597703933716, 0.8031787872314453, -0.06305712461471558, 0.292384535074234, 0.009497163817286491, -0.162947416305542, 0.7668952941894531, -0.1954129934310913, -0.300241619348526], [-4.361330986022949, 0.9736130833625793, 0.3187497854232788, -0.4006693959236145, -0.8428106904029846, -0.008099663071334362, -0.17943055927753448, 1.9897037744522095, -0.8935542702674866, -0.09613510966300964, -0.68721604347229, 0.9361658096313477, -0.2660168409347534, 0.9139326810836792, -0.13936974108219147, 1.3615189790725708], [1.6894456148147583, 0.0163637176156044, -0.0954570472240448, 0.052463386207818985, 0.20506557822227478, -0.14755859971046448, -0.12412320822477341, -0.13137009739875793, 0.28684335947036743, 0.06387928873300552, -0.14349189400672913, -0.1253950148820877, 0.255654513835907, 0.09843458235263824, 0.22349844872951508, -0.11203175783157349], [1.2002089023590088, -0.14365193247795105, 0.09358757734298706, -0.16654497385025024, -0.21957768499851227, -0.017245279625058174, 0.07835421711206436, 0.09393369406461716, -0.2822544276714325, 0.10988371074199677, -0.144315704703331, 0.05326990783214569, -0.07276284694671631, -0.22099794447422028, 0.16479666531085968, 0.06128326803445816], [-0.07283142954111099, -0.10187733918428421, -0.095884770154953, -0.17819972336292267, -0.7633116245269775, -0.006530337035655975, -0.31297051906585693, 2.549495220184326, -0.13048915565013885, 0.10466678440570831, -0.5459454655647278, -0.12456627935171127, 0.07586520165205002, 0.2192053645849228, 0.11434690654277802, 4.20881986618042], [-0.44304654002189636, 0.002459490904584527, 0.003819182747974992, 0.02610677294433117, -0.057648155838251114, 0.018989555537700653, 0.01592331752181053, -0.002348671667277813, -0.058612436056137085, -0.010845744051039219, 0.0366850346326828, -0.011255948804318905, -0.1282508224248886, 0.022364541888237, -0.19484898447990417, -0.009808273985981941], [-0.3924538791179657, 0.02655385062098503, -0.015398453921079636, -0.012677233666181564, 0.000541148881893605, -0.003888022620230913, -0.054269347339868546, -0.03334561735391617, -0.03258095681667328, -0.13377034664154053, 0.044704556465148926, -0.004939643200486898, -0.07140770554542542, 0.013871584087610245, -0.04608047753572464, -0.023297425359487534], [1.216857671737671, -0.07200349122285843, 0.002013404155150056, 0.13095347583293915, 0.3375144302845001, -0.0514310784637928, 0.16029705107212067, -1.1529492139816284, 0.2391156256198883, -0.11630124598741531, -0.20895622670650482, 0.08746462315320969, -0.041317168623209, -0.1341087818145752, -0.12089275568723679, -1.7246441841125488]], "1_weights": [[-0.23206143081188202, 4.612116813659668, 3.3307337760925293, -2.498922824859619, -0.46894246339797974, -1.9666560888290405, -0.05467279255390167, -2.4274542331695557, 3.975139617919922, -1.820838212966919, -3.003873348236084, -2.693563938140869, -4.888284206390381, -0.007355084642767906, -1.9768577814102173, -1.9657011032104492], [-0.13680894672870636, -0.835275411605835, 0.3034527599811554, 0.8463425636291504, 0.5412276387214661, 0.3120790421962738, -0.3271273970603943, 0.2766074240207672, -0.4684794247150421, 0.36017346382141113, -0.3145993947982788, 0.4007638096809387, -0.38488858938217163, -0.41053399443626404, 0.1116856187582016, 0.4796839654445648], [-0.3551207482814789, -0.8685262799263, -0.3357047140598297, 0.9441184401512146, 0.605516254901886, 0.7396574020385742, -0.2885330319404602, 0.24461905658245087, -0.2974567711353302, 0.7218568325042725, -0.28869345784187317, -0.1044444739818573, -0.1818711757659912, -0.04432421177625656, -0.3142724931240082, -0.16461052000522614], [-0.18640708923339844, 0.13619814813137054, -3.6353371143341064, 1.147241473197937, -13.684290885925293, 2.118379831314087, 0.17645485699176788, 0.9419146776199341, 1.7223726511001587, 0.3611990213394165, -0.8550087213516235, 3.3461968898773193, 0.015642475336790085, -0.14607439935207367, -0.7028720378875732, 5.709643363952637], [0.043175868690013885, -0.41206350922584534, -0.3640507161617279, 0.36411601305007935, -0.07703371345996857, -0.14689840376377106, -0.036277443170547485, 0.03266514465212822, 0.606438398361206, 0.35067957639694214, -0.43226146697998047, 0.3674775958061218, -0.6862743496894836, -0.031790778040885925, -0.3591689169406891, -0.005845304112881422], [-0.02692532166838646, 0.6083226799964905, -2.416339874267578, 0.08481518179178238, -0.5484706163406372, 0.7050515413284302, -0.33158421516418457, 0.053276386111974716, 1.2296934127807617, 0.11252153664827347, 0.10426323115825653, 0.22664429247379303, -2.574178695678711, -0.0019177705980837345, 1.122210144996643, -0.8379473686218262], [-0.019936038181185722, 0.7648264169692993, 0.08619960397481918, 0.9875360131263733, 0.02445301227271557, -0.21903224289417267, -0.17946137487888336, 0.7956734299659729, 0.05942691117525101, 0.9014686942100525, 1.0904247760772705, 0.5382333993911743, -0.486917108297348, -0.21463167667388916, 0.021015018224716187, -0.5210186839103699], [-0.0692863017320633, 0.18211479485034943, 0.3091261684894562, 0.39769840240478516, 0.26554203033447266, 0.3412141799926758, -0.16445909440517426, 0.5132048726081848, 0.7557945847511292, 0.609969973564148, 0.2796291708946228, -0.12375392019748688, 0.45418232679367065, 0.07720176875591278, 0.9164162874221802, -0.34794342517852783], [0.10350549221038818, 0.28069716691970825, 0.48272785544395447, -0.17174142599105835, -0.13827449083328247, -0.2493356466293335, 0.09997349977493286, -0.06957539916038513, -1.1043312549591064, -0.4017524719238281, -0.27519044280052185, 0.028545785695314407, -3.0488553047180176, -0.4763907790184021, -0.31502339243888855, -2.2682793140411377], [0.1671481430530548, -0.29178130626678467, 0.2553693950176239, -0.2420884519815445, -0.0005018374649807811, -0.22075869143009186, -0.040420934557914734, -0.01030854880809784, 0.17036373913288116, -0.011922966688871384, -0.05804314836859703, -0.08548703044652939, 0.14691781997680664, 0.047221001237630844, 0.19879679381847382, 0.14352767169475555], [-0.07865840941667557, 0.4738129675388336, -1.5247145891189575, -0.006882840767502785, -0.1778966635465622, -0.236544668674469, 0.055799610912799835, -0.15263381600379944, -1.2751394510269165, 0.15177418291568756, -1.3535131216049194, 0.15062905848026276, -1.6028504371643066, -0.01826869137585163, 0.21713663637638092, 0.5049067735671997], [0.13085618615150452, 0.26689663529396057, -2.223123550415039, 0.19165898859500885, -0.6178308725357056, 0.15523771941661835, -0.0670987218618393, 0.34202054142951965, 1.5613559484481812, 0.6648939847946167, -0.2477278709411621, -0.01855574920773506, -1.3235033750534058, -0.07378804683685303, 1.5752301216125488, 1.246612787246704], [-0.027552790939807892, 0.07365521788597107, -0.05052628368139267, 0.10282895714044571, 0.008271167986094952, 0.31117337942123413, 0.09759175032377243, 0.09266092628240585, 0.024909337982535362, 0.09283372014760971, -0.35222989320755005, -0.14613275229930878, -0.1437654048204422, -0.29553771018981934, 0.12557893991470337, -0.16429506242275238], [-0.07048004865646362, -1.2623413801193237, -1.1507022380828857, 0.04568001627922058, 0.03305519372224808, -0.21697771549224854, -0.13673748075962067, 0.012911119498312473, -0.601568341255188, 0.1597892791032791, -0.824103593826294, -0.33208560943603516, -0.22536349296569824, -0.03397464007139206, -1.045784592628479, 0.13147099316120148], [0.0040701269172132015, 0.11259373277425766, 0.04739239811897278, -0.17053602635860443, -0.11608335375785828, -0.13730528950691223, 0.01613401062786579, -0.04858994483947754, 0.002605981891974807, -0.13940580189228058, 0.2238403707742691, 0.16457702219486237, -0.16911552846431732, 0.06721566617488861, -0.1367732435464859, -0.14782053232192993], [-0.20287856459617615, -0.08838558197021484, -0.1917925626039505, 0.3145255744457245, -0.1883155256509781, -0.23399801552295685, -0.21445763111114502, 0.29715824127197266, 1.5065269470214844, 0.1398685723543167, -0.3755526840686798, 0.3672877550125122, -0.34978175163269043, -0.10237813740968704, 0.004023166373372078, 0.25254642963409424]], "2_weights": [[0.07219824194908142, -0.15244260430335999, 0.060225214809179306], [2.1771674156188965, 2.089728593826294, 2.131946086883545], [0.5156638026237488, 0.5352863669395447, 0.5521952509880066], [-0.6762605309486389, -0.16457830369472504, -0.3802933096885681], [-0.2779838740825653, 1.7975265979766846, 1.5423725843429565], [-0.9318877458572388, -0.7170578837394714, -0.34009361267089844], [0.12382493913173676, -0.14152012765407562, -0.02272428758442402], [-0.10618908703327179, -0.23486638069152832, -0.08282391726970673], [0.5245746970176697, 0.543372631072998, 0.5338342189788818], [-0.1342667043209076, -0.46888935565948486, -0.21099740266799927], [0.6085189580917358, 0.5991150736808777, 0.36135974526405334], [0.01956511102616787, -0.19081497192382812, -0.4547668993473053], [-0.43908658623695374, -0.40536367893218994, -0.435776948928833], [-0.07475433498620987, 0.12546485662460327, 0.06472620368003845], [-0.8011204600334167, -0.8156548142433167, -0.8926122188568115], [-0.3380047678947449, -0.3954159915447235, -0.622599184513092]], "0_bias": [-0.3355148434638977, 0.5700752139091492, 0.26119327545166016, 0.058687955141067505, 0.388153612613678, 0.23108993470668793, 0.09851482510566711, 0.9556238055229187, -0.03261573985219002, -0.21399065852165222, 0.2328132838010788, 0.3761628568172455, -0.29260867834091187, 0.6169643998146057, -0.017087284475564957, 0.2462141215801239], "1_bias": [-0.09662716090679169, 0.45750153064727783, 0.8335258960723877, -0.32753634452819824, -1.9029560089111328, -1.6178807020187378, 0.0027007763274013996, -0.35107582807540894, -0.673118531703949, -0.3043002188205719, 1.2368249893188477, -0.07096695899963379, 1.3798377513885498, -0.24987174570560455, 0.37105369567871094, -1.2817366123199463], "2_bias": [0.5059711933135986, -0.05785759538412094, 0.20607605576515198]}