{"triplane_resolution": 2048, "triplane_voxel_size": 0.001953125, "sparse_grid_resolution": 512, "sparse_grid_voxel_size": 0.0078125, "range_features": [-7.0, 7.0], "range_density": [-14.0, 14.0], "data_block_size": 16, "atlas_width": 1564, "atlas_height": 323, "atlas_depth": 17, "num_slices": 17, "slice_depth": 1, "0_weights": [[2.7772982120513916, -13.653151512145996, -0.7285259962081909, 0.7086089849472046, -1.7305043935775757, 0.09700504690408707, 1.022714376449585, 0.6749424338340759, 1.7911407947540283, 1.5139726400375366, 3.8077023029327393, 2.9300649166107178, -1.9615100622177124, -1.5751920938491821, -0.3655582666397095, -0.5476914644241333], [0.4083205759525299, -16.825380325317383, -0.4814297556877136, 2.7213263511657715, -0.15170207619667053, 1.2944918870925903, 1.9562591314315796, 0.8438912630081177, 2.629220962524414, 0.30233240127563477, 3.9532947540283203, 0.793367326259613, -2.8162660598754883, 0.29556021094322205, 0.25860080122947693, -2.459401845932007], [-3.860032558441162, 5.920148849487305, 1.640450358390808, -16.21613311767578, 3.214616298675537, 1.3933849334716797, 2.4320545196533203, -2.3435280323028564, 0.5237613916397095, 0.27579039335250854, -4.0980753898620605, -3.5464093685150146, 0.4475161135196686, 1.734230875968933, 0.5653915405273438, 0.14725691080093384], [6.631703853607178, 8.658347129821777, -14.615202903747559, -2.1887640953063965, -0.4596221446990967, 10.662152290344238, 6.461118698120117, -1.3003110885620117, 16.673080444335938, 21.852922439575195, 3.1679847240448, 2.1006476879119873, 2.5416929721832275, 5.682329177856445, 3.3690316677093506, -12.878721237182617], [-21.094263076782227, 6.44346809387207, 2.449198007583618, 1.0339282751083374, -14.154679298400879, 24.861146926879883, 39.3109245300293, 4.46142578125, 30.969097137451172, 19.140098571777344, 8.714401245117188, -39.22994613647461, -0.6128494739532471, 1.2852129936218262, 0.3019182085990906, 9.785301208496094], [-18.973764419555664, 6.810809135437012, 2.532531261444092, 0.8229531049728394, -12.117204666137695, 23.87590217590332, 36.50237274169922, 6.113892078399658, 29.70859146118164, 19.862306594848633, 9.380398750305176, -36.40449905395508, -0.5289353728294373, 1.2194541692733765, 0.4898557960987091, 10.854226112365723], [-0.6759211421012878, -0.24207985401153564, 0.27436167001724243, 0.6085624694824219, -2.785982370376587, -0.051207881420850754, 0.027386173605918884, -0.5620347857475281, -0.15383049845695496, -0.09904811531305313, -0.2140982300043106, -0.12441226840019226, 1.0445761680603027, -1.3930643796920776, -0.8300331830978394, -0.2599957287311554], [-0.06424388289451599, 0.19409984350204468, 0.22180095314979553, 0.017326248809695244, 0.13216032087802887, -0.2900453507900238, -0.10740172117948532, -0.4492432177066803, 0.016526900231838226, 0.10569088160991669, 0.12789542973041534, -0.22863979637622833, 0.03440714627504349, 0.4112596809864044, -0.8634521961212158, -0.5223580598831177], [0.038944847881793976, 0.025898868218064308, -0.40968015789985657, -0.02633068896830082, -0.18059511482715607, -0.13685335218906403, -0.03796607255935669, 0.10921873152256012, 0.0574752613902092, -0.10992457717657089, -0.08251787722110748, 0.1805546134710312, 0.016557009890675545, 0.004742263350635767, -0.14818531274795532, 0.3834241032600403], [-0.18711046874523163, 0.07062841206789017, -0.034465499222278595, 0.11744343489408493, 0.05449964106082916, 0.04394492879509926, 0.1646815687417984, 0.504838228225708, 0.23737458884716034, -0.05144800245761871, -0.010920594446361065, 0.08861581981182098, 0.7555758357048035, -0.35716909170150757, 1.696505069732666, 0.19230309128761292], [-0.1288001537322998, 0.008020960725843906, 0.15668359398841858, 0.09487643092870712, 0.10576209425926208, -0.07327913492918015, -0.12140041589736938, -0.2524512708187103, 0.0586397610604763, -0.0561244934797287, 0.0794106274843216, 0.05625911056995392, -0.20104074478149414, 0.07940086722373962, -0.6329679489135742, -0.43755513429641724], [0.06678561121225357, 0.10432567447423935, -0.4784289300441742, -0.04040037840604782, -0.15326648950576782, -0.12714040279388428, 0.06861372292041779, 0.36811235547065735, 0.09787911176681519, -0.19825030863285065, -0.08345582336187363, -0.05887683480978012, 0.0001576883514644578, -0.12171915918588638, -0.11873182654380798, 0.2931872606277466], [-0.05471624433994293, -0.12492407113313675, 0.030076682567596436, 0.0857340395450592, -0.050132520496845245, -0.14342238008975983, 0.05425005778670311, 0.27334025502204895, -0.10376935452222824, -0.3213971257209778, 0.14582785964012146, -0.023283636197447777, 0.9333081245422363, -0.2491207867860794, 1.5433602333068848, 0.09392894804477692], [0.09016738831996918, -0.11165604740381241, 0.2866453230381012, -0.15176527202129364, -0.18386568129062653, -0.17608827352523804, -0.307186096906662, -0.48362594842910767, -0.01178286224603653, -0.11063946038484573, -0.07838677614927292, -0.03881122171878815, -0.25464311242103577, -0.31995075941085815, -0.6986432671546936, -0.41184201836586], [-0.14243295788764954, -0.09566675871610641, -0.37345948815345764, 0.0774441808462143, 0.07470400631427765, -0.12276177853345871, 0.0706995353102684, 0.16348788142204285, -0.14114759862422943, -0.06596485525369644, 0.07448865473270416, -0.0844133272767067, -0.15099075436592102, 0.003528900910168886, 0.045895498245954514, 0.3023727536201477], [-0.28393951058387756, -0.08423079550266266, 0.12390801310539246, -0.08665372431278229, -0.005824060644954443, -0.23524582386016846, 0.1690012514591217, 0.3089728057384491, -0.00640134746208787, -0.1410890817642212, 0.16446970403194427, 0.15552857518196106, 0.843303918838501, 0.06588757783174515, 1.5718790292739868, -0.028806783258914948], [0.048286862671375275, 0.012324357405304909, 0.2577973008155823, 0.056311722844839096, 0.06602755934000015, 0.11284907162189484, 0.08191987127065659, 0.43074434995651245, -0.0054725841619074345, 0.11594776064157486, 0.06607728451490402, -0.005761548411101103, -0.15754596889019012, 0.11335989087820053, 0.17864058911800385, -0.25110918283462524], [0.01409811619669199, 0.016844918951392174, 0.05842417851090431, -0.017289040610194206, -0.013228949159383774, -0.04473227262496948, 0.10082660615444183, -0.3110891580581665, 0.07920753210783005, 0.010809771716594696, -0.010052292607724667, 0.04018242284655571, 0.1944262832403183, -0.03464289754629135, -0.01246558502316475, -0.006712357979267836], [0.17368218302726746, 0.08936666697263718, -0.2862321734428406, 0.17885728180408478, 0.6258991360664368, -0.48524630069732666, 0.15343445539474487, 0.22357161343097687, 0.10127880424261093, -0.07332853972911835, -0.13991709053516388, -0.08888247609138489, -0.454120397567749, 1.4641568660736084, -1.7216646671295166, -0.49443554878234863], [-0.001820654608309269, 0.004206714686006308, -0.11369321495294571, 0.005862923339009285, -0.0037408412899821997, -0.09515830874443054, 0.07375708967447281, 0.0486893467605114, -0.013118989765644073, -0.03170475736260414, 0.00437569385394454, 0.0004480925854295492, 0.13506919145584106, 0.026098985224962234, 0.06645573675632477, -0.3749726116657257], [0.001081327791325748, -0.001281272852793336, 0.02711385488510132, -0.0025573710445314646, 0.019536705687642097, 0.003257330972701311, -0.03386111184954643, 0.0059830257669091225, -0.014297593384981155, -0.008381352759897709, 0.00024049650528468192, -0.0009038799325935543, -0.05326586961746216, 0.02265257015824318, -0.09825735539197922, 0.0221871305257082], [0.009508041664958, 0.016033094376325607, -0.20893295109272003, 0.038866076618433, 0.18123216927051544, -0.16326284408569336, 0.05248473957180977, -0.12072288990020752, -0.058441609144210815, -0.09186528623104095, -0.09311889111995697, -0.05020904541015625, -0.444688618183136, 0.39550548791885376, 0.9575236439704895, -1.0627843141555786], [0.28098052740097046, 0.061089739203453064, -0.09254956990480423, 0.040344491600990295, 0.5238533616065979, -0.11516613513231277, -0.1633191555738449, 0.2128642052412033, -0.033593129366636276, 0.30978715419769287, -0.3862777650356293, 0.03665193170309067, -0.5218786597251892, 0.2828661799430847, -0.18413673341274261, -0.2074221670627594], [0.1994154304265976, 0.21421930193901062, -0.13708625733852386, -0.07761459797620773, 0.4392153322696686, 0.1533423215150833, -0.16575036942958832, 0.0024626031517982483, -0.12564928829669952, 0.2855066955089569, -0.112440325319767, 0.08565247803926468, -0.2207392156124115, 0.2040107399225235, -0.1262430101633072, 0.1513822227716446], [0.4598137438297272, 0.09424353390932083, -0.17602400481700897, -0.19092947244644165, 0.6857734322547913, 0.2751430571079254, -0.13183458149433136, 0.33961960673332214, 0.035614013671875, 0.3740804195404053, -0.31557825207710266, 0.14136087894439697, 0.008544921875, 0.4751824140548706, -0.3810737431049347, 0.11585614085197449], [0.07416011393070221, 0.16280820965766907, 0.3107673227787018, -0.11945434659719467, 0.26339206099510193, -0.13127920031547546, 0.039394572377204895, -0.1741560846567154, -0.05012562870979309, 0.24129344522953033, -0.3511084318161011, 0.03283555805683136, -0.0703711211681366, 0.16404634714126587, 0.12179640680551529, -0.24987609684467316], [0.1565226912498474, -0.010038015432655811, -0.22191551327705383, -0.003766572568565607, 0.37846797704696655, 0.2529343068599701, -0.17739154398441315, 0.16407455503940582, 0.014578462578356266, 0.10688365250825882, -0.20259509980678558, 0.09563525021076202, 0.70680832862854, 0.23335228860378265, 0.11146058887243271, 0.21806366741657257], [0.38320350646972656, 0.0743764266371727, -0.05299507826566696, 0.02615022100508213, 0.8888207077980042, 0.6334996819496155, -0.4124784767627716, 0.9584262371063232, 0.20289845764636993, 0.46486952900886536, -0.19642581045627594, -0.06081928312778473, 1.2216731309890747, 1.8690184354782104, -2.94761323928833, 0.7439642548561096], [-0.044924765825271606, -0.05463018640875816, -0.2463262379169464, 0.06296281516551971, 0.03465975075960159, -0.4729700982570648, 0.25448647141456604, -0.10732405632734299, 0.06227273494005203, -0.2622862160205841, 0.11083574593067169, -0.036878231912851334, 0.43817225098609924, 0.003917797934263945, 0.9328360557556152, -0.041263144463300705], [-0.04933043569326401, 0.003188164671882987, -0.18965882062911987, 0.021822500973939896, -0.10046448558568954, -0.3018803000450134, 0.11465710401535034, 0.018546462059020996, 0.01904737576842308, -0.09642098844051361, 0.00019183565746061504, -0.022495828568935394, -0.7220315337181091, -0.030319098383188248, 0.860605776309967, 0.1794724017381668], [0.011102316901087761, -0.03496447578072548, 0.20437169075012207, -0.11597751826047897, 0.6775251626968384, -0.009503250941634178, 0.14907622337341309, 1.280540108680725, -0.04156707972288132, -0.3679473400115967, -0.14237219095230103, 0.011108231730759144, 3.576265811920166, 1.3133476972579956, -0.437496155500412, -0.3190247416496277], [0.02186751738190651, 0.003918848000466824, 0.23589679598808289, -0.0083194300532341, 0.004624013788998127, 0.15627974271774292, -0.00043748741154558957, -0.1363157331943512, -0.009549024514853954, 0.08051764965057373, -0.025501001626253128, 0.0070350137539207935, 0.021069828420877457, 0.0036205551587045193, -0.3794644773006439, -0.41140228509902954], [-0.0007523398380726576, 0.003593830391764641, 0.08023887127637863, -0.0061325798742473125, -0.0013062794459983706, 0.039085473865270615, -0.02902412787079811, -0.11481708288192749, -0.004595350474119186, -0.001795309828594327, 0.00815447699278593, 0.00022675625223200768, 0.11727205663919449, -0.03249339386820793, -0.34263432025909424, 0.0324007123708725], [-0.06431634724140167, -0.01046429481357336, -0.27668988704681396, -0.02831152081489563, 0.20170998573303223, -0.08562172204256058, -0.013644367456436157, -1.9866101741790771, 0.003662214381620288, -0.15416380763053894, -0.11468100547790527, 0.05105152726173401, -1.4202970266342163, 0.3009004294872284, 1.6867775917053223, 0.14704768359661102]], "1_weights": [[-0.23887166380882263, 0.7561176419258118, 0.9643910527229309, -0.2654842734336853, -1.7978745698928833, 1.0672283172607422, -1.8000868558883667, -0.2669013440608978, -0.4818495512008667, 0.1874992698431015, -0.34584367275238037, 0.002268213778734207, -0.5086037516593933, -1.3061052560806274, -0.5082864165306091, -0.005158117972314358], [0.15403364598751068, 0.6801273226737976, -0.8456845879554749, -0.31485220789909363, -0.7667741775512695, 1.7405357360839844, -2.406269073486328, -4.853172302246094, -0.43277472257614136, -0.17110392451286316, -0.24328389763832092, -0.15017522871494293, -0.09450165927410126, 2.0605642795562744, 0.24980849027633667, -0.18918688595294952], [-0.01766415499150753, -0.16969820857048035, -0.05098019912838936, 0.006617601495236158, 0.029987022280693054, -0.23380696773529053, -0.09385985881090164, -0.24475109577178955, -0.44340139627456665, -0.15811805427074432, -0.047087427228689194, -0.0330234058201313, -0.11189411580562592, 0.029045408591628075, -0.8105652332305908, 0.04667483642697334], [0.07523113489151001, -0.4110196530818939, -1.2332463264465332, -0.35894960165023804, -0.18225127458572388, 0.8281346559524536, -0.1492917537689209, 0.9756749868392944, -0.39287665486335754, 0.012785281985998154, -0.39198237657546997, -0.2262353152036667, 1.220249056816101, 0.8908385038375854, -0.25087904930114746, -0.01657271571457386], [-0.1739921271800995, -0.4804256856441498, 1.8151201009750366, -0.09550541639328003, -3.891937255859375, -0.08151528239250183, 0.710342526435852, -0.2686247229576111, 0.2106347233057022, -0.4822607636451721, 0.007607083301991224, -0.26911142468452454, 0.6124399900436401, -0.6592472791671753, 0.1187143474817276, -0.16453304886817932], [-0.07055559009313583, 0.046509020030498505, 0.23626680672168732, -0.09329790621995926, 0.7394234538078308, -0.026900051161646843, 0.26426050066947937, 0.31397488713264465, -0.11559738218784332, -0.4268052875995636, -0.13205771148204803, 0.09314548224210739, -0.14226983487606049, 0.17170733213424683, -0.07361147552728653, -0.07694767415523529], [0.0605410598218441, -0.19118310511112213, 0.2893731892108917, 0.07029182463884354, 0.8759860396385193, 0.06969819962978363, -0.8665223121643066, -0.6200478672981262, -0.08069804310798645, 0.6775307059288025, -0.18379347026348114, 0.08359106630086899, -0.1134764701128006, 0.4290507435798645, 0.48461273312568665, -0.08297374844551086], [-0.03495628014206886, -0.044743072241544724, -0.0385228767991066, -0.032096244394779205, -0.1432168185710907, -0.1906120777130127, -0.024607591331005096, -0.18747635185718536, 0.018219197168946266, -0.08205455541610718, 0.1364871710538864, -0.04996337369084358, -0.010194859467446804, 0.04723343253135681, -1.3676226139068604, -0.24318034946918488], [0.1155649796128273, 0.6419031620025635, 0.14644108712673187, -0.005039936862885952, 0.3629109859466553, 0.5056068301200867, -0.09526184946298599, 0.03259575739502907, -0.24016770720481873, -0.28822240233421326, -0.2561681568622589, -0.054734159260988235, 0.03835739567875862, -0.09679455310106277, -0.008926758542656898, 0.05061504244804382], [-0.49482494592666626, 0.03967474400997162, -0.785010039806366, -0.35005995631217957, -0.31267380714416504, 0.1779826432466507, 0.12685459852218628, -0.17142271995544434, -0.2787442207336426, -0.3850525915622711, -0.33868736028671265, -0.2059587985277176, 0.5831504464149475, 0.07916852831840515, -0.539601743221283, -0.23359689116477966], [-0.15673775970935822, 0.48636144399642944, -0.17938777804374695, -0.11588197946548462, -0.6262992024421692, 0.6708501577377319, -1.094206690788269, -0.1352475881576538, -0.4214479327201843, -0.20283295214176178, -0.09834925085306168, -0.05900335684418678, -0.4212193787097931, 0.4874940812587738, 0.05470329895615578, 0.04298950359225273], [0.039531633257865906, -0.6767700910568237, 0.7832418084144592, -0.1935931295156479, -0.5065629482269287, -0.9808356165885925, -0.6310262680053711, -1.1692986488342285, -0.1640525758266449, -0.315674364566803, -0.10108235478401184, 0.026608651503920555, -0.0998566672205925, -0.845772922039032, 0.07728323340415955, -0.10387055575847626], [-0.09030864387750626, 0.10449143499135971, -0.12714624404907227, -0.04027742147445679, -0.7423781156539917, 0.2657175064086914, 0.047594502568244934, 0.3427528738975525, -0.08402527123689651, -0.14870457351207733, -0.07983851432800293, 0.049254126846790314, 0.12707747519016266, -0.15856492519378662, 0.47141164541244507, -0.009478926658630371], [-0.015048470348119736, 1.3389501571655273, -0.973057746887207, -0.24398615956306458, 2.096364736557007, 1.177912712097168, -0.35749828815460205, 2.5339808464050293, -0.5596667528152466, -0.01772654801607132, -0.004879626911133528, -0.23949433863162994, 0.4735066592693329, 0.4267156422138214, -3.3417599201202393, -0.2562698423862457], [0.03302185609936714, -0.6325372457504272, 0.1247221902012825, -0.2763858139514923, -2.24692440032959, -1.6185153722763062, -0.5654192566871643, 0.10603638738393784, 0.13464555144309998, 0.2487565129995346, -0.2351512312889099, -0.19945436716079712, -0.45350509881973267, -1.4715951681137085, 5.185134410858154, -0.017061209306120872], [0.005774808581918478, 0.04320752993226051, -0.015042358078062534, 0.08066754043102264, 0.3695337176322937, 0.1161845326423645, 0.04437887296080589, 0.05215151235461235, 0.0551636628806591, 0.0950399786233902, -0.28707289695739746, -0.018324298784136772, 0.02547042816877365, -0.0113932304084301, 0.8579952716827393, 0.1532987654209137]], "2_weights": [[0.03732389584183693, 0.04684959352016449, 0.0735834613442421], [-0.22988897562026978, -0.3999236226081848, -0.09402799606323242], [-1.5637403726577759, -1.1554594039916992, -0.5398951172828674], [0.1574753373861313, -0.08114784210920334, -0.04401405155658722], [-0.8957414031028748, -0.9861683249473572, -0.844898521900177], [-0.5902571678161621, -0.37099507451057434, -0.3006869852542877], [-0.4943680167198181, -0.5403122305870056, -0.8910625576972961], [0.2831414043903351, 0.3097323477268219, 0.304502010345459], [-0.15049071609973907, -0.14831285178661346, -0.12564730644226074], [-0.21986407041549683, 0.30260908603668213, -0.038650210946798325], [0.006671767681837082, 0.13232353329658508, -0.045553114265203476], [0.12444089353084564, -0.12931017577648163, -0.007593947928398848], [0.42166832089424133, 0.20931127667427063, -0.4782257080078125], [-0.6154611706733704, -0.7349817752838135, -1.019967794418335], [3.500811815261841, 3.246455430984497, 2.8226959705352783], [0.01390137430280447, -0.10102469474077225, -0.14556919038295746]], "0_bias": [0.14872442185878754, 0.0036623156629502773, -0.13507163524627686, -0.07937579602003098, 0.6570290923118591, 0.050901155918836594, -0.09094974398612976, 0.208425372838974, 0.005464721936732531, 0.11360111832618713, -0.14220969378948212, 0.07405263185501099, -0.28278160095214844, 0.3451649844646454, -0.24203123152256012, -0.13341714441776276], "1_bias": [0.022372907027602196, 0.42831918597221375, -1.5696935653686523, 0.0768396258354187, -1.40516996383667, 0.48617562651634216, 0.053785547614097595, 0.14573809504508972, -0.4906255304813385, -0.2826956510543823, -0.018055515363812447, -0.07894159853458405, 0.5538052916526794, 0.16865727305412292, -1.0344057083129883, -0.29784274101257324], "2_bias": [-0.772984504699707, -0.6721628904342651, -0.40213319659233093]}