{"triplane_resolution": 4096, "triplane_voxel_size": 0.0009765625, "sparse_grid_resolution": 512, "sparse_grid_voxel_size": 0.0078125, "range_features": [-7.0, 7.0], "range_density": [-14.0, 14.0], "data_block_size": 8, "atlas_width": 2034, "atlas_height": 639, "atlas_depth": 9, "num_slices": 9, "slice_depth": 1, "0_weights": [[1.7604657411575317, -0.7100757956504822, 0.840538501739502, -0.6910483241081238, 1.2199028730392456, 0.8924768567085266, 3.0232720375061035, -0.30102983117103577, 1.8379197120666504, 2.0856587886810303, -1.3053433895111084, 1.769454836845398, 0.24267196655273438, 1.8637937307357788, 1.7816591262817383, -4.181162357330322], [1.5986875295639038, -0.8004753589630127, -1.4255836009979248, -1.0118595361709595, -0.24267970025539398, 1.2312366962432861, 2.230825185775757, -0.033369746059179306, 0.7544856071472168, 2.0886051654815674, 0.9947961568832397, 0.18709738552570343, 0.36095935106277466, 0.8698045015335083, -0.19107230007648468, -1.5215284824371338], [0.7498626112937927, 0.6612716913223267, -3.4986531734466553, -15.261506080627441, -3.612560987472534, -0.6241133213043213, 0.20505613088607788, 0.006897880230098963, -1.1160179376602173, 0.49977627396583557, 2.8767685890197754, -3.7925562858581543, 0.1283676028251648, -0.6691166162490845, -2.8377785682678223, 3.1082489490509033], [0.35644492506980896, -10.077585220336914, -1.580904483795166, 0.4046410918235779, 1.2989481687545776, 0.5004141330718994, 0.7053280472755432, -0.018744951114058495, -0.2305963784456253, -1.934084415435791, 2.154841423034668, -0.05021282285451889, 0.31817927956581116, -0.4379022419452667, -5.619916915893555, -0.28496551513671875], [23.746339797973633, 5.597705364227295, 11.553396224975586, 1.2226155996322632, -14.85891056060791, 23.50313949584961, 28.021608352661133, -0.09405025094747543, 25.39100456237793, -7.202679634094238, -1.2723225355148315, -11.816068649291992, -3.8800177574157715, -27.188608169555664, -32.748687744140625, -6.543172359466553], [6.897289752960205, -1.4022847414016724, -0.6191927790641785, -0.5372971892356873, -9.064358711242676, 9.375910758972168, 12.373204231262207, 0.02229268290102482, 9.136810302734375, -2.065894842147827, -0.8780357837677002, -9.985490798950195, -3.2068443298339844, -20.04616928100586, -18.491432189941406, -1.862237572669983], [-0.6748442649841309, -1.3201038837432861, -0.02311348170042038, -0.3099219799041748, -1.4570282697677612, -0.5822893381118774, -0.5523615479469299, -0.1694859266281128, -0.9707766771316528, -0.5109123587608337, -0.15194697678089142, 0.8135407567024231, -0.5814695954322815, 0.7680228352546692, 0.7331821322441101, -0.43954795598983765], [-0.1484854817390442, 0.218489408493042, 0.18589647114276886, -0.009841465391218662, -0.17156405746936798, -0.5636268854141235, -0.06397111713886261, -0.06796551495790482, -0.34462055563926697, 0.3722250759601593, -0.1201154813170433, -0.44240275025367737, -1.2383381128311157, -0.10280042886734009, -0.26580414175987244, -0.11501913517713547], [-0.02032329887151718, 0.03448156267404556, -0.03871640935540199, -0.07286936789751053, -0.18177063763141632, 0.340650349855423, -0.07835578918457031, -0.12334424257278442, 0.2393542230129242, -0.02655474841594696, 0.2891016900539398, 0.435629665851593, 0.09544473141431808, -0.2663828432559967, -0.0037515328731387854, 0.18787993490695953], [-0.18809619545936584, -0.052815258502960205, -0.24056623876094818, 0.011232347227633, -0.2513571083545685, 0.05879752337932587, 0.09204086661338806, 0.14586547017097473, 0.01156406756490469, -0.13413923978805542, 0.08026467263698578, 0.15686708688735962, 2.3428008556365967, 0.2377266138792038, 0.0976613461971283, 0.02104678377509117], [-0.22170831263065338, 0.0330030657351017, 0.08464864641427994, 0.09121619910001755, -0.12805697321891785, -0.27947986125946045, -0.013963940553367138, 0.1028163880109787, -0.23830349743366241, 0.22486980259418488, -0.09505286812782288, -0.16365239024162292, -1.3458917140960693, -0.28388047218322754, -0.026439005509018898, -0.0444449819624424], [0.057810865342617035, 0.09050420671701431, -0.15563586354255676, -0.06173503398895264, -0.12643219530582428, 0.33056846261024475, 0.031962692737579346, 0.1539599597454071, 0.284787654876709, -0.09196701645851135, 0.2718236744403839, 0.18157336115837097, 0.09660711139440536, -0.4364092946052551, 0.03831162676215172, 0.09266233444213867], [-0.05685042217373848, -0.23398683965206146, -0.18011312186717987, -0.017639994621276855, -0.3735800087451935, -0.13368143141269684, -0.02202768437564373, -0.07562843710184097, -0.3153223991394043, -0.3852219581604004, 0.23367053270339966, 0.02853846363723278, 2.4350483417510986, 0.2682981491088867, -0.014649291522800922, -0.049279965460300446], [-0.022173356264829636, -0.08724050223827362, 0.11695379763841629, -0.09534156322479248, -0.25110721588134766, -0.20377901196479797, -0.04347095638513565, -0.21226033568382263, -0.13221147656440735, 0.1955268234014511, -0.05225718766450882, -0.2587716281414032, -1.0064440965652466, -0.3465431332588196, -0.11284381151199341, -0.06069999560713768], [-0.015128971077501774, -0.16602282226085663, -0.13477016985416412, 0.11991795897483826, 0.13846023380756378, 0.2621406614780426, 0.03996206820011139, 0.010239090770483017, 0.04621163755655289, 0.09332335740327835, 0.37201473116874695, 0.10579866915941238, -0.017451662570238113, -0.4483622610569, 0.22005246579647064, 0.0964166671037674], [-0.28040948510169983, -0.14975310862064362, -0.09422221034765244, -0.18263298273086548, -0.39064741134643555, -0.24530455470085144, 0.08131447434425354, -0.009627952240407467, -0.1693546026945114, -0.1440323293209076, 0.2488469034433365, 0.15608640015125275, 2.0200164318084717, 0.3321283459663391, 0.16294433176517487, -0.08445129543542862], [-0.06115315482020378, 0.006943533197045326, 0.058683644980192184, -0.0036069266498088837, -0.02673979289829731, 0.1361442357301712, 0.0626622810959816, 0.036725305020809174, 0.08592836558818817, -0.046055663377046585, -0.015939854085445404, 0.1695081889629364, 0.3006589114665985, -0.590051531791687, -0.2532788813114166, -0.07581992447376251], [0.02777453511953354, 0.03702012449502945, 0.015405870042741299, -0.0013554270844906569, -0.020805392414331436, -0.21267670392990112, -0.03960456699132919, -0.08798790723085403, -0.05476338788866997, 0.03342270106077194, -0.18528634309768677, -0.05884793400764465, 0.0012021656148135662, -0.8088797330856323, -0.20033271610736847, -0.04617530480027199], [0.5671621561050415, 0.04356377199292183, -0.18882963061332703, 0.3905820846557617, -0.21750424802303314, -0.9328500628471375, -0.2093942016363144, -0.041429467499256134, 0.5050078630447388, 0.42265862226486206, -0.05650149658322334, -0.5065276026725769, -2.583035469055176, 0.06985093653202057, -0.16486415266990662, -0.12464150786399841], [0.02084168791770935, -0.00040883172187022865, -0.004713069181889296, 0.01582629792392254, 0.021669646725058556, -0.004875051788985729, -0.007410325109958649, 0.059877414256334305, -0.031250741332769394, 0.0013176933862268925, 0.022128837183117867, -0.01718069054186344, 0.06447520852088928, 0.19485658407211304, 0.06469029933214188, 0.029858296737074852], [-0.00907138828188181, 0.00433940626680851, 0.003997115418314934, -0.008130739443004131, -0.02222469449043274, 0.020379845052957535, -0.00017603104060981423, -0.008984497748315334, 0.009066685102880001, -0.02354772388935089, 0.018716223537921906, 0.011127730831503868, -0.05579644441604614, 0.0218111053109169, 0.050631456077098846, 0.005939972121268511], [0.16457203030586243, 0.06540581583976746, -0.0015741889365017414, 0.024486282840371132, -0.1444132775068283, -0.7718096375465393, -0.15590529143810272, -0.08315448462963104, -0.013139675371348858, -0.005263110622763634, 0.14452172815799713, -0.21009939908981323, 1.6364694833755493, -0.2688363492488861, -0.09725885093212128, -0.1093728169798851], [0.29405462741851807, 0.26652875542640686, 0.17595167458057404, 0.23158489167690277, 0.47304990887641907, -0.054989177733659744, 0.008829719386994839, -0.028350867331027985, 0.2946069538593292, 0.46442440152168274, -0.6303690671920776, -0.033830247819423676, -0.8400757312774658, -0.3163440525531769, -0.1329413801431656, 0.04055947810411453], [0.1439344584941864, 0.45844966173171997, 0.25378477573394775, 0.01735411398112774, 0.33524784445762634, 0.14339189231395721, 0.10801699012517929, -0.31985172629356384, 0.1856631189584732, 0.44483712315559387, -0.32037442922592163, -0.0641554445028305, -0.6398853063583374, -0.41862136125564575, 0.10639448463916779, 0.25431138277053833], [0.40591514110565186, 0.32286906242370605, 0.2033737301826477, -0.02713661827147007, 0.6175418496131897, 0.3390163481235504, 0.1734742373228073, -0.12693817913532257, 0.3605863153934479, 0.5081662535667419, -0.567825436592102, 0.04865824431180954, -1.2141703367233276, -0.3437454402446747, 0.08371450006961823, 0.22663934528827667], [0.20650240778923035, 0.32931050658226013, 0.296365886926651, 0.1957833170890808, 0.19277441501617432, 0.03200933709740639, 0.001332206535153091, 0.07629137486219406, 0.2932807505130768, 0.40861621499061584, -0.4956025183200836, 0.06458239257335663, 0.04058648645877838, -0.22077536582946777, -0.33387985825538635, 0.271217942237854], [0.02048308774828911, 0.2858070731163025, 0.31826725602149963, -0.07312433421611786, 0.24536925554275513, 0.13113588094711304, 0.18425796926021576, -0.13921132683753967, 0.2955208420753479, 0.2988409399986267, -0.13558907806873322, -0.17756415903568268, 0.40309417247772217, -0.24769848585128784, 0.2703019082546234, 0.1651151031255722], [-0.11592607200145721, 0.6602022051811218, 0.628606379032135, 0.49317172169685364, 0.721865177154541, 1.1387571096420288, 0.7647844552993774, -0.1679265797138214, 0.547518789768219, 0.44767749309539795, -0.3100935220718384, -0.08642572164535522, -3.7500603199005127, -0.35928574204444885, -0.3899959325790405, 0.4474150240421295], [-0.20875096321105957, -0.07667843252420425, 0.030105862766504288, -0.06859170645475388, -0.06038860231637955, 0.007847477681934834, 0.1314094513654709, 0.0319458469748497, 0.03477760776877403, 0.017648808658123016, -0.20205780863761902, 0.018005285412073135, 1.5278273820877075, 0.5066730380058289, 0.22632093727588654, -0.09923772513866425], [0.05844726040959358, -0.04681849479675293, -0.02619505673646927, 0.04172118380665779, 0.15649011731147766, 0.0183742456138134, 0.05676914379000664, 0.12153393775224686, 0.09424814581871033, -0.06708743423223495, 0.027517085894942284, 0.1243169903755188, 1.148485541343689, 0.10937929898500443, -0.014352750033140182, -0.058216262608766556], [-0.1732155680656433, 0.03163459151983261, -0.0901099145412445, -0.1481931060552597, 0.8132227659225464, 0.021607115864753723, 0.14396242797374725, 0.0905342623591423, -0.09190480411052704, -0.29431217908859253, 0.07832757383584976, -0.14972610771656036, -1.1669269800186157, 0.19918669760227203, -0.06115032732486725, -0.21221275627613068], [0.005395578220486641, 0.012118521146476269, 0.028676394373178482, 0.009121449664235115, -0.04233413562178612, -0.008549400605261326, -0.02536007948219776, -0.08661896735429764, 0.04289734363555908, -0.019955940544605255, 0.048063892871141434, 0.004416728392243385, -0.380225270986557, 0.14699192345142365, 0.04869893565773964, -0.042453378438949585], [-0.0168791301548481, 0.011738943867385387, 0.02184217981994152, -0.003831363981589675, -0.026357097551226616, -0.022037997841835022, -0.010691966861486435, -0.06996792554855347, -0.027612416073679924, -0.011618341319262981, 0.06631789356470108, -0.006744657177478075, -0.34058576822280884, 0.0669792965054512, -0.00820926297456026, -0.007237340789288282], [0.025106217712163925, -0.01866811327636242, 0.19928473234176636, -0.07833529263734818, -0.011642017401754856, 0.1700083613395691, 0.004678349010646343, -0.08935564756393433, -0.23488739132881165, 0.04822513833642006, -0.10774629563093185, 0.11956369876861572, 3.5859944820404053, 0.1652735322713852, 0.0041232965886592865, 0.07824837416410446]], "1_weights": [[-1.4438443183898926, 0.1766301840543747, -0.6381470561027527, -0.2726982533931732, -0.35666540265083313, 0.1305839568376541, -1.3380091190338135, -0.8598759174346924, -0.10196399688720703, -0.16019396483898163, -0.3288271427154541, 0.38283440470695496, 0.14223264157772064, 0.487319678068161, -0.2466440349817276, -0.21056196093559265], [-2.6463284492492676, 2.4421002864837646, 0.7956446409225464, -1.6941735744476318, -0.11634106189012527, 2.5936174392700195, 2.254279613494873, -3.498927593231201, -0.3056756258010864, -0.7087422609329224, -0.18790319561958313, -0.5124565958976746, 0.0019360299920663238, -0.24191534519195557, -0.03979863226413727, -0.18077705800533295], [0.09846609830856323, 0.18312957882881165, 0.8071498870849609, 0.2872472107410431, 0.049913156777620316, 0.2558434009552002, 0.25851956009864807, -1.2528393268585205, -0.9117838740348816, -1.2486159801483154, -0.007360696326941252, 0.2361254245042801, -0.1283624768257141, -0.0645238533616066, -0.26127713918685913, 0.0524015873670578], [-0.25995898246765137, 0.08970978111028671, 0.6805148720741272, -0.02726542390882969, 0.13035568594932556, 1.3662465810775757, -0.3915300667285919, -2.4614388942718506, 0.21198812127113342, 0.0330156646668911, -0.33453357219696045, -0.47555479407310486, 0.1166539117693901, 0.44072574377059937, -0.3201739490032196, -0.03674326464533806], [-0.3667760491371155, -0.10371726006269455, -0.06696736067533493, 0.18259188532829285, -0.23116053640842438, 0.1981557160615921, 0.4078802764415741, -1.689860463142395, -2.0885350704193115, -1.1738793849945068, 0.04726395383477211, -0.8451593518257141, 0.34640738368034363, 0.05444671958684921, 0.022422876209020615, -0.17329826951026917], [-0.3856021761894226, -0.0029539531096816063, -0.017374737188220024, -0.13227654993534088, 0.12070951610803604, -0.25706446170806885, -1.5374213457107544, 0.08375369012355804, -0.32288768887519836, -0.4169624447822571, -0.1325046271085739, 0.23705704510211945, -0.053272638469934464, -0.6206205487251282, -0.04327211156487465, -0.06689457595348358], [0.08193515241146088, 0.6569827795028687, -0.04142134636640549, -0.12945391237735748, -0.13634614646434784, 0.5618857145309448, 1.4485822916030884, 0.7480295300483704, 0.25886058807373047, 0.042906519025564194, -0.16992849111557007, 0.7810426354408264, -0.15279975533485413, -0.3051379323005676, -0.027367960661649704, -0.07380463182926178], [0.012272671796381474, 0.057149529457092285, -0.005500001832842827, -0.030092766508460045, 0.06472304463386536, -0.13860398530960083, 0.05440504476428032, -0.0032637908589094877, -0.06671351939439774, -0.09083187580108643, 0.16579221189022064, 0.0061203776858747005, -0.032320503145456314, -0.30215057730674744, -0.0020009009167551994, -0.18072253465652466], [0.2948477864265442, 0.21922586858272552, 0.5178103446960449, 0.05734362080693245, 0.11987683176994324, 0.3270375430583954, -0.9963153600692749, -1.0534412860870361, -0.626411497592926, -0.26023685932159424, -0.24339909851551056, 0.37376174330711365, -0.6273333430290222, -0.07887045294046402, -0.19691585004329681, 0.03789215534925461], [0.9402204751968384, 0.2324942648410797, -0.3436187505722046, -0.08721143752336502, -0.031885288655757904, 0.31882908940315247, -0.04908577352762222, 0.3416995704174042, -0.668597936630249, -0.9082345962524414, -0.36494719982147217, -0.5692195892333984, 0.2998947501182556, 0.2049320787191391, -0.17008741199970245, -0.23826611042022705], [1.7042820453643799, -0.19007669389247894, 1.0143847465515137, -0.07597335427999496, 0.12273634970188141, -0.2960219979286194, -0.49612441658973694, 1.4762024879455566, -0.030114207416772842, -0.03704744204878807, -0.07752367109060287, -0.20345760881900787, -0.009993897750973701, -0.378844290971756, 0.08299964666366577, 0.043020494282245636], [0.18296846747398376, -0.16684454679489136, -0.555306613445282, 0.13921910524368286, -0.21981021761894226, -0.021162530407309532, 1.3529218435287476, 1.077899694442749, 1.484663724899292, 1.2193195819854736, -0.07690053433179855, -0.8337246179580688, 0.6312670111656189, 0.832147479057312, 0.04030214622616768, -0.11791609972715378], [1.5787843465805054, -2.193528413772583, -0.22692957520484924, 0.6706934571266174, -0.18313944339752197, -2.762585401535034, -2.631194591522217, -2.1064252853393555, 4.764553070068359, 5.053038597106934, 0.16300809383392334, -1.0259751081466675, -0.09576306492090225, -0.885821521282196, 0.019927164539694786, 0.049203090369701385], [0.20026935636997223, 0.029974889010190964, -0.14999930560588837, 0.07590929418802261, 0.12685684859752655, 0.06466241925954819, -0.7049680352210999, -0.21980230510234833, 1.1091481447219849, 0.5893957018852234, -0.012039273045957088, -0.17796868085861206, 0.1788879930973053, 0.1102939322590828, -0.25725722312927246, -0.30144333839416504], [0.044629473239183426, -0.09629128128290176, -0.5072249174118042, 0.02514306642115116, -0.16858914494514465, 0.13765256106853485, 2.0657145977020264, -1.2916144132614136, 0.4645359516143799, 0.7321445941925049, -0.2216724157333374, -2.4304964542388916, 0.024827424436807632, -0.11193756014108658, 0.10064712166786194, -0.019005125388503075], [-0.26947954297065735, -0.01453731581568718, 0.6343948245048523, 0.1480364352464676, 0.04566098377108574, 0.2784618139266968, 0.6572010517120361, -1.1230028867721558, 0.8141639232635498, 0.541869044303894, -0.2903571128845215, 0.5249411463737488, -0.42013663053512573, -0.4851045310497284, -0.12268326431512833, 0.14601650834083557]], "2_weights": [[-0.21891798079013824, -0.21153077483177185, -0.1949164867401123], [-0.2432195246219635, -0.334872305393219, -0.23766066133975983], [0.47546228766441345, 0.5127933025360107, 0.5140458941459656], [-0.25732192397117615, -0.25699323415756226, -0.2832852303981781], [0.06917745620012283, -0.16045664250850677, 0.0049985246732831], [-0.4233100116252899, -0.3422854542732239, -0.4427364766597748], [0.1351720690727234, 0.14806239306926727, 0.1687033772468567], [0.5319995880126953, 0.42847177386283875, 0.3310701549053192], [2.8989455699920654, 2.6086344718933105, 3.009622812271118], [1.4711090326309204, 1.7170615196228027, 1.4560147523880005], [0.0012205486418679357, 0.1632133424282074, -0.05479774624109268], [-0.6683740615844727, -0.7330260872840881, -0.788180947303772], [0.1703328937292099, -0.03891555219888687, -0.2107623964548111], [0.3040350675582886, 0.30022576451301575, 0.10624678432941437], [0.2748732268810272, 0.14388620853424072, -0.16912654042243958], [0.035726968199014664, -0.10156988352537155, -0.14119946956634521]], "0_bias": [0.11882076412439346, 0.22903786599636078, 0.2101850062608719, 0.06883431226015091, 0.5843968391418457, 0.0858854278922081, 0.15511366724967957, -0.13067153096199036, 0.3262335956096649, 0.26314079761505127, -0.38109639286994934, -0.03040681965649128, -0.910605251789093, -0.32402196526527405, -0.008496537804603577, 0.02212582901120186], "1_bias": [-0.6872818470001221, 0.25834646821022034, -0.8504003882408142, 0.20537899434566498, -0.3423207402229309, 0.29764655232429504, 0.44642218947410583, 0.3644976317882538, -0.8916777968406677, -0.46732231974601746, 0.005625323858112097, -0.2702646255493164, -0.10523215681314468, -0.4132716953754425, -0.18776145577430725, -0.30753594636917114], "2_bias": [-0.5081428289413452, -0.42150598764419556, -0.31662455201148987]}