{"triplane_resolution": 2048, "triplane_voxel_size": 0.001953125, "sparse_grid_resolution": 512, "sparse_grid_voxel_size": 0.0078125, "range_features": [-7.0, 7.0], "range_density": [-14.0, 14.0], "data_block_size": 16, "atlas_width": 1785, "atlas_height": 340, "atlas_depth": 17, "num_slices": 17, "slice_depth": 1, "0_weights": [[-0.05388646572828293, -0.14998328685760498, 0.9405316710472107, -0.1851985603570938, -0.25520917773246765, 1.046633243560791, 0.44498252868652344, 0.4853580594062805, 0.6421947479248047, 0.4711109399795532, 0.2213481217622757, 2.1442694664001465, 0.08483162522315979, -0.16754573583602905, 0.5776249766349792, 0.36251863837242126], [-0.6967774033546448, 0.05453585088253021, 0.044084835797548294, 0.669306755065918, 0.18627288937568665, 0.19489680230617523, -0.2621452808380127, 0.006983868777751923, 0.9813948273658752, -1.2902110815048218, 0.20641256868839264, 0.5928009748458862, 0.10079696029424667, 0.3000624477863312, 0.38291460275650024, 0.2374901920557022], [-1.4403104782104492, 0.21579773724079132, 0.6940891742706299, 1.2821316719055176, 0.05856672301888466, -0.35433870553970337, -0.2638901174068451, -1.6402597427368164, 1.3429025411605835, -2.1012423038482666, -0.520478367805481, 0.0822586864233017, 0.017246248200535774, 1.4438914060592651, -0.732877254486084, -0.5322503447532654], [0.018699582666158676, -1.156833291053772, 2.14030385017395, -1.4700294733047485, -0.5332921743392944, 0.18505460023880005, -2.437145233154297, 1.3056391477584839, -0.3175843358039856, -1.03075110912323, 0.1280355304479599, -1.8180171251296997, -0.5545607209205627, -0.7224253416061401, 0.3375644385814667, 2.5126242637634277], [0.5933799743652344, 0.4017263948917389, 1.2515180110931396, -0.5146239399909973, -0.729211688041687, -0.2092263251543045, 0.2397284358739853, 0.7262672185897827, -1.3929868936538696, 0.8799532651901245, -0.035443466156721115, 1.6028103828430176, 0.14701010286808014, -1.0933505296707153, 0.08918412774801254, 0.007815428078174591], [-0.5635043978691101, 0.22792784869670868, -0.5894284248352051, -0.7881094217300415, -0.9013515710830688, -1.9053165912628174, 0.700676441192627, -2.305957317352295, 0.9109658002853394, -1.0611462593078613, -0.9382709860801697, 0.5134105682373047, -0.09054264426231384, -1.2847975492477417, -0.47351133823394775, -1.4684122800827026], [-0.18597842752933502, 0.07059258967638016, -0.15806511044502258, -0.42265477776527405, -0.9054191708564758, -2.4220616817474365, -0.5694109201431274, 1.4324558973312378, 0.954133927822113, -0.6981431245803833, -1.1846396923065186, -0.21100398898124695, 0.1474108248949051, 0.4165777564048767, -1.053929090499878, -0.11174841970205307], [-0.17053097486495972, -0.1865147352218628, 9.981915354728699e-06, -0.24794691801071167, 0.25915274024009705, -0.07725285738706589, -0.11035491526126862, -0.19964779913425446, -0.009205126203596592, -0.1616511046886444, -0.4056459069252014, -0.17618554830551147, -0.06389738619327545, -0.3521507978439331, -0.035757388919591904, 0.023880096152424812], [-0.014711524359881878, -0.0364287905395031, -0.04508872330188751, 0.2769055962562561, 0.19116251170635223, -0.07676637917757034, 0.05420006066560745, -0.12673862278461456, 0.012047482654452324, -0.3422635793685913, 0.026424385607242584, -0.08110984414815903, 0.16532553732395172, 0.19081249833106995, 0.3743146061897278, 0.055621109902858734], [0.009330748580396175, 0.6017233729362488, 0.30771684646606445, -0.37239134311676025, -0.46659770607948303, -0.07518120855093002, -0.12128835171461105, 0.11127140372991562, -0.05507635697722435, -0.3484322726726532, -0.25970473885536194, 0.5200805068016052, 1.5506302118301392, -0.3235424757003784, -0.26151368021965027, 0.17415672540664673], [0.007219713181257248, 0.06149740517139435, -0.025191081687808037, -0.26716527342796326, 0.1817198097705841, -0.12751154601573944, -0.2598751485347748, -0.051764149218797684, -0.07570918649435043, -0.3810619115829468, -0.30999693274497986, -0.10542382299900055, 0.04308273643255234, -0.25791963934898376, 0.20303969085216522, 0.033060476183891296], [-0.20906539261341095, 0.19264400005340576, 0.0600547268986702, 0.005882711615413427, 0.2467603236436844, 0.0252069104462862, -0.23928114771842957, 0.10030515491962433, -0.012872053310275078, -0.21906183660030365, -0.00613184180110693, -0.027657778933644295, 0.31631922721862793, 0.18381719291210175, 0.28624656796455383, -0.08312772214412689], [-0.21972671151161194, 0.7035987377166748, 0.473774790763855, -0.43089237809181213, -0.4981065094470978, -0.1821751743555069, -0.04578009992837906, 0.3168838918209076, 0.1009092777967453, -0.15763062238693237, -0.3025670349597931, 0.7013022303581238, 1.5073652267456055, -0.37910568714141846, -0.4063841998577118, 0.03220285102725029], [0.04883621633052826, 0.11123749613761902, -0.03049984574317932, 0.04121498763561249, 0.18320482969284058, 0.10662038624286652, -0.14672426879405975, 0.17305777966976166, 0.14376266300678253, -0.18576984107494354, -0.19260239601135254, 0.23242174088954926, -0.04476098343729973, 0.1600891500711441, 0.09395819902420044, 0.07050363719463348], [-0.22018975019454956, -0.09013320505619049, -0.11344867944717407, -0.16881020367145538, -0.007903794758021832, 0.04019680991768837, -0.09631211310625076, -0.027223454788327217, -0.012285285629332066, -0.4209449589252472, -0.20506995916366577, -0.08731548488140106, 0.1751394271850586, -0.11716721951961517, 0.554771363735199, 0.08203605562448502], [-0.07496130466461182, 0.6767936944961548, 0.40952637791633606, -0.31738603115081787, -0.2712901830673218, 0.1900492161512375, -0.29085129499435425, 0.3819742500782013, 0.044771622866392136, -0.22927948832511902, -0.20017889142036438, 0.7620874643325806, 1.1429903507232666, -0.1888669729232788, -0.1665227860212326, 0.010188721120357513], [-0.1944568157196045, -0.018864648416638374, 0.007510506082326174, 0.0811353474855423, 0.021518632769584656, -0.008116173557937145, -0.008203009143471718, -0.05928178131580353, -0.04762353375554085, -0.0752069354057312, 0.14244690537452698, -0.0430181622505188, 0.0898718535900116, 0.14621345698833466, -0.18474426865577698, -0.05776866152882576], [0.7810461521148682, 0.29168829321861267, 0.09394292533397675, 0.15789274871349335, -0.059641480445861816, 0.008832952007651329, 0.19936412572860718, 0.02566521428525448, 0.00964677706360817, -0.7872924208641052, 0.06010717153549194, 0.12006914615631104, -0.23551054298877716, -0.25994858145713806, -0.21430207788944244, -0.03634722903370857], [-0.2958376407623291, 0.7215873003005981, 0.1515466868877411, 0.04081621766090393, -0.35296475887298584, 0.46024805307388306, 0.12679646909236908, 0.48877495527267456, 0.2917969524860382, -0.1246505007147789, -0.16277557611465454, 1.3003029823303223, -1.9343386888504028, 0.535778284072876, 0.0936424657702446, -0.2990976572036743], [0.16008056700229645, 0.038672562688589096, 0.0035155434161424637, 0.03649419918656349, -0.037674371153116226, 0.0035167974419891834, -0.0077729783952236176, -0.00951758585870266, -0.012614206410944462, -0.03718552365899086, -1.0770736480480991e-05, -0.14514440298080444, 0.05296626314520836, -0.03259262815117836, -0.031044330447912216, -0.024914870038628578], [-0.006433472037315369, -0.2530798614025116, -0.0035356294829398394, 0.02003658376634121, -0.06104970723390579, -0.001197850564494729, -0.04797143489122391, -0.012296812608838081, -0.04939557984471321, 0.0334772989153862, 0.03645174950361252, -0.048640329390764236, -0.008153577335178852, 0.05381372943520546, -0.05472595617175102, -0.00962667353451252], [0.6169887185096741, -0.28562819957733154, 0.004732046276330948, -0.12001320719718933, 0.00014700657629873604, -0.01353368815034628, 0.08393141627311707, 0.11335904896259308, -0.04301437735557556, 0.005907584447413683, 0.08347038924694061, 0.37194234132766724, 1.621961236000061, 0.28312811255455017, 0.03655131906270981, -0.07382205128669739], [0.12863165140151978, 0.28879281878471375, -0.27775999903678894, 0.3574106991291046, 0.3184199929237366, 0.5030857920646667, 0.05450771376490593, -0.14246471226215363, -0.2063717097043991, -0.04325075075030327, 0.24782869219779968, 0.3349117338657379, -0.3306247293949127, 0.3576672673225403, 0.18905185163021088, 0.1085614338517189], [0.18487787246704102, 0.25458306074142456, -0.3785882890224457, 0.2706417441368103, 0.36334145069122314, 0.6674471497535706, 0.2166769653558731, -0.04134117439389229, 0.020450208336114883, 0.29693570733070374, 0.42778119444847107, 0.3765389621257782, -0.2676321566104889, 0.22489789128303528, 0.39673912525177, -0.21516680717468262], [0.18536965548992157, 0.698123037815094, -0.3116930425167084, 0.33430948853492737, 0.3795734643936157, 0.4583911597728729, 0.164117693901062, 0.09539808332920074, -0.131369486451149, 0.2821575701236725, 0.4667057991027832, 0.6078752875328064, -0.5702856779098511, 0.33716335892677307, 0.32488858699798584, -0.04350560903549194], [-0.060027673840522766, 0.16447651386260986, -0.29623767733573914, 0.11179511994123459, 0.43168988823890686, 0.4239099323749542, -0.15561778843402863, 0.1367514729499817, -0.16145603358745575, -0.08597458899021149, 0.3117368817329407, 0.27728551626205444, 0.5329153537750244, 0.22268380224704742, 0.4883802533149719, -0.02335161343216896], [0.05143717676401138, -0.018671907484531403, -0.11863666027784348, 0.5512561798095703, 0.2395707368850708, 0.4759453535079956, 0.35683757066726685, -0.42384859919548035, 0.030329382047057152, 0.49536997079849243, 0.3004872500896454, -0.03795580193400383, 1.2485045194625854, 0.3352811932563782, 0.10572796314954758, -0.2244991809129715], [0.08517234772443771, 1.9039949178695679, -0.43848085403442383, 0.4994557499885559, 0.41013073921203613, 1.3383440971374512, -0.45972710847854614, -0.0060118623077869415, -0.2552703320980072, -0.0384867824614048, 0.268554151058197, 1.8074562549591064, -2.2544822692871094, -0.3260696530342102, -0.09212402999401093, 0.2874048054218292], [0.2780691087245941, 0.10554414987564087, 0.06465623527765274, 0.17716914415359497, -0.09437952190637589, -0.11008716374635696, -0.45675399899482727, -0.207071915268898, -0.09801526367664337, 0.4285203516483307, -0.3885593116283417, -0.15827907621860504, 0.71343594789505, -0.07289443910121918, 0.2669791281223297, 0.022668728604912758], [-0.23310673236846924, -0.017944103106856346, -0.06388527899980545, 0.09707849472761154, 0.13142220675945282, -0.16106265783309937, 0.21279408037662506, 0.05489824712276459, -0.20150411128997803, 0.11931835114955902, 0.02531958930194378, 0.052992548793554306, 0.40051406621932983, -0.5076988339424133, 0.401721715927124, 0.18229062855243683], [-0.1240847185254097, 1.7775378227233887, 0.3769563138484955, -0.03442838042974472, -0.2765038013458252, 0.15618397295475006, -0.11328671872615814, 0.19435445964336395, 0.11912496387958527, -0.0898352712392807, -0.11610482633113861, 1.6953778266906738, -0.07105384767055511, 0.06545841693878174, -0.16427798569202423, 0.25113222002983093], [0.056952543556690216, 0.07299787551164627, -0.010867007076740265, -0.05027281120419502, -0.022293463349342346, 0.03522242605686188, 0.06720086932182312, 0.03962194174528122, 0.012027685530483723, 0.010693962685763836, 0.056385304778814316, 0.013910050503909588, -0.6484822630882263, 0.026692144572734833, -0.09373552352190018, -0.02335742861032486], [0.458504855632782, 0.25746506452560425, 0.028376268222928047, -0.042966507375240326, 0.012752645649015903, 0.07885922491550446, -0.15815746784210205, 0.01589587889611721, 0.04214593023061752, 0.10618878901004791, -0.20069478452205658, 0.13224691152572632, -0.6413628458976746, 0.029338093474507332, 0.023638015612959862, -0.009885127656161785], [0.3396967947483063, -0.3836987614631653, 0.1293095052242279, 0.04368230327963829, 0.08610494434833527, 0.10412891954183578, -0.19210822880268097, 0.154575914144516, -0.03778938949108124, -0.13857674598693848, 0.00145586091093719, 0.6435462832450867, 1.684262990951538, -0.09101944416761398, -0.3451170325279236, 0.024309303611516953]], "1_weights": [[-0.14795434474945068, 0.06352140009403229, 0.05904163420200348, -0.12393820285797119, -0.17542695999145508, 0.26076558232307434, 0.05671413615345955, -0.14867617189884186, 0.1277591735124588, 0.2902061343193054, -0.06138135865330696, -0.07121140509843826, 0.1481146514415741, 0.259621798992157, -0.14228427410125732, 0.3323841392993927], [0.24122542142868042, 0.7271400094032288, 2.037407636642456, -0.06091030687093735, 0.12172729521989822, 0.8383420705795288, 0.6540568470954895, 0.16917984187602997, 2.1030426025390625, 0.4141879379749298, -2.245864152908325, -1.1640821695327759, -0.32673487067222595, -1.860147476196289, -0.39579176902770996, 0.22482745349407196], [-0.43589091300964355, -0.7134471535682678, 0.3644888699054718, 0.12709733843803406, -0.6483789682388306, -0.34850502014160156, -1.1728758811950684, -0.4474417269229889, -0.5858845710754395, 0.7464998960494995, 0.6979624629020691, -0.8802812099456787, 0.6186838746070862, -0.7689141631126404, 0.7962283492088318, -0.4451948404312134], [0.017513785511255264, 0.31736719608306885, 0.8934972286224365, -0.08876244723796844, -0.08177599310874939, 0.6876635551452637, 0.23953035473823547, 1.119274616241455, -0.12188507616519928, 0.4530467987060547, -0.1303303837776184, 0.018782569095492363, 0.7411388754844666, -0.10888727009296417, 1.2751317024230957, 0.7416924238204956], [0.13754518330097198, -0.013146042823791504, -0.5726232528686523, 0.09948612749576569, 0.4186064898967743, -0.18080590665340424, 0.22262774407863617, 0.4001508355140686, 0.1414908915758133, 0.24258621037006378, 0.06595585495233536, 0.20619845390319824, 0.18449656665325165, 0.41460955142974854, 0.9768134951591492, -0.6855911016464233], [1.4429832696914673, 1.0220987796783447, -0.5677492022514343, -0.5834206938743591, 0.35058820247650146, 0.0820174515247345, 0.637944221496582, -0.15307281911373138, -0.7203474044799805, -0.2473703920841217, -0.5759934782981873, -0.5831244587898254, -0.5848788619041443, 1.0674307346343994, 0.5949229598045349, 0.6703828573226929], [0.08978135138750076, 0.038405828177928925, -0.809320867061615, -0.07336816936731339, -0.5483570694923401, -0.4622776210308075, -0.08222178369760513, -0.6204636096954346, -0.2874712646007538, -0.4621570110321045, 0.047591522336006165, 0.01978728547692299, -0.24220189452171326, -0.26368558406829834, 0.013302828185260296, 0.3743521571159363], [-2.0053088665008545, 0.8986648917198181, -0.4024340808391571, -0.8760882616043091, 1.2832950353622437, 0.3723972737789154, 0.44627469778060913, 0.2426438182592392, 0.7868040800094604, 0.5677717328071594, -0.13620567321777344, 1.7554010152816772, 1.1898212432861328, 0.6284371614456177, -0.27513912320137024, 0.5346351861953735], [0.2999565601348877, 0.32079213857650757, -0.8436407446861267, 0.15125055611133575, -0.9958653450012207, 0.29926058650016785, 0.6147146821022034, -0.0735376626253128, 0.2531430423259735, -0.39864179491996765, 0.4336557984352112, 0.47664153575897217, 0.6664925217628479, 0.28928399085998535, -0.41369035840034485, 0.3582441508769989], [-0.22824488580226898, -0.020200606435537338, -0.5976130366325378, 0.031966157257556915, 0.04335330054163933, -0.1974896788597107, 0.1544620841741562, 0.4381982088088989, -0.03301538527011871, 0.23317153751850128, -0.2993655800819397, 0.14931561052799225, -0.04108116403222084, 0.31966400146484375, 0.7358539700508118, 0.43224212527275085], [0.29000672698020935, 0.07665680348873138, 0.015543444082140923, 0.2060704380273819, -0.008488493971526623, -0.02662859484553337, 0.3769170343875885, -0.12915067374706268, 0.2391526848077774, -0.08328968286514282, 0.23191624879837036, 0.346306711435318, -0.03730595484375954, 0.1361813247203827, -0.9427289962768555, -0.20675989985466003], [0.3256168067455292, 0.31763532757759094, 1.2935914993286133, 0.15895944833755493, -0.1418818086385727, 0.22879905998706818, 0.4475937783718109, 0.8768594861030579, 0.7851990461349487, -0.3426300883293152, -0.9062553644180298, -0.297558069229126, -0.23074285686016083, -0.5337746739387512, 0.07102873921394348, -0.08342090249061584], [-2.182786226272583, -1.91537606716156, 1.3851547241210938, -0.9632193446159363, -0.7613211274147034, -1.2402395009994507, -2.049891948699951, -2.4230196475982666, -1.2686724662780762, -0.1474395990371704, 0.09438545256853104, 0.3728857636451721, -0.31817930936813354, -0.5577039122581482, 2.9552161693573, 5.670670509338379], [0.06577863544225693, 0.025937512516975403, -1.8241561651229858, 0.009740259498357773, 0.04255256801843643, 0.18617641925811768, 0.1171877533197403, 0.6564313173294067, -0.22357214987277985, 0.6744869947433472, -0.5134990811347961, 0.35197913646698, 0.15916520357131958, 0.4165882468223572, 0.38688552379608154, -0.38919883966445923], [-0.060600534081459045, 0.14027051627635956, -0.6150731444358826, -0.10136216878890991, -0.011057503521442413, 0.040345609188079834, 0.17377188801765442, -0.4397130608558655, -0.023242434486746788, -0.5399448275566101, -0.19355058670043945, 0.10206124931573868, -0.2653430700302124, 0.14735804498195648, -1.0453588962554932, -0.029422543942928314], [1.2955882549285889, -0.1888396143913269, 0.72932368516922, 0.422912061214447, -0.9170214533805847, -0.13324236869812012, 0.02470109798014164, 0.003853179980069399, 0.25082647800445557, 1.2595809698104858, 1.7203788757324219, 0.21332506835460663, 1.4010242223739624, 0.37266436219215393, 0.3813639283180237, -0.08191616833209991]], "2_weights": [[-0.26841238141059875, -0.28510782122612, -0.2604174017906189], [-0.3108542263507843, -0.05289619788527489, -0.05964556336402893], [0.3524714410305023, 0.33944740891456604, 0.36546483635902405], [-0.23197413980960846, -0.002491881139576435, 0.04157961532473564], [-0.296209454536438, -0.2902960479259491, -0.2807466387748718], [-0.17226457595825195, -0.19216835498809814, -0.2044910341501236], [-0.28529366850852966, -0.38706541061401367, -0.2960284650325775], [-0.33352768421173096, -0.33181172609329224, -0.31890222430229187], [0.030236750841140747, -0.012096875347197056, -0.07994966208934784], [-0.4173143208026886, -0.4166797995567322, -0.40837615728378296], [-0.6965382099151611, -0.5886669158935547, -0.48354843258857727], [-0.15729118883609772, -0.23487433791160583, -0.33757826685905457], [-1.0794298648834229, -1.153427004814148, -1.1164990663528442], [-0.30766549706459045, -0.2594856917858124, -0.24221791326999664], [0.5716381669044495, 0.5687238574028015, 0.5599920153617859], [0.6862887144088745, 0.6723722219467163, 0.6729381680488586]], "0_bias": [0.26135551929473877, 0.4120776951313019, -0.2708474397659302, 0.4730546772480011, 0.4993056654930115, 0.5262050032615662, 0.14949467778205872, 0.030519545078277588, -0.1211668998003006, 0.11761654913425446, 0.41004112362861633, 0.21918153762817383, -0.5082812309265137, 0.3372603952884674, 0.4231986105442047, -0.08894091844558716], "1_bias": [0.13593706488609314, 0.28767016530036926, -1.2813814878463745, 0.20647382736206055, 0.4462506175041199, 0.07080470025539398, 0.42173755168914795, -0.0541875921189785, 0.04807934910058975, -0.26109981536865234, -0.7317628264427185, 0.563628077507019, -1.3107351064682007, 0.3542556166648865, -0.2651650011539459, -1.279056429862976], "2_bias": [-0.3203350603580475, -0.35215216875076294, -0.26749250292778015]}