{"triplane_resolution": 2048, "triplane_voxel_size": 0.001953125, "sparse_grid_resolution": 512, "sparse_grid_voxel_size": 0.0078125, "range_features": [-7.0, 7.0], "range_density": [-14.0, 14.0], "data_block_size": 16, "atlas_width": 697, "atlas_height": 357, "atlas_depth": 17, "num_slices": 17, "slice_depth": 1, "0_weights": [[1.0639182329177856, 0.07142792642116547, 2.0279483795166016, 6.108067989349365, 2.7076244354248047, 4.043463230133057, 1.3198106288909912, 1.8808928728103638, -0.10714056342840195, -6.457915782928467, 2.941920280456543, -2.0044877529144287, 0.42159977555274963, -0.43337759375572205, -0.263835608959198, -2.2513933181762695], [3.083557605743408, -0.0012896220432594419, 2.977299451828003, -3.9109508991241455, 3.1020240783691406, 1.5825446844100952, -1.5040149688720703, 2.2445757389068604, 2.5112075805664062, -3.9331467151641846, -1.2700979709625244, -2.758091449737549, 2.985822916030884, 1.5314724445343018, 2.6836819648742676, 1.2277837991714478], [-0.9593251347541809, 0.10388914495706558, 0.8442743420600891, -0.18885301053524017, -2.8290188312530518, -4.629996299743652, -0.10148276388645172, 0.5423330068588257, 2.784010887145996, -4.305466651916504, -3.400442123413086, -3.706022262573242, 4.018503189086914, 4.557448387145996, 5.528357028961182, 3.0728774070739746], [0.050632044672966, -0.04196293652057648, 0.7454357743263245, 0.17326615750789642, 1.2139966487884521, 0.20015069842338562, 2.7721855640411377, 0.8763332366943359, -0.44426751136779785, 1.4487018585205078, -0.07112503051757812, 2.2392640113830566, -2.4284064769744873, 0.10976389795541763, 0.36656665802001953, -4.182861804962158], [-0.7606796026229858, -0.09120523929595947, -0.7614123225212097, -0.3124207854270935, 1.1026240587234497, 0.0494721457362175, -1.4735469818115234, -0.7627599835395813, 0.061461277306079865, -0.5803999304771423, -0.15334342420101166, -26.36080551147461, -0.26717761158943176, -1.096571922302246, -0.8248681426048279, -2.6370015144348145], [-7.8695573806762695, -0.05083033815026283, 0.14705108106136322, -0.18692295253276825, -1.6049116849899292, -0.3628568947315216, 1.4324342012405396, 0.47621971368789673, 3.5405898094177246, 1.794183611869812, -0.5885334014892578, -0.5391279458999634, 1.2835551500320435, 0.3021036386489868, 0.28266841173171997, 0.849779486656189], [-4.64043664932251, 0.017160292714834213, -0.6665147542953491, 3.1561527252197266, 7.248227596282959, 5.580024242401123, -6.881776332855225, -1.8110499382019043, -6.663075923919678, 3.079296588897705, 3.99285888671875, -12.145103454589844, 4.7070698738098145, -0.10629546642303467, -3.5001370906829834, -3.8250725269317627], [-0.3023434579372406, -0.0221576951444149, 0.06330234557390213, 0.040660083293914795, -0.14903578162193298, -0.09724412858486176, 0.20280756056308746, 0.18262600898742676, -0.05338183045387268, 0.1490355134010315, -0.6636301279067993, 0.13002188503742218, -0.14326030015945435, -0.17199395596981049, 0.03774125128984451, 0.029402296990156174], [0.3739342987537384, 0.060719460248947144, -0.09372270107269287, -0.00730159180238843, 0.002368447370827198, -0.052586812525987625, -0.09095627814531326, 0.407228946685791, -0.283743292093277, 0.05565278232097626, 0.4736118018627167, 0.14945904910564423, 0.09241084009408951, 0.03219066932797432, -0.013122471049427986, -0.2672686278820038], [-0.1429874747991562, 0.18887683749198914, -0.24566757678985596, -0.17494675517082214, 0.5510877370834351, -0.05372891575098038, 0.05999280884861946, -0.2162618637084961, 0.40694648027420044, 0.06154029071331024, -0.13450317084789276, 0.07697707414627075, 0.162071093916893, -0.1914096623659134, -0.029871555045247078, -0.14269016683101654], [-0.16489861905574799, 0.10931913554668427, 0.16692067682743073, -0.02261437103152275, -0.40763384103775024, 0.14287599921226501, 0.1717226356267929, 0.10445579886436462, 0.12223866581916809, 0.27616414427757263, -0.742936909198761, -0.011430102400481701, -0.24454808235168457, -0.11136043071746826, -0.07060977816581726, -0.0929148942232132], [0.18819990754127502, -0.21815986931324005, -0.11701650172472, -0.11211248487234116, -0.05210491642355919, 0.05812310427427292, 0.014124265871942043, 0.4397485554218292, 0.01935291849076748, -0.12195505201816559, 0.50693678855896, -0.06520180404186249, 0.17417189478874207, -0.11099309474229813, -0.08239571750164032, -0.5057511925697327], [-0.10664505511522293, 0.033965814858675, 0.015578106045722961, 0.12516018748283386, 0.38055816292762756, 0.18854036927223206, -0.09345603734254837, -0.15448549389839172, 0.30741021037101746, -0.08681795001029968, -0.09765923023223877, 0.04389289394021034, 0.2845004200935364, -0.1359347254037857, -0.07636459171772003, 0.03236520662903786], [-0.23347309231758118, -0.1613483726978302, 0.18970172107219696, -0.06905577331781387, -0.16077345609664917, 0.13496986031532288, 0.14188909530639648, 0.2475200742483139, -0.04658384621143341, 0.06982354819774628, -0.49467387795448303, -0.07900124043226242, -0.12987248599529266, 0.030912499874830246, 0.16659016907215118, 0.22122260928153992], [-0.004842995200306177, 0.07634156197309494, -0.3355172574520111, 0.1234264224767685, -0.18246793746948242, -0.24702423810958862, 0.04393310099840164, 0.10331527143716812, 0.14225631952285767, -0.08316672593355179, 0.46931925415992737, 0.014385191723704338, -0.10635809600353241, 0.05923233553767204, -0.07674185186624527, -0.3162249028682709], [0.054236702620983124, -0.07342098653316498, -0.22412413358688354, -0.16137641668319702, 0.3869333863258362, 0.023559026420116425, 0.16854548454284668, 0.0770135298371315, 0.38907599449157715, -0.13665904104709625, 0.05847594887018204, 0.2599102258682251, 0.27746859192848206, -0.2299874871969223, 0.037379324436187744, -0.0034254975616931915], [0.20863260328769684, -0.04176493361592293, -0.06745595484972, -0.022578449919819832, 0.038538672029972076, -0.0363873615860939, -0.0074013350531458855, -0.13697104156017303, -0.009111973457038403, 0.03436685726046562, 0.04203199967741966, 0.005548922345042229, 0.057552553713321686, 0.10932309925556183, -0.07036067545413971, -0.11511483043432236], [-0.11298579722642899, -0.037715476006269455, 0.14129208028316498, 0.02524636499583721, 0.08998622000217438, 0.07298531383275986, -0.15217043459415436, 0.052725762128829956, -0.052625253796577454, -0.12394211441278458, 0.2290506809949875, -0.015902580693364143, 0.04085139185190201, -0.10717431455850601, 0.05629952624440193, -0.16850663721561432], [0.04401851445436478, 0.15081197023391724, 0.2593475580215454, 0.22906386852264404, 0.043326981365680695, 0.10160841047763824, -0.007595833856612444, 0.5344350337982178, 0.15325036644935608, -0.39158186316490173, 0.4083428978919983, -0.05553286522626877, -0.012411338277161121, -0.42119109630584717, -0.07936600595712662, -0.1994055211544037], [-0.004499024711549282, -0.033059511333703995, -0.004108624067157507, 0.0023996594827622175, -0.012652565725147724, 0.002800937043502927, -0.006098909769207239, -0.02311009354889393, -0.028490956872701645, -0.0228087417781353, 0.030018214136362076, 0.0031899912282824516, -0.013712015934288502, -0.0070897615514695644, 0.010117143392562866, 0.20368240773677826], [-0.006871565245091915, 0.1374133974313736, -0.027406170964241028, 0.005976321641355753, -0.016025172546505928, -0.001751142437569797, 0.031622398644685745, 0.036351997405290604, 0.020008407533168793, 0.028969179838895798, -0.002361759077757597, 0.012136857025325298, 0.0006488850340247154, 0.01767604798078537, -0.0010132165625691414, -0.03634844347834587], [0.29073625802993774, 0.014135000295937061, -0.04062401130795479, -0.02394796721637249, 0.7429038882255554, 0.16438238322734833, 0.07897863537073135, -0.2748769521713257, 0.16643120348453522, -0.12275739014148712, 0.20249265432357788, 0.02576335333287716, 0.034463442862033844, -0.1066872850060463, 0.002646305365487933, -0.3211202323436737], [0.08258981257677078, -0.10570653527975082, 0.2527655363082886, -0.03844427317380905, -0.49867990612983704, -0.0956391841173172, -0.08374254405498505, 0.03415325656533241, -0.542314350605011, -0.145675390958786, -0.12619172036647797, -0.08446022123098373, -0.4264138340950012, 0.04484926536679268, 0.03375590592622757, 0.11642799526453018], [-0.04399650916457176, -0.23017771542072296, 0.12765391170978546, 0.024044549092650414, -0.4753200113773346, -0.08083361387252808, -0.20501317083835602, -0.04672623425722122, -0.8159945607185364, -0.04970822110772133, 0.0789017379283905, -0.33240044116973877, -0.32471805810928345, 0.10731317102909088, -0.10157544910907745, 0.24232350289821625], [0.1479703187942505, -0.17304493486881256, 0.049434442073106766, 0.08061117678880692, -0.19450481235980988, -0.0013735340908169746, -0.17305852472782135, 0.026626024395227432, -0.7545958161354065, 0.0302265677601099, -0.10211960971355438, -0.35668978095054626, -0.286516010761261, 0.05627146363258362, -0.0770154669880867, 0.33063024282455444], [0.3513529598712921, -0.09154056012630463, 0.2286926656961441, -0.11491057276725769, -0.39465948939323425, -0.03942357748746872, -0.02736964449286461, -0.02304188348352909, -0.24647189676761627, -0.18384121358394623, 0.2227621078491211, -0.33558380603790283, -0.672997772693634, 0.014577066525816917, 0.04291531443595886, -0.5441976189613342], [0.16490305960178375, 0.05481845885515213, 0.10539111495018005, -0.019941363483667374, -0.3789198100566864, -0.041066206991672516, -0.2020980715751648, -0.014468966983258724, -0.7559673190116882, -1.194939954984875e-06, -0.02508566901087761, -0.24561572074890137, -0.07764293253421783, 0.1419215351343155, 0.19596558809280396, 0.19243082404136658], [0.28228822350502014, -0.10331927239894867, 0.19346679747104645, 0.2554014325141907, 0.0346696600317955, -0.2018759548664093, 0.06717731803655624, -0.4690641462802887, -1.0644335746765137, 0.20554815232753754, -0.25401225686073303, -0.5817357897758484, -1.0074127912521362, 0.5613267421722412, 0.1216520443558693, 0.4607352912425995], [-0.08939199149608612, 0.04661473259329796, -0.06356189399957657, -0.004947969689965248, 0.12936833500862122, -3.973290222347714e-05, -0.07415301352739334, 0.24897204339504242, -0.10022205859422684, -0.02310577966272831, -0.023899180814623833, 0.06388889253139496, 0.114534892141819, 0.08110222965478897, -0.05719924345612526, 0.574512779712677], [-0.06431164592504501, 0.13629387319087982, 0.019930101931095123, -0.009538085199892521, -0.5219529271125793, -0.019333945587277412, 0.07611392438411713, -0.022526683285832405, 0.14440596103668213, -0.09787721186876297, -0.23947423696517944, 0.03145389258861542, -0.12170242518186569, 0.029805408790707588, -0.054590966552495956, -0.18032851815223694], [0.17318369448184967, 0.12727104127407074, -0.06392701715230942, 6.463041790993884e-05, 0.6099750995635986, 0.19847537577152252, 0.026944439858198166, -0.031045183539390564, 0.15076759457588196, 0.0790790542960167, 0.13892418146133423, 0.05131807178258896, 0.0460648313164711, -0.16795161366462708, 0.037560660392045975, -0.1759892702102661], [-0.026004064828157425, -0.1324726939201355, -0.014659074135124683, 0.0038522155955433846, 0.09101296961307526, -0.010451375506818295, 0.001690181321464479, -0.024554934352636337, -0.0005944016738794744, 0.004722158424556255, 0.00022108499251771718, 0.0019155747722834349, -0.012556608766317368, 0.008451727218925953, 0.020893102511763573, 0.16772212088108063], [-0.004594747442752123, -0.011162427254021168, -0.024554148316383362, 0.009730489924550056, 0.06164148449897766, 0.019560756161808968, -0.008078745566308498, 0.057090096175670624, -0.003666769713163376, 0.0447736419737339, 0.08376768231391907, 0.00027371730539016426, 0.011584491468966007, 0.03163829818367958, -0.011434933170676231, 0.1515762060880661], [0.02329859882593155, -0.09327834099531174, 0.24558083713054657, -0.14415772259235382, -0.1769886314868927, -0.07751099020242691, 0.005707217380404472, -0.32615864276885986, 0.033396534621715546, 0.028284570202231407, -0.5215825438499451, 0.09019862115383148, -0.04402577504515648, 0.04384277015924454, -0.08275915682315826, 0.18801526725292206]], "1_weights": [[-0.20672030746936798, 0.1664416790008545, 0.03372517228126526, -0.4390968978404999, 0.02228822186589241, -0.21710477769374847, -0.07566159218549728, -0.17630860209465027, 0.21424514055252075, -0.3263498544692993, 0.403307169675827, 0.728513777256012, -0.25594276189804077, 0.10755028575658798, -0.013991797342896461, 0.7088858485221863], [-0.002429080428555608, 0.006934662815183401, -0.184689000248909, -0.2040400207042694, 0.01780037209391594, -0.04577965661883354, -0.13885557651519775, -0.041967764496803284, 0.16286635398864746, -0.17071418464183807, -0.17910391092300415, -0.25869330763816833, 0.12914136052131653, 0.2526005804538727, -0.07370851933956146, -0.09016387164592743], [-0.2418016642332077, 0.2562156915664673, 0.027428891509771347, -0.35525813698768616, -0.2858092784881592, -0.23371830582618713, 0.08175817877054214, 0.07805702090263367, 0.09012558311223984, -0.04362994804978371, -0.36929479241371155, 0.16935476660728455, -0.20592808723449707, 0.2421741932630539, -0.3204711377620697, -0.14797070622444153], [-0.40332961082458496, 0.2090226262807846, -0.15585024654865265, -0.42084333300590515, 0.9289161562919617, -0.23874665796756744, 0.6706724762916565, -0.22818990051746368, -0.2757072150707245, -1.0203856229782104, -2.166720151901245, -0.7442841529846191, -0.3138609528541565, -0.4034202992916107, 0.838817834854126, 0.36287739872932434], [-0.29564815759658813, 0.399275541305542, -0.17510603368282318, 0.02523501217365265, 0.1809089034795761, -0.07332609593868256, -0.025301771238446236, -0.03517099469900131, 0.36914488673210144, 0.8397523164749146, 1.3569936752319336, 0.47858816385269165, -0.06643813848495483, 0.6631689667701721, 0.3123916983604431, 0.0857979878783226], [0.16780078411102295, 0.2592690885066986, -0.019650623202323914, -0.3102223873138428, 1.1509695053100586, 0.08451619744300842, 0.6063564419746399, -0.49560654163360596, 0.6671186685562134, -0.7023064494132996, 1.8785418272018433, 1.3111274242401123, -0.08439856022596359, -0.5607481002807617, 0.660875141620636, -1.1907598972320557], [-0.07458376884460449, 0.5453972816467285, -0.17674283683300018, 0.15280425548553467, 0.5193750858306885, -0.10949969291687012, -0.29855668544769287, -0.27839645743370056, 0.5320101976394653, 0.8031858205795288, 0.1929972916841507, -0.032524775713682175, -0.4939711391925812, 0.16786175966262817, 1.3151944875717163, -1.1523000001907349], [-0.0713493749499321, 0.10364747047424316, -0.032707516103982925, -0.06766300648450851, 0.07925235480070114, -0.2617117464542389, -0.1371239423751831, 0.03979991003870964, 0.09074351191520691, 0.10413630306720734, -0.5955997109413147, -1.4590091705322266, -0.05162729322910309, 0.012157337740063667, -0.24583086371421814, -0.01795651577413082], [-0.4832933843135834, -2.0980117321014404, -0.26220107078552246, -0.2933144271373749, -0.6818928718566895, -0.20237086713314056, 1.3413769006729126, 1.168876051902771, -1.9786863327026367, -2.2182228565216064, -0.746372401714325, -3.745171546936035, 0.0032692537643015385, -1.2991678714752197, -6.46474552154541, -6.870476722717285], [-0.09590841084718704, -0.46940428018569946, -0.28973424434661865, -0.16191266477108002, -0.07224718481302261, -0.215727761387825, 0.23548799753189087, 0.19551357626914978, -0.3452799320220947, -0.7859170436859131, -0.09446331858634949, -0.05190061777830124, 0.005568900611251593, -0.24539630115032196, -0.798603892326355, 0.8040444254875183], [-0.11277444660663605, -0.14877797663211823, -0.040450938045978546, -0.46325889229774475, -0.11280763149261475, -0.2533275783061981, -0.20389394462108612, 0.696107029914856, -0.0759667456150055, -2.1239938735961914, -0.16794776916503906, 0.0258853267878294, -0.0982973501086235, 0.062943235039711, -0.14113345742225647, 0.5216271281242371], [0.0985059067606926, 0.6468183994293213, 0.005592102184891701, -0.012695349752902985, 0.5073361396789551, -0.10137029737234116, 1.382473111152649, 0.011558040045201778, 0.8797719478607178, 1.3028010129928589, -0.34911593794822693, -6.728397369384766, -0.048332683742046356, 0.030025657266378403, 0.1973496973514557, -0.41766583919525146], [-0.3775502145290375, 1.31670081615448, 0.06712863594293594, -0.3069918751716614, 1.2536780834197998, -0.28075724840164185, 1.6467037200927734, -0.134286567568779, 1.6368052959442139, 2.4074201583862305, -5.978724956512451, -1.4733487367630005, -0.013013320043683052, 0.5595787763595581, -3.463667392730713, -0.6817161440849304], [-0.01691368967294693, 0.12381170690059662, 0.04281342029571533, -0.4609367847442627, -0.3487613797187805, -0.24579395353794098, -0.542382538318634, 0.12950314581394196, -0.14674893021583557, -0.27790817618370056, 0.04109698161482811, 0.36034753918647766, -0.2975110113620758, 0.32688096165657043, -0.6941776275634766, -0.1482769101858139], [0.021684471517801285, 0.16153627634048462, -0.28901785612106323, -0.13995379209518433, 0.10107117146253586, -0.11239704489707947, -0.3116205036640167, 0.32226935029029846, 0.7870687246322632, 0.7114454507827759, 0.32454124093055725, -0.501180112361908, -0.007466442883014679, 0.16396452486515045, -0.34761178493499756, 0.0798891931772232], [-0.12274645268917084, -0.1459955871105194, -0.23930220305919647, -0.9962989687919617, -0.6249388456344604, 0.0634148120880127, -0.9805759787559509, 1.4070442914962769, -0.05972019210457802, -0.7669844627380371, 0.005161139648407698, -18.50855255126953, 0.06794095039367676, 0.010885155759751797, -0.4219970405101776, 2.299025058746338]], "2_weights": [[-0.044327884912490845, -0.007717073429375887, 0.05406156927347183], [-0.3075152635574341, -0.15299168229103088, -0.43767204880714417], [-0.11403287202119827, 0.015484235249459743, 0.1813272088766098], [-0.07735123485326767, 0.1490446925163269, -0.14694784581661224], [-0.35036149621009827, 0.08284398168325424, 0.19091196358203888], [-0.16467182338237762, 0.0581229068338871, -0.0089988699182868], [-0.2570732831954956, -0.27590450644493103, -0.32479268312454224], [0.26582255959510803, 0.2644129693508148, 0.1765483319759369], [-0.42454221844673157, -0.44052520394325256, -0.17373371124267578], [-0.4251337945461273, -0.6115100979804993, -0.7020887136459351], [0.18426863849163055, 0.1822209656238556, 0.2081364244222641], [-0.20468872785568237, 0.018393026664853096, 0.2222874015569687], [-0.04929563030600548, -0.16280822455883026, 0.12679286301136017], [0.061024151742458344, -0.15116682648658752, -0.21144093573093414], [0.34429967403411865, 0.22290992736816406, 0.16975383460521698], [-0.2388131022453308, -0.20989809930324554, -0.21457388997077942]], "0_bias": [0.2124125212430954, -0.22978609800338745, 0.287204772233963, 0.061014141887426376, -0.3480921685695648, 0.12168341875076294, 0.025670144706964493, 0.022461725398898125, -0.6628299355506897, 0.06276907026767731, -0.1563413143157959, -0.2936733365058899, -0.5038442611694336, 0.22638200223445892, -0.16129131615161896, 0.22617875039577484], "1_bias": [-0.38205406069755554, 0.35414257645606995, -0.23459762334823608, -0.28871697187423706, -1.1565569639205933, -0.04118778929114342, 0.44744476675987244, -0.3546704649925232, 0.4530686140060425, -0.7344132661819458, 0.7766224145889282, -1.197396159172058, -0.057484254240989685, 0.10153794288635254, 0.10830517113208771, 0.3086965084075928], "2_bias": [-0.6200250387191772, -0.6044787168502808, -0.5246875286102295]}