{"triplane_resolution": 4096, "triplane_voxel_size": 0.0009765625, "sparse_grid_resolution": 512, "sparse_grid_voxel_size": 0.0078125, "range_features": [-7.0, 7.0], "range_density": [-14.0, 14.0], "data_block_size": 8, "atlas_width": 1647, "atlas_height": 297, "atlas_depth": 9, "num_slices": 9, "slice_depth": 1, "0_weights": [[-19.688692092895508, 0.05224695801734924, 0.5862184166908264, -1.4717751741409302, 1.0255337953567505, 1.1235078573226929, 3.471127986907959, 2.6011784076690674, -3.247283458709717, 3.804964542388916, 0.48166918754577637, -0.771538257598877, -0.8110116720199585, -0.49416598677635193, -3.5249624252319336, -0.7353644371032715], [-8.425166130065918, -0.006447213236242533, 1.7382270097732544, -0.5373918414115906, 2.7554681301116943, 1.2147283554077148, 2.4251298904418945, 0.6024224758148193, 1.3454720973968506, 2.272664785385132, -0.4044332206249237, 0.4451018273830414, 2.1617493629455566, -0.02858004719018936, 0.8675557374954224, 1.5970985889434814], [-1.9532290697097778, 0.09126953780651093, -2.801541566848755, -0.014660852029919624, 2.1935014724731445, -2.5182876586914062, 1.1336872577667236, -5.16128396987915, 4.2652130126953125, -3.9538626670837402, 0.8461547493934631, 4.087489128112793, 2.6603894233703613, -2.193657875061035, 4.559047222137451, 2.055539608001709], [-0.16035246849060059, -0.05115500092506409, -0.4935327172279358, -0.6868342757225037, -0.8565706014633179, 0.23210479319095612, 0.24974311888217926, -0.2931126058101654, 0.2699856162071228, 0.20888327062129974, 0.3421017527580261, 0.7479820251464844, -0.5568115711212158, 0.2753923237323761, -0.1911819875240326, -0.947481632232666], [-0.12308181822299957, -0.10089165717363358, 0.6017257571220398, 0.18918071687221527, -1.4709049463272095, 0.11019022762775421, 0.06245265528559685, 0.5388025641441345, 0.2878236174583435, 0.7202782034873962, -10.31634521484375, -0.3130549490451813, 0.5450908541679382, 1.1807962656021118, 0.9720974564552307, -0.5080916881561279], [-0.29388749599456787, -0.1205243468284607, -0.4323129653930664, -0.5627080798149109, -1.6526663303375244, -0.5659573674201965, -0.6181502938270569, -0.15752846002578735, -0.25061342120170593, -0.27051711082458496, 0.339991956949234, -0.1491151750087738, -0.8467797636985779, 0.02677512727677822, -0.22109130024909973, -0.47255223989486694], [-0.25782158970832825, 0.007767113391309977, -0.1328631043434143, 0.06584369391202927, -1.5436865091323853, 0.01849411241710186, -0.13706356287002563, -0.19423545897006989, -0.12893277406692505, 0.16626885533332825, 0.1264847218990326, 0.4030696749687195, -0.642979621887207, 0.14796525239944458, -0.40486013889312744, -0.7544888257980347], [-0.0838119313120842, -0.058055583387613297, -0.32005205750465393, 0.16310201585292816, 0.40081194043159485, -0.456202894449234, -0.017599083483219147, 0.10889941453933716, 0.10484520345926285, 0.091560959815979, -0.14723990857601166, -0.484171599149704, 0.18708018958568573, -0.014581494964659214, -0.02388092875480652, -0.4503624439239502], [0.20847851037979126, 0.06890092045068741, 0.31723910570144653, -0.028075143694877625, 0.004034728277474642, -0.3058301508426666, -0.2799953818321228, 0.0765683725476265, -0.40518441796302795, 0.2916194498538971, 0.2062065750360489, 0.25987508893013, 0.34532883763313293, 0.07786080986261368, -0.019505739212036133, -0.16846239566802979], [-0.17982715368270874, 0.18134446442127228, -0.12950295209884644, -0.3700850009918213, -0.21531613171100616, -0.21019525825977325, 0.0189692173153162, -0.2544056177139282, 0.11550796031951904, 0.061102285981178284, 0.004312570672482252, 0.08743727207183838, -0.19347840547561646, -0.27995479106903076, 0.027706226333975792, -0.17148980498313904], [0.06065981090068817, 0.0723341703414917, -0.19896703958511353, 0.08654468506574631, 0.06080110743641853, -0.1895439326763153, 0.005725498776882887, 0.03651139512658119, 0.21079663932323456, 0.22060610353946686, -0.26519718766212463, -0.5896715521812439, 0.08299586921930313, 0.12056322395801544, -0.11029692739248276, -0.6029279232025146], [0.02812846377491951, -0.2073742002248764, 0.28013157844543457, -0.11194958537817001, -0.055700212717056274, -0.16395269334316254, -0.18102151155471802, 0.12316621094942093, -0.04368601739406586, 0.030107812955975533, 0.22489787638187408, 0.10145454108715057, 0.4614025056362152, -0.09823337197303772, -0.054871682077646255, -0.35430988669395447], [-0.14699186384677887, 0.025073055177927017, 0.11605789512395859, -0.07504798471927643, -0.3590283989906311, 0.041945215314626694, -0.12494092434644699, -0.19195334613323212, 0.0011426800629124045, -0.08196690678596497, 0.023500367999076843, 0.05805327370762825, -0.06105136498808861, -0.19749747216701508, -0.010843508876860142, 0.018964922055602074], [-0.006074128672480583, -0.20160523056983948, -0.11645311862230301, 0.008901550434529781, 0.0793362632393837, -0.11623204499483109, 0.11424300074577332, 0.19627632200717926, -0.1389480084180832, 0.013716630637645721, -0.123343825340271, -0.5340790748596191, 0.18809613585472107, 0.43735241889953613, 0.18111592531204224, -0.32463228702545166], [-0.13993407785892487, 0.09499646723270416, -0.037848103791475296, 0.17081797122955322, -0.19517838954925537, -0.40066826343536377, -0.15499651432037354, -0.1733907163143158, 0.2218678593635559, -0.1472872793674469, 0.158949613571167, 0.324226051568985, 0.2476048767566681, -0.0037351108621805906, 0.03196601942181587, -0.0722532570362091], [0.00256758788600564, -0.08696300536394119, -0.17955751717090607, -0.3716834783554077, -0.2629530727863312, -0.09063541144132614, 0.16704796254634857, 0.041456837207078934, 0.04218444973230362, -0.1084488034248352, 0.12320327013731003, 0.2930753529071808, -0.03823143243789673, -0.21027441322803497, 0.1218438595533371, 0.039211858063936234], [0.024689635261893272, -0.08066797256469727, 0.016001684591174126, 0.14475148916244507, -0.0015229749260470271, 0.112614206969738, -0.08351632207632065, -0.13319988548755646, 0.029312772676348686, -0.05295296013355255, 0.04601361230015755, 0.25898948311805725, 0.1672670841217041, 0.06090857461094856, -0.03724703565239906, -0.0008575235260650516], [0.059375740587711334, 0.03579362481832504, -1.211267352104187, -0.06039167940616608, -0.014526805840432644, -0.24702347815036774, 0.02373514324426651, 0.03010481409728527, -0.05900564789772034, 0.1102982610464096, 0.03383617103099823, 0.2900960147380829, -0.14584825932979584, 0.026274509727954865, -0.011726015247404575, -0.008131205104291439], [0.02382497303187847, 0.0929412990808487, -0.04325356334447861, 0.6771780252456665, 0.22752825915813446, 0.3928564190864563, 0.12192754447460175, 0.4266338348388672, -0.06762555986642838, 0.08806601166725159, 0.17362700402736664, 0.44513237476348877, -0.03501665219664574, 0.16690762341022491, -0.06671327352523804, 0.2793859839439392], [0.005189571529626846, -0.011178133077919483, 0.016932515427470207, 0.006645494606345892, 0.007551729679107666, -0.05754482001066208, 0.04084565117955208, 0.011607246473431587, -0.002867641393095255, 0.0034548609983175993, 0.019919749349355698, 0.047337692230939865, -0.06683742254972458, -0.02482287585735321, -0.008885306306183338, -0.0898899957537651], [-0.013839993625879288, -0.020207995548844337, 0.12967486679553986, -0.005861774552613497, 0.020084694027900696, 0.07583214342594147, -0.015963925048708916, 0.012636382132768631, 0.007375371176749468, -0.003399205394089222, -0.0352337472140789, -0.1035151556134224, 0.012229795567691326, -0.0021671527065336704, 0.009323201142251492, 0.07593051344156265], [-0.03358850255608559, 0.05330783501267433, -0.26204249262809753, -0.16457274556159973, 0.00048577357665635645, 0.8289073705673218, -0.15042462944984436, 0.28098517656326294, 0.019826699048280716, 0.1298816204071045, 0.4314916133880615, 0.26522669196128845, -0.00396506255492568, 0.11128484457731247, 0.04088369384407997, 0.03898455947637558], [0.13984127342700958, -0.10374890267848969, 0.05412917584180832, 0.1899101287126541, 0.39430639147758484, 0.007034023758023977, 0.030854173004627228, 0.15368831157684326, -0.029776891693472862, -0.18381831049919128, -0.3128725588321686, -0.15703250467777252, 0.24606524407863617, 0.18112210929393768, -0.03707151859998703, 0.23717524111270905], [0.03471604734659195, -0.22894559800624847, -0.016649752855300903, 0.20046792924404144, 0.282172292470932, 0.060368169099092484, -0.08497368544340134, -0.19570530951023102, -0.07551393657922745, -0.07260359823703766, 0.08063304424285889, -0.4285661578178406, 0.31030595302581787, 0.16653412580490112, -0.26467326283454895, 0.17507989704608917], [0.23356445133686066, -0.16979876160621643, -0.12548649311065674, 0.2949337363243103, 0.6019970774650574, 0.09771417081356049, -0.031073134392499924, 0.02674606814980507, 0.015698373317718506, -0.030820269137620926, -0.1430400013923645, -0.5052655339241028, 0.4841385781764984, 0.10219372063875198, -0.23171931505203247, 0.2664249539375305], [0.36240389943122864, -0.09747237712144852, -0.014986078254878521, 0.1981065571308136, 0.6965145468711853, 0.04405919462442398, 0.06832700967788696, 0.4102800190448761, -0.15059268474578857, -0.23071178793907166, -0.04894650727510452, -0.2980138659477234, -0.08861289173364639, 0.3378850817680359, 0.14525695145130157, 0.04562833160161972], [0.23613928258419037, 0.04968743771314621, 0.07498189061880112, 0.06328243017196655, 0.15103138983249664, 0.10439391434192657, -0.15991531312465668, -0.6379485130310059, 0.18251125514507294, -0.007906739600002766, 0.29344964027404785, -0.286571204662323, 0.3958609998226166, 0.1309788078069687, -0.11951211094856262, -0.196119487285614], [0.38058435916900635, -0.08643850684165955, -0.27448561787605286, 0.38072219491004944, 1.159805178642273, -0.30088937282562256, 0.433057963848114, 0.12376180291175842, 0.2112102508544922, -0.14032568037509918, 0.27525433897972107, -1.1916297674179077, 0.6717984080314636, 0.4799114167690277, -0.23434646427631378, -0.0991431325674057], [-0.04610330983996391, 0.056931022554636, 0.5905979871749878, 0.020808769389986992, -0.09869824349880219, 0.29307523369789124, -0.07688436657190323, -0.350422739982605, 0.1447770744562149, 0.043429963290691376, 0.12306983023881912, 0.7961836457252502, -0.2126014679670334, -0.017149215564131737, -0.07681610435247421, -0.010637528263032436], [0.00529962545260787, 0.09758606553077698, 0.07691986113786697, 0.09092576801776886, 0.0841299518942833, 0.3356945514678955, 0.12749947607517242, 0.28302690386772156, -0.0053153084591031075, -0.09307094663381577, 0.0036832017358392477, 0.5295682549476624, 0.25369903445243835, 0.12593191862106323, 0.07247944921255112, -0.5317918658256531], [0.06680001318454742, 0.10581034421920776, -0.2724054455757141, -0.3294864594936371, -0.07390988618135452, 0.22682197391986847, 0.15640629827976227, -0.045106060802936554, -0.055648691952228546, 0.07724270224571228, 0.012810548767447472, -0.0679037868976593, -0.043101076036691666, 0.007726411800831556, 0.07728473842144012, 0.20822611451148987], [0.016400545835494995, -0.07154230773448944, -0.23624733090400696, 0.005998378153890371, 0.05039001628756523, -0.21687932312488556, 0.07816699892282486, 0.01344700064510107, -0.02086539939045906, -0.011987604200839996, -0.01573081500828266, -0.0881822481751442, -0.06818346679210663, -0.012488026171922684, -0.0009722441318444908, 0.040915753692388535], [0.005827430635690689, -0.08555596321821213, 0.03359678015112877, -0.005317504517734051, 0.017858268693089485, -0.11152567714452744, -0.003789387410506606, -0.012888985686004162, -0.011030500754714012, 0.017816022038459778, 0.019310006871819496, -0.01678304560482502, -0.059887442737817764, 0.024232778698205948, 0.00023934892669785768, 0.007943954318761826], [0.0732727125287056, -0.08305583149194717, 0.22426119446754456, 0.1225508600473404, -0.10718218237161636, -0.28820300102233887, 0.02803797461092472, -0.4463648498058319, 0.027600279077887535, -0.19797489047050476, -0.13696636259555817, 0.10919660329818726, -0.05709534510970116, 0.057167261838912964, 0.03523116931319237, -0.16434459388256073]], "1_weights": [[-0.035265158861875534, 1.097182273864746, -0.02368939109146595, -0.4147908687591553, 2.1704702377319336, -0.09799164533615112, 0.13371270895004272, 0.10652580857276917, -2.9086780548095703, 0.835068941116333, -0.2070743590593338, -0.33080220222473145, 0.21100887656211853, -0.25464463233947754, -1.5083354711532593, 0.005423429887741804], [-0.12154484540224075, 0.006788476370275021, -0.19140659272670746, -0.46525463461875916, 0.0018481961451470852, -0.04479176923632622, -0.14263086020946503, -0.014730620197951794, 0.07296068221330643, -0.16557300090789795, -0.1598135381937027, -0.23998859524726868, 0.13217248022556305, 0.2627195417881012, -0.1596381515264511, -0.0700511634349823], [-0.23228836059570312, -0.0014995401725172997, -0.2857138216495514, -0.44670775532722473, -0.17217540740966797, -0.2545570135116577, 0.465182363986969, -0.0845189243555069, -0.037662800401449203, -0.020358195528388023, -0.272231787443161, 0.31428954005241394, -0.10355454683303833, 0.23090225458145142, -0.5182566046714783, -0.5375317931175232], [-0.2515375018119812, 0.08846328407526016, -0.1634913831949234, -0.37733718752861023, 0.9984365105628967, -0.2303466647863388, 0.20234034955501556, 0.002644740976393223, 0.1744866520166397, -0.030087683349847794, -0.14980904757976532, 0.18333178758621216, 0.14305590093135834, -0.060940783470869064, 0.8899234533309937, 0.35160550475120544], [-0.2875936031341553, 0.46841540932655334, -0.5221771001815796, -0.04536960646510124, 1.0557551383972168, -0.06797318905591965, -0.6586850881576538, -0.6896554231643677, 0.2824821174144745, 0.3251604735851288, 0.003641547169536352, 0.23387959599494934, 0.05723322927951813, 0.013609902001917362, -0.46362802386283875, 0.8438830971717834], [0.043507788330316544, 0.18790514767169952, 0.2607835531234741, 0.07566617429256439, 0.41018107533454895, 0.0056230900809168816, -0.2529962360858917, 0.019980235025286674, 0.4957331717014313, 0.2777109742164612, 0.020751625299453735, 0.15341760218143463, -0.2692398130893707, -0.23814238607883453, 0.6425597071647644, 0.47678565979003906], [0.06240202113986015, 0.48341524600982666, 0.8819641470909119, -0.16904808580875397, -0.20871427655220032, -0.35048338770866394, -0.22629788517951965, 0.11650404334068298, -0.5542378425598145, 0.20218424499034882, -0.2593352496623993, 0.3782600462436676, -0.689168393611908, -0.07379656285047531, 0.029241491109132767, 0.1698450744152069], [-0.078560970723629, 0.12801764905452728, 0.8520252108573914, -0.10191039741039276, -0.24680818617343903, -0.2735639810562134, 0.004999429918825626, 0.8074886798858643, -0.8045300841331482, -0.20761235058307648, -0.32157450914382935, -0.5085117816925049, -1.8534774780273438, -0.7190269827842712, -0.3749665319919586, -0.6459943056106567], [-0.3853776752948761, -0.32313743233680725, -1.3142099380493164, -0.3478757441043854, -0.08296031504869461, -0.25702208280563354, -0.23219548165798187, 0.03691308572888374, 0.2976572811603546, -0.23883111774921417, -0.08751841634511948, 0.16287800669670105, 0.4978768229484558, 0.32226887345314026, -0.46158868074417114, 1.109034776687622], [-0.2154988795518875, 0.4973522126674652, 0.22640953958034515, -0.3964217007160187, 1.1343246698379517, -0.17113004624843597, 0.5735467672348022, 0.4162420928478241, -0.8088588118553162, 0.049156058579683304, -0.3216852843761444, -0.297741562128067, 1.6771748065948486, 0.1835830807685852, 1.1671531200408936, -0.7399815320968628], [-0.27873140573501587, -0.29669395089149475, -0.14587374031543732, -0.3187043368816376, 0.03725499287247658, -0.22009436786174774, -0.2782081365585327, -1.3771709203720093, -1.4409849643707275, 0.334664523601532, -0.2364189773797989, 1.0525115728378296, -1.884016513824463, -0.47134366631507874, -0.4883483946323395, 0.6410848498344421], [-0.011641932651400566, 0.46157100796699524, -0.8743826746940613, -0.2607141137123108, 0.3370983898639679, -0.14808355271816254, -0.3417142629623413, 0.1996767669916153, 0.32417789101600647, 0.4417704641819, -0.054120492190122604, 0.2838315963745117, -0.7527464032173157, -0.360500305891037, -0.17771664261817932, 0.7429667711257935], [-0.2845800817012787, 0.25981175899505615, -0.41737812757492065, -0.1407526731491089, 0.46175092458724976, -0.30412963032722473, 0.07400577515363693, -0.1724383533000946, 0.6507889628410339, 0.08210185170173645, -0.12163111567497253, 0.7769001126289368, -0.49455058574676514, 0.25533926486968994, -0.2563677728176117, 0.037446606904268265], [-0.0433078296482563, 0.3043317198753357, 0.14459753036499023, -0.37435382604599, -1.8426666259765625, -0.22431333363056183, 0.10134872794151306, 0.07980230450630188, -1.0310442447662354, 0.1775074601173401, -0.1470940113067627, -0.3309236168861389, -0.11633636802434921, -0.001601034658960998, 0.015406645834445953, -0.2330821454524994], [0.038062382489442825, -1.1179507970809937, -0.41680535674095154, -0.4266919195652008, -1.72378671169281, -0.07800993323326111, 0.47951191663742065, 3.1360373497009277, 2.2850334644317627, -0.6164129972457886, -0.19951750338077545, -2.0211846828460693, 0.6205060482025146, -1.0472196340560913, -4.575565338134766, -1.3290854692459106], [-0.02891554869711399, 0.2350560426712036, -0.5411067008972168, 0.007246941328048706, -0.22565528750419617, 0.052321918308734894, 0.004474043380469084, -0.26458820700645447, 0.2697772681713104, 0.21801309287548065, -0.04708251357078552, 0.5247431993484497, 0.5881139636039734, 0.10079088807106018, -0.41930752992630005, 0.42495104670524597]], "2_weights": [[-0.06050387769937515, 0.03576022386550903, 0.17153143882751465], [-0.386031836271286, -0.22771123051643372, -0.21288923919200897], [-0.12558139860630035, -0.1480594277381897, -0.17187494039535522], [-0.1830132007598877, 0.02062021568417549, -0.3625503182411194], [-0.878583550453186, -0.8729534149169922, -0.7928016781806946], [-0.19174125790596008, 0.04748956114053726, -0.0044542220421135426], [-0.15661273896694183, -0.22891265153884888, -0.44566744565963745], [0.48886838555336, 0.38436800241470337, 0.40325528383255005], [-0.5640055537223816, -0.649127185344696, -0.8299587965011597], [-0.12632344663143158, -0.15215608477592468, 0.11881276965141296], [0.06855300068855286, -0.08550253510475159, 0.10836365818977356], [0.13228535652160645, 0.16255131363868713, 0.18013833463191986], [-0.4566423296928406, -0.3554125726222992, -0.20521777868270874], [0.09335707128047943, -0.17982497811317444, -0.21515150368213654], [-0.676498293876648, -0.07796009629964828, 0.2554335594177246], [0.008145889267325401, -0.20599347352981567, -0.47938036918640137]], "0_bias": [0.28640833497047424, -0.22754834592342377, 0.11440788209438324, 0.2668556571006775, 0.4673748016357422, 0.23687182366847992, 0.1503673940896988, 0.014976118691265583, 0.005223082844167948, 0.02385762892663479, -0.23600535094738007, -0.39689478278160095, 0.18381576240062714, 0.3071754276752472, -0.28897684812545776, 0.2147793024778366], "1_bias": [-0.382691353559494, 0.4300079941749573, 0.5334134101867676, -0.33501678705215454, -2.0543837547302246, -0.005722100380808115, 0.9827166199684143, -0.19314135611057281, -0.27597132325172424, 0.3923172652721405, -0.0023515368811786175, -0.3400879502296448, -0.453595370054245, 0.6000570058822632, -1.6042512655258179, 0.3147069215774536], "2_bias": [-0.7615461349487305, -0.641556441783905, -0.7430990934371948]}