{"triplane_resolution": 2048, "triplane_voxel_size": 0.001953125, "sparse_grid_resolution": 512, "sparse_grid_voxel_size": 0.0078125, "range_features": [-7.0, 7.0], "range_density": [-14.0, 14.0], "data_block_size": 16, "atlas_width": 1139, "atlas_height": 306, "atlas_depth": 17, "num_slices": 17, "slice_depth": 1, "0_weights": [[-0.12378066778182983, 1.709409475326538, 0.038569167256355286, 1.4332445859909058, 0.6482990384101868, -0.5624090433120728, -0.07801282405853271, 2.359440565109253, 3.5114033222198486, 3.5038557052612305, -0.19263248145580292, -1.0057904720306396, 1.5173912048339844, -1.0557136535644531, 0.17728470265865326, 0.21539828181266785], [-0.007618579547852278, -7.19455623626709, 2.459641695022583, 1.3043285608291626, -0.4091407060623169, 1.2780687808990479, -0.011534344404935837, 1.678350806236267, 0.7325978875160217, -2.1078503131866455, -0.06404528766870499, 3.6040611267089844, 0.34103184938430786, 1.8627742528915405, -0.8836970329284668, 0.056520458310842514], [-0.09869633615016937, 3.2048449516296387, 2.8396968841552734, 1.9839781522750854, 1.524420142173767, 3.2392165660858154, -0.10539331287145615, -2.1299924850463867, -1.9713411331176758, -3.25156831741333, -0.1688176989555359, 0.007418677676469088, -5.760568141937256, 3.610118865966797, -0.52447509765625, 0.40784454345703125], [0.05788884684443474, -9.766127586364746, 0.6555241942405701, -7.457229137420654, -5.380782604217529, -13.587328910827637, -0.5349475741386414, -5.448093414306641, -3.998154401779175, 4.460152626037598, -0.000612426083534956, -0.6591841578483582, -4.6256914138793945, 4.833418846130371, 9.122714042663574, -6.5568060874938965], [-0.0676594227552414, -0.628140926361084, -1.2407804727554321, 1.6178022623062134, -0.5325730443000793, -1.0244667530059814, -9.720070838928223, -0.8749248385429382, -1.3139574527740479, -0.821056067943573, -0.27371639013290405, 1.6100091934204102, 0.14387527108192444, 0.29530149698257446, -0.39111843705177307, 3.0824737548828125], [-0.1476089060306549, -0.039925459772348404, 0.39248383045196533, -0.37795230746269226, 0.49244213104248047, 0.6037987470626831, -9.371315002441406, -0.02810867503285408, 0.3221348226070404, 0.03845539689064026, -0.3075556755065918, -0.7168616056442261, 0.769585907459259, -0.25173625349998474, -0.47947579622268677, -0.7437188029289246], [-0.20264536142349243, -0.21386127173900604, 0.307211309671402, -0.3875693082809448, 0.13358162343502045, 0.21034085750579834, -8.744434356689453, -0.41318926215171814, 0.35327717661857605, -0.39849725365638733, -0.29725125432014465, -0.8821564316749573, 0.36297136545181274, 0.016205040737986565, -0.37720003724098206, -0.6078336238861084], [0.011554700322449207, 0.3121713101863861, -0.12809370458126068, 0.08566033840179443, 0.055655382573604584, 0.07992177456617355, 0.2988322973251343, 0.04113760590553284, -0.057951655238866806, -0.031655821949243546, 0.08572746813297272, -0.03235964849591255, -0.9590376615524292, 0.14438706636428833, -0.2087724655866623, 0.11704029887914658], [0.01518212165683508, 0.3233552873134613, 0.014327715151011944, 0.32902657985687256, -0.30624017119407654, -0.05435483902692795, 0.009221839718520641, -0.1726013571023941, -0.05981655418872833, 0.5731623768806458, 0.025829117745161057, 0.2528845965862274, -0.04112332686781883, 0.0949568822979927, -0.6621699929237366, -0.22299794852733612], [0.07117024809122086, 0.0238405279815197, -0.09783117473125458, 0.5305195450782776, -0.4261636435985565, -0.020203476771712303, -0.28193262219429016, -0.06680303066968918, 0.3010454475879669, -0.05601400509476662, 0.0838598981499672, 0.2780541181564331, 0.7991735339164734, 0.17590776085853577, 0.042246971279382706, 0.28271085023880005], [-0.0759149044752121, 0.17251616716384888, -0.16097453236579895, 0.16994976997375488, 0.11684460192918777, 0.2649926245212555, 0.35046902298927307, 0.2755239009857178, 0.011220703832805157, -0.0297944825142622, 0.084574855864048, 0.19659006595611572, -1.0759066343307495, -0.009589032270014286, 0.0034648445434868336, 0.08712412416934967], [0.09606202691793442, 0.3397952616214752, -0.09488926082849503, 0.2848367393016815, -0.3236423432826996, -0.04448675736784935, 0.11203048378229141, 0.07113124430179596, 0.06205740198493004, 0.3590412139892578, -0.006753493566066027, 0.006673777010291815, -0.029328830540180206, -0.06370767951011658, -0.6375346183776855, -0.16557589173316956], [0.19518202543258667, -0.18237505853176117, -0.021922213956713676, 0.5760758519172668, -0.5265816450119019, -0.16721747815608978, -0.3805946111679077, -0.3020857572555542, -0.05059974640607834, -0.3215945363044739, 0.2537493407726288, 0.11532909423112869, 0.9720909595489502, 0.2388126701116562, -0.11333312094211578, 0.20985111594200134], [0.08329630643129349, 0.16428504884243011, 0.05666949599981308, -0.07630683481693268, 0.06612200289964676, 0.07112322002649307, 0.31637120246887207, 0.13047094643115997, 0.003989923279732466, 0.36674436926841736, 0.05496297776699066, -0.05022623762488365, -0.7850736975669861, 0.013687393628060818, -0.13213348388671875, -0.18654944002628326], [0.034577857702970505, -0.02220422588288784, -0.09752975404262543, 0.3225829005241394, -0.2625076472759247, -0.04908454790711403, 0.09852511435747147, -0.1598283350467682, 0.031541213393211365, 0.12627124786376953, 0.06772445142269135, -0.052347101271152496, -0.11592987924814224, -0.05206715315580368, -0.4646048843860626, 0.2438923567533493], [-0.05952025204896927, -0.17248526215553284, 0.10690631717443466, 0.6330544948577881, -0.46377283334732056, -0.13241413235664368, -0.21507656574249268, -0.2687408924102783, 0.0129496268928051, -0.12302213907241821, 0.3123077154159546, 0.1462993621826172, 0.8774965405464172, 0.4072226285934448, -0.06871586292982101, 0.16924749314785004], [0.07723614573478699, -0.4380834996700287, -0.1251409351825714, -0.054677076637744904, 0.31898319721221924, 0.013848783448338509, 0.09232672303915024, 0.09557701647281647, -0.0034558656625449657, -0.08189930021762848, 0.18228310346603394, -0.09306184947490692, 0.11099755764007568, 0.18503454327583313, 0.22525227069854736, 0.040931738913059235], [-0.14991459250450134, 0.06732359528541565, 0.4257400631904602, 0.009117932058870792, -0.49479565024375916, -0.10737737268209457, -0.07719163596630096, -0.013469493947923183, -0.02872566133737564, 0.07445604354143143, -0.026013420894742012, -0.1717563420534134, -0.3968614339828491, -0.018978308886289597, 0.22356121242046356, 0.07379664480686188], [0.17512932419776917, -0.0892043262720108, -0.13314272463321686, 1.6712318658828735, 0.6126172542572021, 0.46292608976364136, 0.2301086187362671, -0.10985117405653, -0.13383375108242035, -0.08175516873598099, -0.0684758722782135, -0.506039559841156, 0.2389822155237198, 0.8550660014152527, -0.9826006889343262, 0.23051199316978455], [0.04375201091170311, 0.05161608010530472, -0.010522439144551754, 0.04278237372636795, -0.017291700467467308, -0.03445793315768242, -0.01768602430820465, -0.07740059494972229, -0.0035806193482130766, 0.012603930197656155, -0.34105172753334045, 0.013223612681031227, -0.02877672016620636, 0.05194174125790596, -0.11303671449422836, 0.003937410656362772], [-0.05866672098636627, -0.08548134565353394, -0.10710318386554718, -0.1339680254459381, 0.18571829795837402, 0.08554308861494064, 0.03165317326784134, 0.05023515224456787, 0.004099316895008087, 0.055447131395339966, 0.11547849327325821, 0.03884515166282654, -0.00693688215687871, -0.031384263187646866, 0.09547210484743118, -0.034164104610681534], [-0.03706898167729378, 0.37301456928253174, 0.38126784563064575, 0.47206276655197144, -0.23955005407333374, 0.5821921825408936, -0.17116503417491913, 0.3227927088737488, -0.13133488595485687, 0.19080255925655365, 0.057525720447301865, 0.011375916190445423, -2.5177559852600098, -0.1787300705909729, 0.237984299659729, 0.03339264914393425], [-0.05364783853292465, 0.012642811052501202, -0.00821225717663765, -0.31295379996299744, 0.3461180627346039, -0.20800580084323883, 0.16581714153289795, 0.05947320535778999, -0.07848510146141052, 0.19181804358959198, -0.4927273988723755, -0.015056424774229527, 0.19591547548770905, -0.37235027551651, 0.0025095383170992136, -0.3809904158115387], [-0.17462947964668274, 0.07873091101646423, -0.02046734094619751, -0.24992942810058594, 0.3205534517765045, 0.11451651155948639, 0.18444405496120453, 0.12945936620235443, -0.17326027154922485, 0.13985292613506317, -0.20842920243740082, -0.10392562299966812, 0.29666075110435486, -0.3960350751876831, 0.3816251754760742, -0.003741089254617691], [0.08180183172225952, -0.057601869106292725, -0.06846152991056442, -0.46586135029792786, 0.3299441635608673, 0.03703906387090683, 0.3943203389644623, 0.13709962368011475, 0.019113091751933098, 0.18901118636131287, -0.42651739716529846, 0.1363009363412857, 0.6272708773612976, -0.2985292375087738, 0.4474913477897644, -0.16226091980934143], [-0.17007172107696533, 0.3531128764152527, 0.32991036772727966, -0.7568634152412415, 0.18335220217704773, -0.0663667693734169, 0.09960631281137466, -0.5583617091178894, -0.19120578467845917, 0.18718379735946655, -0.38944098353385925, 0.06311444938182831, 0.2564191520214081, -0.3733059763908386, -0.7152139544487, -0.3573157489299774], [-0.1945701390504837, -0.20231765508651733, -0.05897999927401543, 0.3157458007335663, 0.6688315868377686, 0.5069975852966309, -0.015946777537465096, 0.8835524916648865, 0.0226579699665308, -0.11582955718040466, -0.243343323469162, -0.48497024178504944, 0.05920296907424927, 0.19747184216976166, 0.6168610453605652, 0.20561063289642334], [-0.2706569731235504, -0.56377112865448, 0.008583350107073784, -0.12091312557458878, -0.694602906703949, -0.824501097202301, 1.0093510150909424, -0.1010647863149643, 0.03284847363829613, 0.04833107441663742, -0.05635712668299675, 0.2519007921218872, 1.3149068355560303, 0.25256770849227905, 0.7891392707824707, -0.5575721263885498], [0.04034280776977539, -0.05956394225358963, -0.2782278060913086, 0.22684958577156067, 0.15719208121299744, 0.3987097442150116, -0.05185534805059433, 0.5848451256752014, 0.1129760593175888, -0.05917588248848915, 0.3757694661617279, -0.047593649476766586, 0.3280004560947418, 0.3393791615962982, 0.4922930598258972, 0.0778651162981987], [-0.060279540717601776, 0.3179856836795807, 0.022990252822637558, 0.11696847528219223, 0.1636989265680313, -0.40126919746398926, -0.06595415621995926, -0.486906498670578, 0.004849783144891262, 0.0812738761305809, -0.14915989339351654, 0.15332338213920593, -0.026702454313635826, 0.12334924191236496, -0.42971211671829224, -0.18259917199611664], [0.095046266913414, -0.4531581699848175, 0.2669937312602997, -0.246751606464386, -0.35863837599754333, 0.06562773883342743, 0.018764115869998932, -0.5691678524017334, 0.016131287440657616, -0.6849251985549927, 0.43236738443374634, -0.24764186143875122, 5.223012924194336, 0.640349805355072, -0.28877928853034973, -0.01938309706747532], [-0.05535213276743889, -0.034430477768182755, 0.005635915324091911, 0.001784758293069899, 0.010392175987362862, -0.048027291893959045, 0.15263870358467102, -0.0801355242729187, -0.008236141875386238, 0.03400218114256859, -0.009036450646817684, 0.010839668102562428, -0.15710440278053284, 0.021435227245092392, -0.022267216816544533, -0.01220759842544794], [-0.21163947880268097, -0.061291489750146866, -0.0014685924397781491, 0.04976942390203476, -0.040277499705553055, 0.03945833817124367, -0.008504392579197884, 0.0216447114944458, -0.0067624663934111595, -0.0056612808257341385, -0.27502909302711487, 0.00017814605962485075, -0.3597896993160248, -0.03089655190706253, -0.002998998388648033, 0.013496480882167816], [-0.052178990095853806, 0.16049638390541077, -0.05588999763131142, -0.7528637647628784, 0.6263983249664307, 0.1070944145321846, -0.06683041155338287, -0.3240286111831665, 0.0020663831382989883, 0.10875533521175385, -0.11718183755874634, 0.2943594753742218, -1.0923799276351929, 0.6613224148750305, 0.7935119867324829, -0.07964197546243668]], "1_weights": [[0.03223023563623428, 0.17248906195163727, 0.10930068045854568, -0.25757333636283875, -0.09529612958431244, 0.14369559288024902, -0.01642732135951519, 0.05083697289228439, 0.16330450773239136, -0.5600124001502991, -0.07871703058481216, 0.03385498747229576, -0.07742392271757126, 0.002701675286516547, 0.22123974561691284, 0.23662322759628296], [-1.7780826091766357, 1.707975149154663, 0.48529142141342163, -0.5681193470954895, 0.16990084946155548, -0.04021378606557846, -0.6020723581314087, 0.09762156009674072, 0.08305434882640839, 0.8114940524101257, 0.4723303020000458, 0.4946625828742981, 0.21478915214538574, 0.6943888068199158, 0.32040855288505554, -0.4104909300804138], [-1.3877683877944946, 0.6420840620994568, -1.085720181465149, 0.9697531461715698, -0.42442435026168823, -0.3130511939525604, 0.14044319093227386, -1.2713112831115723, -0.06731554865837097, -0.20587630569934845, 0.4689074158668518, 0.3388471007347107, 0.529533326625824, -0.30038073658943176, 0.33618393540382385, 0.3892575204372406], [0.8849756717681885, 0.16154693067073822, 1.4526160955429077, 0.8608254790306091, 0.29820340871810913, -0.03942110389471054, 0.9997990727424622, 1.0649981498718262, 0.09055939316749573, 1.4790171384811401, 0.10604993253946304, -0.4334218502044678, 0.3356707990169525, -0.06556539237499237, -0.1591646373271942, -1.0313631296157837], [-0.6124167442321777, -0.37034037709236145, -0.13534393906593323, 0.19012334942817688, -0.32409489154815674, 0.002069310285151005, -0.31731438636779785, -0.7644619345664978, -0.000427281396696344, -0.7565449476242065, 0.4548792243003845, 0.08728369325399399, 0.36667630076408386, -0.2173854559659958, 0.2902238667011261, 0.04513813927769661], [0.6664294004440308, 0.5544803738594055, -0.7597399353981018, -0.24365001916885376, -0.49366798996925354, 0.043264664709568024, -1.4424582719802856, -0.3701624870300293, -0.41697582602500916, -0.1648842841386795, 0.3881477415561676, 0.2620139420032501, 0.565370500087738, -0.674648106098175, 0.7173660397529602, 1.2224177122116089], [-1.8947359323501587, -0.8224802613258362, 0.9538562297821045, 2.9547483921051025, -0.7901315689086914, 0.09481324255466461, -1.5607815980911255, -3.776686668395996, 0.10031521320343018, -2.981816053390503, 4.781726360321045, 2.665111780166626, 1.8757994174957275, 0.6198760867118835, 3.927889347076416, 11.648061752319336], [0.4306938052177429, -2.2278482913970947, 0.14262954890727997, 0.41750407218933105, -0.14204512536525726, -0.33867329359054565, -0.1319197416305542, -0.039737261831760406, -0.07674548774957657, 0.30313417315483093, 0.16508175432682037, 0.147025465965271, -0.06520262360572815, 0.07647404074668884, -0.4983854591846466, -0.7531441450119019], [-0.17338041961193085, -3.906388521194458, 0.2593942880630493, -0.39395925402641296, -0.3160531222820282, 0.07745354622602463, 1.0883315801620483, -0.7912363409996033, -0.26691141724586487, -7.215371608734131, 0.9014584422111511, 1.166754961013794, -0.4050978720188141, -0.034413646906614304, 1.31894052028656, 1.1955031156539917], [-2.039935350418091, -2.0843725204467773, 0.33454185724258423, -0.322710245847702, 0.939849317073822, -0.01076126005500555, -0.20466557145118713, 0.8268769383430481, -0.4084935784339905, -3.5821902751922607, 0.4949546754360199, 0.1801241785287857, 0.35375890135765076, 0.08647013455629349, -0.5557550191879272, -0.06635115295648575], [-0.14202602207660675, -0.04565902799367905, 0.28066202998161316, -0.03968346118927002, 0.13841618597507477, -0.17145848274230957, 0.18284910917282104, -0.06715784966945648, -0.13063926994800568, -0.1682795137166977, -0.1121644675731659, 0.07895209640264511, -0.10009057074785233, 0.15491987764835358, 0.6080924868583679, -0.37751439213752747], [0.6265314817428589, -0.2694609761238098, -1.1802281141281128, -0.188866525888443, 0.4603458642959595, -0.15112344920635223, -1.055949330329895, 1.1786810159683228, -0.32872211933135986, 0.29021528363227844, -0.39203017950057983, 0.3829612731933594, -0.2939673066139221, 0.7725903391838074, -0.6817626357078552, -0.4183502197265625], [0.3337254822254181, 1.2587682008743286, -1.0734797716140747, -0.1695849895477295, 0.20206128060817719, -0.2665369510650635, -0.33672642707824707, 0.046137675642967224, -0.24846221506595612, 2.1465868949890137, -0.22369715571403503, 0.583100438117981, -0.016169384121894836, 0.9342748522758484, -0.12458042055368423, -1.653493046760559], [0.3177488148212433, 1.712265133857727, -14.176328659057617, -0.033593352884054184, 0.1919345110654831, -0.3427043557167053, 3.317126750946045, -0.22147269546985626, -0.20594938099384308, 0.3662535548210144, 2.1650710105895996, 3.060750961303711, 1.6067674160003662, -1.3229649066925049, 0.6369425654411316, 1.5467053651809692], [0.08613467216491699, 1.072840929031372, 0.4369848668575287, -0.629770040512085, 0.1789105236530304, -0.21865177154541016, 1.0938987731933594, 0.2560519874095917, -0.2014530897140503, 0.5556784868240356, 0.018337057903409004, 0.29958799481391907, 0.0003813602961599827, -0.16457808017730713, -0.3354565501213074, -0.17750868201255798], [1.1225289106369019, 0.2789859473705292, -0.950557291507721, -1.318947196006775, 0.0456959493458271, 0.12901857495307922, -3.105647325515747, 1.5499958992004395, 0.06636001914739609, -0.9000996947288513, -1.252954363822937, -0.5749964714050293, -1.5558185577392578, 1.0854567289352417, 0.3273000121116638, -0.20928548276424408]], "2_weights": [[0.7079571485519409, 0.6696444153785706, 0.5845195055007935], [0.4639825224876404, 0.4182319641113281, 0.27254337072372437], [-0.3524167835712433, -0.3164568543434143, -0.3230002224445343], [-0.42010486125946045, -0.40201041102409363, -0.33996906876564026], [1.1952751874923706, 1.2665128707885742, 1.1042566299438477], [-0.21293854713439941, -0.04885854572057724, 0.16394835710525513], [0.29166632890701294, 0.3035401999950409, 0.22279441356658936], [-0.5818506479263306, -0.5594176650047302, -0.4814645051956177], [-0.04371049255132675, -0.052115850150585175, -0.02718786895275116], [-0.30793625116348267, -0.2884072959423065, -0.17976981401443481], [-0.3609907329082489, -0.19697165489196777, -0.22655251622200012], [-0.32419294118881226, -0.24620458483695984, -0.048091161996126175], [0.012685487978160381, -0.24001991748809814, -0.41282346844673157], [-0.2540138065814972, -0.26564842462539673, -0.4129590094089508], [-0.3968104422092438, -0.3675311505794525, -0.3680361211299896], [-1.0035265684127808, -1.404019832611084, -1.4847185611724854]], "0_bias": [-0.21238648891448975, -0.10549279302358627, -0.03810993954539299, -0.3520003855228424, 0.44652944803237915, -0.06927003711462021, 0.30907249450683594, 0.13943348824977875, -0.0439562164247036, -0.03171917051076889, -0.24847598373889923, -0.00764535553753376, 0.35366663336753845, -0.3284916281700134, 0.24825641512870789, -0.3307340741157532], "1_bias": [1.4647070169448853, -0.6077792048454285, 1.0328179597854614, 0.15467983484268188, -0.5261791348457336, -0.15629811584949493, -0.35511815547943115, 1.302402138710022, -0.39311471581459045, 0.3231726586818695, -0.15120960772037506, -0.4882143437862396, -0.06860358268022537, 0.688320517539978, -0.6345303654670715, -1.5314452648162842], "2_bias": [0.28091853857040405, 0.2175835818052292, 0.23540650308132172]}