{"triplane_resolution": 4096, "triplane_voxel_size": 0.0009765625, "sparse_grid_resolution": 512, "sparse_grid_voxel_size": 0.0078125, "range_features": [-7.0, 7.0], "range_density": [-14.0, 14.0], "data_block_size": 16, "atlas_width": 1173, "atlas_height": 374, "atlas_depth": 17, "num_slices": 17, "slice_depth": 1, "0_weights": [[1.846240758895874, -0.6217377185821533, -2.993440628051758, -3.111687421798706, 1.7758209705352783, 3.894465208053589, -0.10065516084432602, -0.0053029716946184635, -0.847196102142334, 0.9598360657691956, -0.1878097653388977, -0.05456630513072014, 0.7395206093788147, -0.8634531497955322, 2.1316699981689453, -0.33215150237083435], [0.9233081340789795, 1.4065479040145874, 0.635273814201355, 0.015065819025039673, 1.6208256483078003, -2.8752362728118896, -0.20197659730911255, -0.6146212816238403, 4.537293910980225, -2.2957069873809814, -0.0686948299407959, 5.305211067199707, 0.39627605676651, 4.181906700134277, -0.9421839714050293, 2.8488481044769287], [1.6461713314056396, -3.773576259613037, 5.6094889640808105, 3.7396695613861084, 2.030158042907715, 1.7799283266067505, -0.155402272939682, 4.072157382965088, -1.9996939897537231, 2.2910783290863037, -0.1548834890127182, -9.365937232971191, -1.0184178352355957, -2.437432050704956, -4.334692001342773, -4.547054767608643], [0.15419550240039825, -0.6706119775772095, -0.19021762907505035, 0.22482210397720337, 0.37702488899230957, 0.14885537326335907, -0.3201049268245697, 0.02890888601541519, 0.5304426550865173, -0.20688274502754211, -0.01488089095801115, -0.22157303988933563, -5.850760459899902, 0.1586967557668686, -0.33269643783569336, -0.1337701380252838], [-0.14831040799617767, -0.5837290287017822, -0.31510984897613525, 0.0873372033238411, 0.2303065061569214, 0.1836393177509308, -0.3542768061161041, -0.032433222979307175, 0.2326333224773407, -0.2646850347518921, -0.14240972697734833, -0.2904616892337799, -6.192215919494629, 0.3575614094734192, -0.4699564278125763, 0.07873941957950592], [-0.06907349824905396, -0.6074643731117249, -0.29388192296028137, 0.17203760147094727, 0.06715593487024307, 0.3039453327655792, -0.40243399143218994, 0.12554021179676056, 0.29988667368888855, -0.15267446637153625, -0.21848097443580627, -0.27152231335639954, -5.8725361824035645, 0.0868021622300148, -0.33802661299705505, -0.1839873343706131], [-0.3243183195590973, -0.8224405646324158, -0.42607778310775757, 0.15120992064476013, -0.30919042229652405, -0.5466796159744263, -0.4426104724407196, -0.707373857498169, 0.20573736727237701, -0.6907662749290466, -0.20517486333847046, -0.4020695090293884, -6.064023017883301, 0.3710496127605438, -0.24332578480243683, -0.050668831914663315], [-0.07048758119344711, -0.14356456696987152, -0.02808372676372528, 0.032405346632003784, 0.006820993963629007, -0.08843281865119934, -0.050499074161052704, 0.03186514601111412, -0.6844061017036438, 0.1746799796819687, -0.02232622355222702, -0.019257089123129845, 0.12371478974819183, -0.2850523889064789, 0.008115099743008614, 0.32208433747291565], [0.1287526786327362, 0.32943257689476013, -0.07527682930231094, 0.07146039605140686, -0.8336174488067627, -0.0743107795715332, -0.1156960129737854, -0.2784281075000763, -0.5253187417984009, 0.13730771839618683, -0.03450819477438927, 0.16933202743530273, 0.043307822197675705, -0.44674691557884216, 0.10236598551273346, -0.44045892357826233], [0.04831017553806305, -0.21309985220432281, 0.021584918722510338, 0.2799665331840515, 0.23941561579704285, 0.0448782704770565, 0.08151229470968246, -0.2419775426387787, 1.0221611261367798, -0.15311427414417267, -0.06005087494850159, 0.0014479883247986436, -0.12564615905284882, 0.7051815986633301, 0.06825641542673111, -0.039578892290592194], [-0.12787841260433197, -0.2932921350002289, -0.2619095742702484, 0.12258387356996536, 0.03674335405230522, 0.14571212232112885, 0.005836417432874441, 0.26461881399154663, -0.49504345655441284, 0.008839301764965057, -0.023738525807857513, 0.20388855040073395, -0.09147772938013077, -0.45782095193862915, 0.2387486696243286, 0.3471697270870209], [0.3130728304386139, 0.39616039395332336, -0.23213699460029602, -0.008184801787137985, -0.6633256673812866, -0.03500858694314957, -0.00019818685541395098, 0.0878419280052185, -0.3292407691478729, -0.020062677562236786, -0.06923525035381317, -0.0212794691324234, 0.0647987648844719, -0.371218204498291, 0.004309310112148523, -0.5195498466491699], [0.1593378186225891, -0.4148680865764618, 0.07904485613107681, 0.24070967733860016, 0.07064060121774673, -0.12262565642595291, -0.02530650980770588, -0.4593794047832489, 0.5856269598007202, -0.43269044160842896, 0.10852459073066711, -0.1225740909576416, 0.09255553781986237, 0.7085983753204346, -0.07106710225343704, -0.1350395232439041], [0.11224624514579773, -0.3040526509284973, -0.5589251518249512, -0.1006169468164444, -0.10328067094087601, 0.07826413959264755, -0.009946069680154324, 0.11358030885457993, -0.1869269609451294, -0.06011776998639107, -0.05207182466983795, -0.056537386029958725, -0.08936314284801483, -0.49984896183013916, 0.1335284262895584, 0.19733896851539612], [0.5178422927856445, 0.1552959382534027, -0.3684316873550415, -0.06650722026824951, -0.07968267053365707, 0.044535961002111435, 0.025768999010324478, 0.187895730137825, -0.14104525744915009, -0.08193717151880264, -0.00025311269564554095, 0.08360409736633301, 0.007074194028973579, 0.36311206221580505, -0.17691732943058014, -0.4616800844669342], [-0.1261495053768158, -0.39305049180984497, 0.1756020188331604, 0.03557480871677399, -0.07554847002029419, -0.14140349626541138, 0.10060714185237885, -0.36512964963912964, 0.3909507989883423, -0.2844160497188568, 0.16374212503433228, 0.031592752784490585, 0.13002432882785797, 0.6851058602333069, 0.027685437351465225, -0.23677882552146912], [-0.06610313802957535, 0.4979977309703827, 0.16594739258289337, 0.02498735673725605, 0.08333675563335419, -0.005964298732578754, -0.03582041338086128, -0.03988534212112427, -0.015848955139517784, 0.0385688878595829, 0.0939721167087555, -0.02158757671713829, 0.0720868781208992, 0.10616249591112137, -0.07407387346029282, -0.1705639362335205], [-0.05524804815649986, 0.04391159117221832, 0.078956238925457, 0.02705797553062439, -0.019895698875188828, 0.03443322703242302, -0.05015360563993454, 0.04743209481239319, 0.0491730198264122, 0.07837987691164017, -0.05090963840484619, -0.04022716358304024, 0.07030826061964035, -0.15661586821079254, 0.09308946877717972, -0.2602123022079468], [0.1999419629573822, -0.5212339162826538, 0.32360973954200745, -0.09072484821081161, -0.1309310644865036, 0.3341250717639923, 0.0476405955851078, 0.3269444704055786, -0.840390145778656, -0.4916919767856598, 0.05446818470954895, -0.035448867827653885, 0.0005552086513489485, 0.9812559485435486, -0.25487425923347473, -0.0650901272892952], [0.008154266513884068, 0.0661238357424736, -0.05099143460392952, 0.0016506174579262733, -0.008316013030707836, 0.009509952738881111, 0.10480903834104538, 0.017237095162272453, 0.007464516907930374, 0.015048285014927387, 0.016100678592920303, 0.013050544075667858, 0.016271065920591354, -0.05347840487957001, 0.02913612499833107, -0.020599350333213806], [-0.0168593917042017, 0.011901169084012508, -0.08532668650150299, -1.0720884347392712e-05, -0.0030338310170918703, 0.020259737968444824, -0.015219636261463165, 0.008063222281634808, -0.07121880352497101, -0.045883167535066605, -0.03951301798224449, 0.024705776944756508, -0.011190374381840229, -0.05242311209440231, -0.02278817631304264, 0.0811987891793251], [-0.04566303640604019, 0.0009697655332274735, -0.7434758543968201, -0.025412507355213165, -0.058557573705911636, -0.0492158979177475, -0.06523764878511429, 0.08190274238586426, -0.9525507092475891, 0.5508109927177429, -0.06222524493932724, -0.023563183844089508, -0.012843307107686996, -1.547481894493103, 0.03594820573925972, -0.8313645720481873], [0.1565721184015274, 0.2208137810230255, 0.4152507185935974, -0.011086414568126202, -0.22870135307312012, -0.13843949139118195, -0.1701599508523941, 0.22667905688285828, 0.11386939883232117, 0.10568045824766159, -0.26167231798171997, 0.23129089176654816, 0.19492559134960175, 0.11573164910078049, 0.4150545001029968, -0.3131795823574066], [-0.13040952384471893, 0.4074251353740692, 0.36193323135375977, -0.2052786648273468, -0.07318034023046494, 0.004189521074295044, -0.1159108355641365, -0.055571459233760834, -0.32952404022216797, 0.3907243311405182, 0.029034053906798363, 0.21175487339496613, 0.23592862486839294, -0.4880400002002716, 0.413782000541687, -0.039516761898994446], [0.3207804560661316, 0.2413301318883896, 0.5528476238250732, -0.32345014810562134, -0.011273832991719246, 0.11952035874128342, -0.12892407178878784, 0.13433095812797546, 0.33125075697898865, 0.39259034395217896, -0.1879933923482895, 0.3666668236255646, 0.3906790316104889, 0.16751906275749207, 0.41891714930534363, -0.1258224993944168], [0.18977276980876923, 0.29375752806663513, 0.5338076949119568, 0.04842822626233101, -0.8445789813995361, 0.1290316879749298, -0.03739073500037193, 0.23788703978061676, 0.32693734765052795, -0.4602883458137512, -0.18721120059490204, 0.22627697885036469, 0.5334994792938232, 0.8218275904655457, 0.6290963888168335, -0.16595137119293213], [-0.6199044585227966, 0.2199520319700241, 0.054011475294828415, -0.02669241465628147, 0.43882763385772705, -0.040878959000110626, 0.014704261906445026, 0.1492396593093872, -1.0650891065597534, 0.6653117537498474, -0.010619597509503365, -0.1390269696712494, 0.3682790696620941, -1.6969177722930908, 0.26175856590270996, -0.023504702374339104], [0.35721850395202637, 0.17926958203315735, 1.6482183933258057, -0.09728896617889404, -0.6045016050338745, -0.1430058777332306, -0.1669817566871643, -0.13406290113925934, 1.4654184579849243, 0.7085888385772705, -0.1187654361128807, 0.3787180483341217, 0.6108781695365906, 1.5785636901855469, -0.9407296180725098, -0.9704128503799438], [-0.17302216589450836, -0.31543290615081787, -0.12287084013223648, -0.024160658940672874, 0.3804013133049011, -0.10353776812553406, 0.011479401960968971, -0.09050958603620529, -0.14542436599731445, 0.4383847415447235, 0.04281254857778549, -0.11953210085630417, -0.14446520805358887, -0.7831071019172668, -0.15225663781166077, 0.11036770045757294], [0.08871709555387497, -0.24518878757953644, 0.13671351969242096, 0.031501464545726776, -0.10049998015165329, 0.08534188568592072, -0.014024936594069004, 2.2289515982265584e-05, 0.40839940309524536, -0.5068913698196411, -0.04401405528187752, 0.04767968878149986, -0.04512055963277817, 0.9361628293991089, -0.09896772354841232, 0.13205383718013763], [-0.03847965970635414, -0.5385921597480774, 0.5584046840667725, -0.12625819444656372, -0.2558533549308777, -0.07707372307777405, 0.054494790732860565, -0.5905125737190247, 0.8585077524185181, -0.43966245651245117, 0.15128932893276215, -0.040927622467279434, -0.1711999475955963, 1.1491823196411133, -0.817801833152771, -0.4828703701496124], [-0.0005844147526659071, 0.15453359484672546, -0.08562742173671722, 0.0044106896966695786, -0.048986297100782394, 0.024337494745850563, 0.030825922265648842, 0.022132256999611855, -0.09479974955320358, -0.04490033909678459, -0.1256793886423111, 0.024775099009275436, 0.01952616311609745, -0.022432498633861542, 0.021357297897338867, -0.04261793941259384], [-0.09675810486078262, 0.045761335641145706, -0.08804944157600403, -0.0010197199881076813, 0.09109081327915192, -0.003925621509552002, -0.03866347298026085, -0.0027800491079688072, -0.14180508255958557, 0.04079444706439972, -0.03869839757680893, -0.0025820909067988396, 0.018769685178995132, -0.20267383754253387, 0.02296421490609646, 0.07785344868898392], [-0.12155929952859879, 0.4885118901729584, -0.11590113490819931, 0.01607857644557953, 0.08948256075382233, -0.014527366496622562, -0.0033932861406356096, 0.36946985125541687, 0.3431611955165863, 0.04824499413371086, 0.009409263730049133, 0.012254724279046059, -0.005721048917621374, -0.35841116309165955, 0.12854225933551788, 0.28079959750175476]], "1_weights": [[0.36757755279541016, 0.054183464497327805, 0.04273589700460434, -0.07787061482667923, 0.21447086334228516, 0.215195432305336, 0.10181477665901184, -0.4511461853981018, 0.4674370288848877, 0.7901442050933838, -0.1507146954536438, -0.3407208323478699, -0.04851371422410011, -0.017174124717712402, 0.2603381872177124, 0.42035964131355286], [0.15100330114364624, -0.07226722687482834, -0.8501327633857727, -0.11468946933746338, -0.47112366557121277, -0.04526391997933388, 0.193144753575325, 0.02640608698129654, -2.35821533203125, 0.6336105465888977, -0.21376068890094757, 0.021872634068131447, -0.27391886711120605, 0.3485613167285919, 0.311286062002182, 0.23902247846126556], [-0.0617472305893898, 0.21135008335113525, -0.5521198511123657, 0.4905049800872803, -0.7203074097633362, -0.0638665109872818, 0.28082355856895447, -0.2403344362974167, -0.21835505962371826, 1.2157193422317505, 0.6781604886054993, -0.1336282342672348, -0.4176689088344574, 0.21782085299491882, 0.1469821184873581, 0.06574608385562897], [1.794012427330017, -0.6515300273895264, 1.4915363788604736, -0.437762051820755, 1.2438499927520752, -3.152987241744995, 3.5301969051361084, -11.900263786315918, 0.4762267768383026, 0.2083076387643814, -3.4890849590301514, -1.2569446563720703, -1.4279247522354126, -2.963517189025879, 1.2033439874649048, -2.5538272857666016], [0.2169259935617447, 0.14672601222991943, 0.9673827290534973, 0.10593969374895096, 0.04220949113368988, 0.13581685721874237, -0.027668802067637444, -0.5976110100746155, 0.44566038250923157, -0.28090640902519226, -0.19740742444992065, 0.004041164182126522, 0.4067195653915405, -0.6350248456001282, -0.004468579776585102, 0.44936323165893555], [0.0426178053021431, -0.4134417176246643, -1.0519661903381348, -0.1851789653301239, -0.3434763550758362, 0.7407709360122681, -0.6552585959434509, -1.2344615459442139, -0.8110181093215942, 0.7940808534622192, 0.3554103672504425, 0.18541407585144043, 0.8020055294036865, -0.324686735868454, 0.2521670460700989, -0.33819976449012756], [0.09175951778888702, -0.035064131021499634, -0.28472185134887695, 0.14174169301986694, -0.04412155598402023, 0.09694651514291763, 0.13694944977760315, 0.09097252041101456, 0.41730037331581116, 0.7606382369995117, -0.0773179903626442, 0.08379077911376953, 0.10487888753414154, 0.04800979048013687, 0.006471886765211821, -1.8498029708862305], [-1.057425856590271, 0.5342598557472229, -0.5373754501342773, 0.7898288369178772, 0.5409805774688721, -0.2749332785606384, -0.2671232223510742, -0.6776958107948303, 0.6965320706367493, -1.9943904876708984, 0.28146448731422424, -0.8483202457427979, 0.08145574480295181, -0.09078700095415115, -0.7753463387489319, 0.6866979598999023], [0.4506223797798157, -0.10767793655395508, -0.09456344693899155, -0.17307735979557037, 0.43715617060661316, 0.10669591277837753, -0.6092278957366943, 0.03919965773820877, 0.1483493447303772, 0.2783028483390808, -0.619637668132782, -0.03027006797492504, 0.07605218142271042, -0.4959229826927185, 0.09141921997070312, 0.41681236028671265], [-0.7874672412872314, -0.1346728503704071, -0.5780816078186035, -0.1035078763961792, -0.0540715791285038, 0.2715235650539398, -0.11560052633285522, -0.4113389849662781, -0.4844476878643036, -1.466352939605713, 0.013717841356992722, 0.563321053981781, 0.040783341974020004, 0.5680580139160156, -0.3298380374908447, -0.026118000969290733], [-0.1363304853439331, -0.055278901010751724, 0.19970230758190155, -0.05804887413978577, 0.13603061437606812, -0.16604094207286835, 0.09893418103456497, -0.047937437891960144, -0.041255105286836624, -0.07684662193059921, -0.08347918093204498, -0.062265537679195404, -0.23389780521392822, 0.05450340732932091, 0.18424533307552338, 0.03645208477973938], [2.039963722229004, 0.8872449994087219, -0.10126867145299911, -4.153337001800537, 2.2880804538726807, 1.9552639722824097, -0.6024039387702942, 0.6412391066551208, 0.06273829191923141, 2.012126922607422, -0.36304938793182373, 0.7572619318962097, 1.5205410718917847, -0.05212434381246567, 1.175676941871643, 1.688857913017273], [-1.616325855255127, -4.184765338897705, -3.952348470687866, 1.2779496908187866, 1.9392551183700562, 2.5692684650421143, 1.9928901195526123, -3.3549976348876953, 5.812646865844727, -2.9206762313842773, 0.9064528942108154, -3.8872156143188477, 1.0462032556533813, -5.262836456298828, -1.9479069709777832, 2.063401937484741], [-0.4713844358921051, -0.05431738868355751, -0.23855197429656982, -0.0768231749534607, -5.259905815124512, -0.033906713128089905, 0.290558785200119, 0.05948400869965553, -0.004306923132389784, -1.552002191543579, 0.010644800961017609, 0.29910388588905334, 0.5471287369728088, -3.4535858631134033, -4.0108466148376465, -0.3627222776412964], [1.4625325202941895, -0.26815736293792725, 0.06673570722341537, -0.19441987574100494, -0.36970099806785583, 0.015471952967345715, 0.4595485031604767, 1.1496822834014893, -0.101810522377491, -0.5118231177330017, 0.1587151288986206, -0.7313728928565979, 0.4062691330909729, 0.09083305299282074, -0.4950786530971527, -0.996073842048645], [-0.39343175292015076, 0.17471034824848175, -0.31373319029808044, 0.24258750677108765, 0.3541029989719391, 0.3725542426109314, 0.716674268245697, 0.013624755665659904, 0.5736579298973083, -0.36451467871665955, 1.2123231887817383, -0.49563807249069214, -0.8358808159828186, -0.21842822432518005, -0.19860875606536865, -0.2970847189426422]], "2_weights": [[0.8245911598205566, 0.6780401468276978, 0.5940534472465515], [0.3954433500766754, -0.23981286585330963, 0.24184872210025787], [1.5762882232666016, 1.4053983688354492, 1.6117905378341675], [-0.1408548206090927, -0.09177317470312119, -0.5293897986412048], [-0.3515247702598572, -0.5035945177078247, -0.525763213634491], [-0.5198430418968201, -0.012618078850209713, 0.2448468804359436], [-0.5076202154159546, -0.650475800037384, -0.6922801733016968], [-0.7251656651496887, -0.5204692482948303, -0.5768681168556213], [-0.4667125642299652, -1.9948060512542725, -2.7420382499694824], [-0.399488240480423, -0.4483252763748169, -0.571409285068512], [-0.45314687490463257, -0.31944000720977783, -0.3541315495967865], [1.4943326711654663, 1.4838565587997437, 1.1162536144256592], [-0.4223465919494629, -0.4179328680038452, -0.41670605540275574], [-0.2286197543144226, -0.26108118891716003, -0.34626707434654236], [0.6863619685173035, 0.8430446982383728, 1.0413272380828857], [-0.45644521713256836, -0.4307253062725067, -0.28936874866485596]], "0_bias": [-0.048392992466688156, 0.17263804376125336, 0.4381704032421112, -0.18724071979522705, 0.008317693136632442, -0.05566759407520294, -0.07668143510818481, 0.13063086569309235, 0.08167777210474014, 0.08503798395395279, -0.01205061562359333, 0.25842946767807007, 0.24718160927295685, -0.04077818617224693, 0.39449816942214966, -0.3064855933189392], "1_bias": [-0.3338124454021454, 0.2258719652891159, 0.8376248478889465, -0.2610315680503845, -0.5261902809143066, -1.0020848512649536, -0.8700331449508667, 0.7695629596710205, -1.8193151950836182, 0.5379028916358948, 0.5556055903434753, -0.5971052050590515, 0.5964013934135437, 0.590465784072876, -0.17568299174308777, -0.6831048130989075], "2_bias": [-0.22902894020080566, -0.14650192856788635, -0.26503440737724304]}