{"triplane_resolution": 4096, "triplane_voxel_size": 0.0009765625, "sparse_grid_resolution": 512, "sparse_grid_voxel_size": 0.0078125, "range_features": [-7.0, 7.0], "range_density": [-14.0, 14.0], "data_block_size": 8, "atlas_width": 1503, "atlas_height": 270, "atlas_depth": 9, "num_slices": 9, "slice_depth": 1, "0_weights": [[3.5347747802734375, 2.6459407806396484, -0.282522976398468, -2.798088788986206, 1.9538304805755615, -0.9476078748703003, 0.6676733493804932, 0.38945332169532776, 0.6993069052696228, -3.2128446102142334, 2.157055377960205, -2.0179951190948486, -0.10095618665218353, 1.5129239559173584, -1.313646674156189, 3.452000856399536], [-0.8818538784980774, 4.161774635314941, 1.5310451984405518, 2.1199951171875, 0.33457911014556885, 2.767094612121582, -1.7624115943908691, 1.5134745836257935, 3.651625633239746, -2.7294185161590576, 1.452703595161438, 3.645796537399292, 1.0481762886047363, 0.3006795644760132, 1.4705103635787964, -3.7649173736572266], [0.6914594769477844, 3.8814053535461426, 0.8385037183761597, 2.7902841567993164, -6.029915809631348, -1.8644071817398071, 1.8944884538650513, 1.1414738893508911, 2.805058240890503, -8.371749877929688, 0.39020198583602905, -0.7222967147827148, 1.104790210723877, 0.513046383857727, 3.2544972896575928, 0.8364143967628479], [0.883470356464386, 1.1042256355285645, -1.153396487236023, -1.1590080261230469, -0.6979393362998962, 0.09494074434041977, 0.6574192047119141, -0.9784894585609436, -0.18520648777484894, -0.9688379168510437, -0.3888179063796997, 0.9246916770935059, 1.9416718482971191, -1.3648051023483276, -0.07206927239894867, -0.1609712690114975], [-0.6046120524406433, -0.15264731645584106, 0.5146021246910095, -0.4944189488887787, 0.36113330721855164, -0.5635877251625061, -0.19089242815971375, -1.5057239532470703, -0.4041702151298523, 0.3818248510360718, -1.0060131549835205, 0.1922030746936798, 0.0045781489461660385, -0.054866060614585876, -1.5622029304504395, -0.48052409291267395], [-0.5908785462379456, -0.05763639509677887, 0.17677874863147736, -0.387619286775589, 0.16799543797969818, -0.5867836475372314, -0.09292008727788925, -1.4699565172195435, -0.12276885658502579, 0.44867122173309326, -0.9237467050552368, -0.027312641963362694, -0.10393853485584259, 0.18189512193202972, -1.7117995023727417, -0.45513424277305603], [-0.7568620443344116, -0.1779382824897766, 0.09372687339782715, -0.3077971637248993, 0.4166288375854492, -0.5610740780830383, -0.11366086453199387, -1.3903356790542603, -0.07924976944923401, 0.2337300181388855, -0.6285128593444824, 0.18875564634799957, -0.09794992953538895, 0.08724822849035263, -1.7836003303527832, -0.22108249366283417], [0.00023316490114666522, -0.1047821193933487, -0.3048795759677887, -0.046496354043483734, -0.1662304401397705, 0.2701314687728882, 0.022970549762248993, -0.16734901070594788, -0.2078918218612671, -0.24419879913330078, -0.1624356061220169, -0.16478224098682404, 0.20341238379478455, 0.09311194717884064, 0.06666397303342819, -0.10930150002241135], [0.02402191050350666, 0.09328144788742065, 0.11158636957406998, 0.054442793130874634, -1.1189391613006592, 0.10844174772500992, -0.06381303071975708, -0.3441857695579529, 0.05643360689282417, -0.26178985834121704, 0.4996742010116577, -0.08664175122976303, 0.1806589663028717, -0.10067951679229736, -0.16396267712116241, 0.044559214264154434], [-0.11106850206851959, 0.29717686772346497, -0.4371909201145172, -0.039586130529642105, 0.1174410805106163, -0.30933019518852234, -0.5373830795288086, -0.24340632557868958, 0.1126718744635582, -0.14142419397830963, -0.11870763450860977, -0.012390595860779285, -0.10733386129140854, -0.44321408867836, -0.1127384677529335, -0.06907971948385239], [0.04321789741516113, 0.014109103940427303, -0.09149526804685593, 0.15669697523117065, -0.044613033533096313, 0.24294917285442352, -0.10421792417764664, -0.15209294855594635, -0.0389007106423378, -0.19437696039676666, -0.036577749997377396, -0.016356464475393295, 0.13296951353549957, 0.07340321689844131, 0.12758274376392365, -0.024645594879984856], [-0.07535360753536224, -0.06364546716213226, 0.30282285809516907, -0.21633073687553406, -0.8806994557380676, 0.0011127208126708865, 0.20229393243789673, -0.12128295749425888, 0.03642820194363594, -0.2003067433834076, 0.6914961338043213, 0.00960012711584568, 0.061983052641153336, -0.01777920499444008, -0.05837666243314743, 0.023735305294394493], [0.10160677134990692, 0.23932874202728271, -0.5840962529182434, -0.1663612276315689, 0.18385909497737885, -0.09169850498437881, -0.4090353548526764, -0.3311556577682495, 0.13828085362911224, -0.2098022848367691, -0.027191318571567535, -0.2970471978187561, -0.16939617693424225, -0.2250836193561554, 0.12850092351436615, -0.07023705542087555], [-0.09888140857219696, -0.11017961800098419, -0.2171485871076584, 0.15324167907238007, -0.5175546407699585, 0.12563475966453552, -0.16268442571163177, -0.3382245600223541, -0.04588007926940918, -0.2739112079143524, 0.006222424563020468, -0.01739984005689621, 0.06615269929170609, 0.21766027808189392, 0.19579127430915833, -0.04241592064499855], [0.02587982825934887, 0.06888078898191452, 0.0663546547293663, 0.13115166127681732, -0.7407944798469543, -0.1516471803188324, -0.026009585708379745, -0.23963859677314758, 0.018938565626740456, -0.30416959524154663, 0.36514678597450256, -0.024503642693161964, -0.15321287512779236, -0.015119473449885845, 0.10935840010643005, 0.04707903414964676], [-0.1556949019432068, 0.026243088766932487, -0.5276584625244141, -0.1533096730709076, -0.20979289710521698, 0.040199097245931625, -0.48699986934661865, -0.28397583961486816, 0.32617583870887756, -0.21224918961524963, -0.1363101303577423, -0.16848666965961456, -0.02402338758111, -0.08902629464864731, -0.0483255535364151, -0.17498530447483063], [0.02710900455713272, 0.06039312854409218, 0.15119299292564392, -0.027053354308009148, 0.19517773389816284, 0.1888820379972458, 0.13732220232486725, 0.09535904228687286, 0.04733899235725403, -0.3735644519329071, 0.08751717954874039, 0.009546051733195782, -0.17929111421108246, 0.07306361943483353, 0.004998515360057354, 0.027598850429058075], [0.006731976754963398, -0.11069536954164505, -0.27885717153549194, -0.015833059325814247, 0.496702641248703, 0.03485949710011482, 0.08442703634500504, -0.2810678482055664, 0.027198847383260727, 0.8263870477676392, 0.1090729609131813, 0.1240655854344368, 0.09530287981033325, 0.11737768352031708, -0.03381490334868431, -0.0041631851345300674], [0.023986026644706726, 0.012225116603076458, 0.10982891917228699, 0.15762323141098022, -0.538332998752594, 0.08795985579490662, 0.23761221766471863, 0.47545844316482544, -0.08987786620855331, -0.443044513463974, -0.2838042974472046, 0.1533978283405304, 0.5468161106109619, 0.7115022540092468, -0.29196229577064514, 0.20447763800621033], [-0.013875412754714489, -0.012271464802324772, -0.005872132256627083, 0.0038649174384772778, -0.1585325300693512, -0.04329055920243263, -0.019572705030441284, 0.08160311728715897, -0.020355788990855217, 0.1383928656578064, -0.07145200669765472, 0.010680240578949451, 0.0399952195584774, -0.06347688287496567, -0.03674544766545296, -0.0036643282510340214], [0.005674550775438547, 0.029739439487457275, 0.08972784876823425, -0.00663836719468236, 0.028636252507567406, 0.018721984699368477, -0.04606059566140175, 0.02785516530275345, -0.007505296729505062, -0.23332515358924866, 0.055777657777071, -0.04904332384467125, 0.02489449642598629, -0.03671052306890488, 0.010262768715620041, 0.018112173303961754], [-0.024007396772503853, 0.05467165261507034, -0.25735533237457275, 0.0884278416633606, -0.07913731783628464, 0.19604888558387756, 0.27570149302482605, -0.328639954328537, 0.02968154102563858, -0.24927696585655212, -0.3028886914253235, 0.026809481903910637, -0.17535819113254547, -0.23110783100128174, 0.24041810631752014, -0.0904763713479042], [-0.023458126932382584, -0.08200836926698685, 0.5776009559631348, 0.11084017157554626, -0.4089599847793579, 0.28437143564224243, 0.4474142789840698, 0.34936758875846863, -0.16243243217468262, 0.06306708604097366, 0.10222093015909195, -0.05150488018989563, 0.2661791145801544, 0.22682322561740875, 0.6445311307907104, 0.013239526189863682], [0.18983842432498932, -0.14375215768814087, 0.6120330691337585, -0.028615286573767662, -0.8846901655197144, 0.42296987771987915, 0.3848920464515686, 0.33085811138153076, -0.1917157918214798, 0.23171038925647736, 0.288534551858902, 0.12225090712308884, 0.25739288330078125, -0.10724195837974548, 0.4083787500858307, 0.3539198935031891], [-0.015283272601664066, -0.0369437001645565, 0.7584480047225952, 0.1417783796787262, -0.3587295711040497, 0.23333631455898285, 0.27568933367729187, 0.503158688545227, -0.2812449336051941, 0.33596906065940857, 0.4038040339946747, 0.15789735317230225, 0.15467886626720428, 0.01238474901765585, 0.7326944470405579, 0.23868100345134735], [-0.14180433750152588, -0.21635645627975464, 0.40630096197128296, 0.28163662552833557, 0.10959724336862564, -0.057884421199560165, 0.028895102441310883, -0.15501494705677032, -0.45123448967933655, 0.12590132653713226, 0.17533934116363525, -0.02832002565264702, 0.15902580320835114, 0.2598957121372223, 0.7139512300491333, -0.19522880017757416], [0.06038505956530571, -0.07381419837474823, 0.6539997458457947, -0.11783476918935776, -1.2672077417373657, 0.4060676693916321, 0.10825616121292114, 0.7541378140449524, 0.03794724866747856, 0.2920801639556885, 0.21537074446678162, 0.06673163920640945, 0.31882426142692566, -0.1860596090555191, -0.14940963685512543, 0.2538492977619171], [0.14786681532859802, -0.6354840397834778, 1.1832144260406494, 0.7387962937355042, -0.051616374403238297, 0.7372507452964783, 1.101918339729309, 0.6343053579330444, -0.4950461685657501, 0.02498897910118103, 0.46604597568511963, 0.41316497325897217, 0.24311472475528717, 0.993853747844696, 1.5877749919891357, 0.4387637972831726], [0.0705767497420311, 0.04115665331482887, -0.1492648720741272, -0.08201070129871368, -0.6726462244987488, 0.24879223108291626, -0.5415116548538208, 0.5751407146453857, 0.06199025362730026, 0.05516635626554489, -0.6308982968330383, -0.031435899436473846, 0.42806532979011536, 0.33756616711616516, -0.4561525285243988, 0.1620325744152069], [-0.03240448981523514, 0.003401402151212096, -0.2793700695037842, 0.08522552996873856, 0.9179036021232605, -0.01893945224583149, -0.2920703887939453, 0.07656679302453995, -0.05896914377808571, 0.10507693886756897, -0.3701706528663635, -0.05970262736082077, 0.11124894767999649, 0.3918324410915375, 0.21920205652713776, -0.13382472097873688], [-0.014300315640866756, 0.07084409892559052, -0.20991843938827515, -0.11354868859052658, 0.27670690417289734, 0.10109183192253113, 0.04775861278176308, -0.227268785238266, -0.027931174263358116, -0.2803288996219635, 0.17034409940242767, -0.050410300493240356, -0.056245870888233185, 0.10890526324510574, -0.20513325929641724, -0.006056921556591988], [-0.008492556400597095, -0.02741510048508644, -0.015028523281216621, 0.008308140560984612, -0.0032792300917208195, 0.019584205001592636, 0.051009275019168854, -0.14982570707798004, 0.002987049985677004, 0.11592226475477219, 0.0407397598028183, 0.02105848677456379, -0.007308639585971832, -0.038699496537446976, 0.08419761806726456, -0.018327170982956886], [-0.007513352669775486, 0.021897677332162857, 0.07147438079118729, -0.009058480150997639, -0.19891470670700073, -0.0140303336083889, 0.058458782732486725, 0.13397268950939178, -0.0011975211091339588, 0.012256483547389507, -0.024531982839107513, 0.0025674200151115656, -0.05390533059835434, -0.07151999324560165, 0.030785594135522842, -0.007215311285108328], [-0.0501231886446476, -0.038949962705373764, -0.01965724304318428, -0.03963519260287285, 0.2110951989889145, 0.08327975124120712, -0.06305431574583054, 0.3321269750595093, 0.002257788321003318, -0.11212729662656784, -0.3554956316947937, -0.05102841183543205, 0.1123410165309906, -0.6369776725769043, 0.026149459183216095, -0.03037693351507187]], "1_weights": [[0.02443801984190941, -2.143435478210449, -0.26751023530960083, -0.9240383505821228, -0.08730357140302658, -0.6921169757843018, -0.4853358864784241, 0.1770641803741455, -1.3644925355911255, -0.07532858103513718, -0.39142945408821106, -0.3504588305950165, -0.19955290853977203, -0.22092300653457642, -1.3242294788360596, -0.14208362996578217], [0.1413661688566208, 0.8751063346862793, -0.026065118610858917, -0.15245918929576874, -0.22606457769870758, -1.5408977270126343, 0.9500924348831177, 0.053350649774074554, -0.5770564079284668, -0.31157857179641724, -0.07892157137393951, -0.2817640006542206, -0.0454995222389698, 0.07441388815641403, -1.669323205947876, -0.002084406791254878], [-0.06678986549377441, -0.311824768781662, -0.10206827521324158, 0.17495039105415344, -0.11471351981163025, 0.6626770496368408, 0.07661302387714386, -0.25509536266326904, 0.3952134847640991, -0.03414405137300491, -0.10105592012405396, -0.015267291106283665, 0.11324309557676315, -0.07889428734779358, 0.4977380931377411, -0.3304865062236786], [-0.33886316418647766, -1.5227818489074707, -0.2611808180809021, -0.20749065279960632, 0.029723256826400757, 0.16158519685268402, 0.7770993113517761, 0.10679693520069122, 0.2857361137866974, -0.0032101969700306654, 0.08542776107788086, 0.08944286406040192, -0.3181433379650116, 0.04027848318219185, 0.9862834215164185, 0.045339107513427734], [-0.22586913406848907, 0.8112484812736511, 0.07353929430246353, -0.1337849497795105, -0.3302348256111145, 0.4976442754268646, 0.08123133331537247, -0.16950000822544098, 0.18126675486564636, -0.34079882502555847, -0.21375657618045807, -0.11680847406387329, -0.09958284348249435, -0.20961108803749084, 0.2299976795911789, -0.15452152490615845], [-0.17516747117042542, -1.2149327993392944, -0.3226051330566406, 0.533064067363739, -0.009547398425638676, 0.40087512135505676, 0.0666327103972435, -0.10386089980602264, 0.5672451257705688, -0.07150426506996155, -0.15001903474330902, -0.16815218329429626, -0.08891109377145767, -0.16879886388778687, 0.07246209681034088, -0.3004085123538971], [-0.4167531132698059, -2.939920663833618, 0.08007314801216125, -0.3008580207824707, -0.2460203468799591, 0.5284633636474609, -1.042453646659851, -0.1818111687898636, 0.060287028551101685, -0.16983328759670258, -0.16900138556957245, -0.06308392435312271, -0.318833589553833, -0.21092155575752258, 0.28845980763435364, -0.07688028365373611], [-0.2803213894367218, 0.9313214421272278, 0.11813773959875107, -1.096032977104187, -0.2033446580171585, 0.5518171787261963, 0.1950247585773468, -0.07273804396390915, 0.9150062799453735, -0.021023832261562347, -0.3854162395000458, -0.04721515253186226, 0.13003702461719513, -0.10576820373535156, 0.07121815532445908, 0.012139053083956242], [-0.3433179557323456, 1.772287368774414, -0.04320140928030014, 0.8090640902519226, 0.012493766844272614, 2.3938989639282227, -0.4055626690387726, 0.10234182327985764, 1.1577858924865723, 0.011378359980881214, -0.46773624420166016, -0.2569086253643036, -0.23210322856903076, -0.3458024561405182, 1.978069543838501, 0.10667141526937485], [-0.24546179175376892, 0.9382340312004089, 0.06344135105609894, -0.3565472662448883, 0.11681733280420303, -1.167881727218628, -0.14536689221858978, -0.02088083140552044, -0.4136670231819153, -0.36061057448387146, -0.38755542039871216, -0.2493617832660675, -0.132602721452713, -0.039436254650354385, -0.9283351302146912, -0.22313791513442993], [-0.3051016330718994, 0.38341087102890015, -0.31161928176879883, -0.13628777861595154, -0.15154927968978882, -0.35888585448265076, 0.40736496448516846, -0.11926404386758804, -0.014712005853652954, 0.1607130914926529, -0.034670036286115646, 0.039455804973840714, -0.0848783552646637, -0.035275898873806, -0.37827903032302856, -0.235438734292984], [-0.08113885670900345, -1.2343608140945435, -0.15201745927333832, 1.2061940431594849, -0.18404443562030792, -0.34180453419685364, 0.6568868160247803, 0.015622901730239391, -0.033333852887153625, 0.06464464962482452, -0.3869990110397339, -0.3012286424636841, -0.3570570945739746, -0.20616479218006134, -0.25185856223106384, -0.05111413449048996], [-0.22530776262283325, -0.059988051652908325, -0.0781397819519043, -0.35667315125465393, -0.3094184696674347, 0.3225090205669403, -0.2370210736989975, -0.0939965769648552, 0.2522958517074585, -0.037152331322431564, -0.41806480288505554, -0.2905940115451813, -0.3680473268032074, -0.13984118402004242, -0.03397264704108238, -0.03962946683168411], [-0.16816788911819458, -5.164132595062256, -0.2667059004306793, 0.10577558726072311, -0.20392638444900513, 0.3756135106086731, -0.20163318514823914, 0.15122954547405243, 0.03500651568174362, -0.3752160668373108, -0.06353375315666199, 0.06265478581190109, -0.08128093183040619, -0.15914519131183624, 0.3126195967197418, -0.014939985238015652], [0.1825137883424759, 0.21285207569599152, -0.2150263488292694, -1.0967414379119873, -0.28174832463264465, 0.7976217269897461, 0.04510188102722168, -0.3149992525577545, 1.1262495517730713, -0.15977519750595093, 0.05025334283709526, -0.2711370885372162, -0.005004714243113995, 0.0050838422030210495, 0.019068749621510506, 0.054267700761556625], [-0.17555175721645355, 1.915357232093811, -0.1441359966993332, 0.6913880109786987, -0.14116938412189484, 0.9514601826667786, -2.4402594566345215, -0.14809483289718628, -0.006924075074493885, -0.20511427521705627, -0.08170322328805923, -0.08331654965877533, -0.43184760212898254, 0.03519526869058609, 1.1826742887496948, -0.16534674167633057]], "2_weights": [[-0.2904297113418579, 0.061778172850608826, -0.07522205263376236], [4.865395545959473, 6.052324295043945, 7.405955791473389], [-0.28193435072898865, -0.00015734681801404804, 0.10621543228626251], [-0.215476393699646, -0.35643067955970764, -0.16476693749427795], [-0.08850977569818497, -0.15670672059059143, 0.09592146426439285], [-0.9264450073242188, -0.3052956759929657, -0.35841044783592224], [-0.9495914578437805, -0.9495025873184204, -1.1609218120574951], [-0.09621544182300568, 0.21847347915172577, 0.14804653823375702], [0.3750843405723572, -0.41168713569641113, -0.5290486216545105], [-0.11286265403032303, 0.09705102443695068, -0.025979449972510338], [0.04261597618460655, 0.08261115849018097, -0.12071644514799118], [-0.1458321362733841, 0.04105493426322937, -0.11424858868122101], [0.1509825736284256, 0.1827279031276703, 0.1921820342540741], [-0.008729822002351284, -0.05173611268401146, 0.15650051832199097], [1.0350661277770996, 0.6653119325637817, 0.7411092519760132], [0.0033417840022593737, -0.06946404278278351, 0.00581820635125041]], "0_bias": [0.24099627137184143, -0.13217566907405853, 0.7142752408981323, 0.29825475811958313, -0.4577431380748749, 0.1721225380897522, 0.3046942949295044, 0.43617892265319824, -0.21000878512859344, 0.3102084994316101, 0.25121742486953735, -0.017532769590616226, 0.29814934730529785, 0.12228011339902878, 0.7220455408096313, 0.2855871617794037], "1_bias": [0.06662894785404205, 3.8119564056396484, -0.16101522743701935, 0.46032750606536865, 0.038714583963155746, 0.9243963360786438, -0.5654926896095276, -0.1964164674282074, 0.32624539732933044, -0.12641270458698273, -0.09571638703346252, -0.2924858629703522, -0.04198544844985008, -0.23539093136787415, 0.2639608085155487, -0.11923929303884506], "2_bias": [-0.6155707240104675, -0.5765714049339294, -0.7355717420578003]}