{"triplane_resolution": 2048, "triplane_voxel_size": 0.001953125, "sparse_grid_resolution": 512, "sparse_grid_voxel_size": 0.0078125, "range_features": [-7.0, 7.0], "range_density": [-14.0, 14.0], "data_block_size": 16, "atlas_width": 1819, "atlas_height": 170, "atlas_depth": 17, "num_slices": 17, "slice_depth": 1, "0_weights": [[2.9784188270568848, 2.0414748191833496, -0.17055808007717133, 0.8746278285980225, -2.5566370487213135, -0.5351923108100891, 0.05498179420828819, 3.6430726051330566, 0.10916689783334732, -2.9572482109069824, 0.8752835392951965, -2.2484259605407715, -0.0878022238612175, 0.07754776626825333, 4.069875717163086, 4.393678665161133], [0.7661141753196716, 2.9867663383483887, -0.3840096890926361, -2.855555295944214, 2.0809104442596436, 1.120965600013733, -0.993328869342804, -0.21048639714717865, 2.162902593612671, 2.8080804347991943, 2.688281536102295, 3.0187766551971436, -0.8036283254623413, 2.9162204265594482, -3.9634671211242676, -1.3509913682937622], [-1.3580834865570068, 0.2282865345478058, -1.8525110483169556, 2.8519670963287354, -0.30779963731765747, -0.10102860629558563, -0.1736866980791092, -4.342272758483887, 2.133906126022339, 4.481049060821533, 2.78009295463562, -0.018895849585533142, 0.09029889106750488, 5.59075403213501, -2.2203269004821777, -1.0561529397964478], [0.33520013093948364, 0.3988860845565796, -0.3929390013217926, -0.6949899792671204, -0.6525990962982178, -0.46659764647483826, 0.024272138252854347, -0.41066715121269226, 0.05067231506109238, -0.3774201571941376, -0.13082119822502136, -0.2493220716714859, 0.21198183298110962, -0.2994575798511505, 0.09467840194702148, -0.7334440350532532], [0.10177738964557648, 0.10639370232820511, -0.26993054151535034, -0.6548910140991211, -0.5520461201667786, -0.48198413848876953, 0.13365508615970612, -0.3099909722805023, -0.01824524626135826, -0.4839729368686676, -0.18871545791625977, -0.24233725666999817, 0.44915807247161865, -0.1858263611793518, 0.14541774988174438, -0.6654744744300842], [0.1656092256307602, 0.20012609660625458, -0.6255612969398499, -0.6270793676376343, -0.7418991923332214, -0.413686603307724, 0.2574051022529602, -0.3571934998035431, 0.07102146744728088, -0.49425947666168213, -0.16998320817947388, -0.5111871957778931, 0.33051756024360657, -0.022617772221565247, -0.008806701749563217, -0.7535306215286255], [-0.08322952687740326, 0.1687944233417511, -0.7997719645500183, -0.6952341198921204, -0.48373258113861084, -0.5135281682014465, 0.13481052219867706, -0.28030136227607727, 0.06094774231314659, -0.49645939469337463, 0.43477296829223633, -0.2747383415699005, 0.27050134539604187, -0.08946284651756287, -0.04603206366300583, -0.6441237330436707], [0.015842774882912636, -0.2994738817214966, -0.008662188425660133, 0.04575048387050629, -0.7441718578338623, 0.20642806589603424, 0.0444033108651638, -0.2441580444574356, -0.7688157558441162, 0.035518620163202286, 0.017872663214802742, -0.08390027284622192, -0.043677449226379395, -0.009078528732061386, 0.022550111636519432, -0.1521313190460205], [-0.012966901995241642, 0.05975889414548874, -0.12473165988922119, 0.26676905155181885, -0.10567290335893631, 0.6028214693069458, -0.25149843096733093, -0.011287141591310501, -0.6594831943511963, 0.10136266052722931, 0.5708969235420227, -0.045363496989011765, 0.007369097322225571, 0.08469343930482864, -0.00105480186175555, -0.08219785988330841], [-0.01681271195411682, 0.5192713737487793, -0.2631082236766815, -0.2655947506427765, 0.17819848656654358, -0.2573682963848114, -0.34224796295166016, -0.10237858444452286, 0.41890189051628113, 0.1463523954153061, 0.6176558136940002, -0.18164733052253723, -0.3529949486255646, -0.14729267358779907, -0.12154623121023178, -0.01161743700504303], [0.020853379741311073, -0.11884095519781113, 0.13087278604507446, 0.17226353287696838, -0.527656078338623, 0.18985715508460999, -0.09526783972978592, -0.16395984590053558, -0.5855005383491516, 0.11513493955135345, 0.10857383906841278, 0.06836461275815964, -0.09860263764858246, -0.11149243265390396, 0.07691575586795807, -0.031180299818515778], [-0.07613518089056015, -0.07473119348287582, 0.022930335253477097, -0.14933069050312042, 0.09238772094249725, 0.43086135387420654, 0.06716412305831909, 0.1575509011745453, -0.6920521259307861, 0.11293330788612366, 0.8130117654800415, -0.008463631384074688, -0.054476480931043625, 0.08965586125850677, 0.0100265983492136, -0.044607147574424744], [0.22826923429965973, 0.4696058928966522, -0.4091995656490326, -0.4008360803127289, 0.2264147698879242, -0.08938919007778168, -0.21155516803264618, -0.2001163512468338, 0.46268513798713684, 0.0250703115016222, 0.7015950679779053, -0.4584686756134033, -0.4130980670452118, 0.06555090099573135, 0.13029509782791138, -0.03330288082361221], [-0.210229754447937, -0.07982014864683151, -0.19958582520484924, -0.03210936486721039, -0.7291058301925659, 0.09984773397445679, -0.20231962203979492, -0.19967764616012573, -0.5283706784248352, 0.11809689551591873, 0.0170335341244936, 0.06724275648593903, -0.10420104116201401, -0.16803762316703796, 0.1156899556517601, 0.04206349700689316], [0.11689050495624542, 0.12289784848690033, -0.3014811873435974, -0.17410808801651, 0.08357670903205872, 0.0901002436876297, -0.022971006110310555, -0.08919912576675415, -0.7414067387580872, -0.1632399708032608, 0.6290703415870667, -0.1926247626543045, -0.11976638436317444, -0.09633800387382507, -0.06223983317613602, 0.1238887757062912], [0.057933684438467026, 0.284483402967453, -0.35062551498413086, -0.40967851877212524, -0.20830672979354858, -0.10630176961421967, -0.2909463346004486, -0.18225742876529694, 0.7220801115036011, -0.1273476481437683, 0.5757962465286255, -0.30660414695739746, -0.26162803173065186, 0.17653992772102356, -0.014043906703591347, -0.19437651336193085], [0.10099073499441147, 0.12206120789051056, -0.12785695493221283, -0.0651441439986229, 0.30604076385498047, 0.15100324153900146, -0.328920841217041, 0.14883093535900116, 0.25932642817497253, -0.01658000238239765, -0.8772249221801758, -0.15677784383296967, 0.157095804810524, 0.09573062509298325, -0.037682656198740005, 0.034464213997125626], [-0.006987713743001223, -0.006179946009069681, 0.03468126431107521, 0.09778096526861191, -0.08841819316148758, -0.0757642537355423, 0.08444008976221085, 0.07643888145685196, -0.6788444519042969, -0.04736246541142464, -0.12392669171094894, 0.12415050715208054, 0.11755233258008957, -0.08304144442081451, 0.028397753834724426, -0.03501097112894058], [0.21932736039161682, 0.5113528370857239, 0.3992522656917572, -0.02162439189851284, -0.545533299446106, -0.796973466873169, 0.10828448086977005, 0.49256840348243713, 1.1117572784423828, -0.7589082717895508, 0.6302735209465027, 0.16296501457691193, 0.4914259910583496, 0.2656029164791107, -0.15414729714393616, 0.15234056115150452], [-0.002499662572517991, -0.03772955760359764, 0.002033327240496874, 0.011665481142699718, 0.1226949617266655, 0.003821631893515587, 0.10105644911527634, -0.005798874888569117, 0.07655005156993866, -0.03175543621182442, 0.09252133965492249, 0.028306862339377403, -0.031182194128632545, -0.012596060521900654, -0.007867936044931412, -0.004441056400537491], [0.0006346324225887656, 0.014137624762952328, 0.00642168615013361, -0.0180166345089674, -0.09492536634206772, 0.07486492395401001, -0.061759404838085175, -0.004771645646542311, 0.3116168677806854, 0.01752513274550438, -0.21557487547397614, -0.026689251884818077, 0.01981867104768753, 0.02858571894466877, 0.011184890754520893, 0.011716854758560658], [0.07836207002401352, 0.06144965440034866, -0.2596485912799835, 0.07601618021726608, 0.33651161193847656, 0.017581777647137642, -0.12912817299365997, 0.3062117099761963, -0.36369743943214417, -0.2515515089035034, -0.011972392909228802, 4.6538021706510335e-05, -0.16936710476875305, 0.06833285838365555, 0.0596114918589592, -0.0575529970228672], [-0.21481522917747498, -0.40256497263908386, 0.4142826795578003, 0.229961559176445, 0.15224391222000122, 0.20144900679588318, 0.3378960192203522, 0.22765332460403442, -0.5384891629219055, -0.3281228244304657, 0.21977393329143524, 0.19704890251159668, 0.4249448776245117, 0.020281456410884857, -0.12895388901233673, -0.07718507200479507], [0.026405995711684227, -0.3228164613246918, 0.46011507511138916, 0.23080474138259888, 0.2625868618488312, 0.5331358909606934, 0.46646544337272644, 0.008563018403947353, -0.7545533776283264, -0.2656024694442749, 0.17933309078216553, 0.43872007727622986, 0.5340883135795593, -0.13082335889339447, -0.025741277262568474, 0.3459966480731964], [-0.24738015234470367, -0.2793404459953308, 0.5899707674980164, 0.2879469692707062, 0.5748394131660461, 0.35087040066719055, 0.20596878230571747, 0.19124816358089447, -0.8883947730064392, -0.03946954011917114, 0.5799583792686462, 0.4316486418247223, 0.3611893057823181, -0.2026905119419098, -0.08228836953639984, 0.2376660704612732], [-0.32358378171920776, -0.7764212489128113, 0.2678218185901642, 0.24185629189014435, -0.4617066979408264, -0.6063001155853271, -0.290560781955719, 0.014250955544412136, -0.3951396644115448, -0.26092714071273804, 0.5269238352775574, 0.12674085795879364, 0.12204283475875854, -0.1376478374004364, -0.391510933637619, -0.4940820634365082], [-0.04046659171581268, -0.08855688571929932, 0.5359697937965393, 0.41723567247390747, 0.5688842535018921, 0.7106904983520508, 0.5549220442771912, 0.2950044274330139, -0.6174129247665405, -0.3898063898086548, -0.4635713994503021, 0.49825379252433777, 0.779143214225769, 0.14392882585525513, 0.2333664894104004, 0.33964788913726807], [-0.40990781784057617, -0.705632746219635, 0.9636081457138062, 0.41616857051849365, 1.014705777168274, 1.2777867317199707, 0.4775037169456482, -0.39970865845680237, -1.3466500043869019, -0.18573789298534393, 1.26445472240448, 0.6259777545928955, 0.195973202586174, -0.013255053199827671, -0.3391496241092682, 0.4899980425834656], [0.08406493067741394, 0.11695711314678192, 0.24829523265361786, 0.011399560607969761, 0.7231779098510742, 0.18344998359680176, 0.30920156836509705, 0.015267087146639824, 0.9347122311592102, 0.08052826672792435, -0.489197313785553, 0.14249193668365479, -0.027156217023730278, 0.006303002592176199, 0.17295092344284058, 0.27941375970840454], [-0.06744005531072617, -0.0683833658695221, 0.12590309977531433, -0.08399397879838943, -0.45753148198127747, -0.738015353679657, -0.08806056529283524, -0.048824187368154526, 1.229819655418396, 0.1323786973953247, 0.7303209900856018, -0.03068862482905388, -0.12289158254861832, -0.06510310620069504, -0.024953093379735947, -0.12124795466661453], [0.14014606177806854, 0.3652764856815338, -0.1592361330986023, -0.27804821729660034, 0.4912172555923462, -0.2693141996860504, -0.024723311886191368, -0.11203325539827347, 0.23884157836437225, -0.6210724711418152, 2.2937123775482178, -0.15486954152584076, -0.34122234582901, 0.031062396243214607, 0.8113123178482056, -0.19856300950050354], [-0.0034526523668318987, 0.0035542857367545366, -0.01011402253061533, 0.008739153854548931, -0.01900133304297924, 0.01575801521539688, 0.04570021480321884, -0.009770725853741169, -0.2850971221923828, -0.03089536353945732, 0.2605425715446472, 0.010259140282869339, -0.0004330336523707956, -0.017025571316480637, -0.039144665002822876, -0.051957305520772934], [0.014281044714152813, 0.021709544584155083, -0.07550287991762161, 0.006274260114878416, 0.006300533190369606, 0.13828590512275696, -0.04703759029507637, 0.010110911913216114, 0.20064978301525116, -0.021475855261087418, -0.0060759056359529495, -0.02228442020714283, -0.002540583023801446, 0.017422610893845558, -0.0017879900988191366, 0.010054990649223328], [-0.03834440931677818, -0.006594408303499222, -0.04917353391647339, -0.10210128873586655, 0.008470598608255386, 0.193882554769516, -0.43918636441230774, 0.09277398139238358, 1.1098560094833374, -0.09889478981494904, 0.28769445419311523, 0.01521272398531437, 0.3278014659881592, -0.002562238834798336, 0.09531015902757645, -0.0006106575601734221]], "1_weights": [[0.09761831909418106, 0.30772095918655396, -0.2545803189277649, 0.32597658038139343, -0.08684957027435303, 1.0497472286224365, -0.10061206668615341, 0.3297368884086609, -0.7380587458610535, -0.04659176245331764, -0.22923435270786285, -0.3035983741283417, -0.21315836906433105, -0.2274683117866516, 1.3181875944137573, -0.26740095019340515], [0.1666792631149292, -1.5052109956741333, -0.051892079412937164, -0.10267386585474014, -0.22739195823669434, 0.09997490048408508, -0.20237088203430176, -0.7962120771408081, -0.1955876648426056, -0.08976703137159348, -0.034040894359350204, -0.2915210425853729, -0.11165308207273483, 0.1843772679567337, 0.9799157381057739, 0.028859777376055717], [-0.05920717492699623, -2.768187999725342, -0.03475414961576462, -0.01045713946223259, -0.11528429388999939, -0.13237065076828003, -0.10307691991329193, -0.2564377784729004, 0.35532107949256897, 1.6528511047363281, -0.02162954956293106, 0.02558245323598385, 0.13944904506206512, 0.030333060771226883, -0.05271674320101738, -0.4356536269187927], [-0.2751118838787079, -0.22289030253887177, -0.17508181929588318, -0.4468879997730255, 0.034576237201690674, 1.1048338413238525, 0.14120100438594818, 1.7424705028533936, 1.3209511041641235, 1.0504335165023804, 0.09627551585435867, 0.11524371057748795, -0.22454071044921875, 0.04342467710375786, 0.6815279126167297, -0.09078435599803925], [-0.24965038895606995, -1.860331654548645, 0.08026798069477081, 0.03734702244400978, -0.32431650161743164, -0.5155171155929565, -0.24873439967632294, -0.020978404209017754, -0.16084642708301544, 0.21837209165096283, -0.19635418057441711, 0.04692935198545456, -0.08010832220315933, -0.20958465337753296, 1.9876644611358643, -0.14283350110054016], [-0.22807908058166504, -0.129970982670784, -0.31345853209495544, 0.14021752774715424, -0.010425275191664696, 0.00692771514877677, -0.011763704009354115, -0.22903597354888916, 0.2239258885383606, -0.07822297513484955, -0.039317786693573, -0.0604625940322876, 0.028534313663840294, -0.17342814803123474, -0.3308192193508148, -0.2640116810798645], [-0.2905247211456299, 0.5642268657684326, 0.0802704393863678, -0.14234164357185364, -0.24931541085243225, 0.2942310571670532, -0.3298235237598419, -0.21516349911689758, 0.05360608175396919, -1.4145708084106445, -0.06515371054410934, -0.027615120634436607, -0.27857688069343567, -0.10785721242427826, -0.2143181711435318, -0.11350906640291214], [-0.19415879249572754, -1.5563950538635254, 0.02250676229596138, -0.2507995665073395, -0.2013641595840454, -1.161622166633606, 0.07123873382806778, -0.15778382122516632, 0.0626944974064827, 0.1128539964556694, -0.31636375188827515, 0.14120149612426758, 0.1723008006811142, -0.10592959076166153, 0.335911363363266, 0.032618168741464615], [-0.297798216342926, 0.3171280026435852, -0.02701614797115326, 0.3380023241043091, 0.011989994905889034, 0.6221333742141724, 0.031939588487148285, 0.2042282521724701, 0.7212007641792297, -0.1353377103805542, -0.3405507504940033, -0.2591648995876312, -0.19152507185935974, -0.2247484028339386, -0.7392690777778625, 0.15516123175621033], [-0.2968210279941559, -0.6752758622169495, 0.053589995950460434, 2.104388475418091, 0.12055276334285736, 3.8745813369750977, -0.04886218532919884, 0.03251282125711441, 2.3759007453918457, -0.1296175718307495, -0.24017001688480377, -0.19643612205982208, -0.12818901240825653, -0.062489911913871765, -1.286163091659546, -0.2148720920085907], [-0.23177793622016907, 0.2308655083179474, -0.28125759959220886, 0.13442888855934143, -0.15021425485610962, 0.19697925448417664, -0.09332983195781708, 0.0555996410548687, 0.11109539866447449, 0.20059482753276825, -0.012339876033365726, -0.06908119469881058, -0.09373190253973007, -0.03867260366678238, -0.4883424937725067, -0.2079065442085266], [-0.3076584041118622, 0.0013468342367559671, -0.18336373567581177, 0.7807857990264893, -0.1871158629655838, -0.4257504642009735, -0.24646496772766113, -0.19543638825416565, -0.3903653919696808, 0.3052051067352295, -0.3466310501098633, -0.26123565435409546, -0.2588376998901367, -0.17880892753601074, -1.3050998449325562, -0.14071841537952423], [-0.22153878211975098, -0.6786543726921082, -0.13213486969470978, 0.06090114265680313, -0.3105536699295044, 0.4953784644603729, 0.01980576291680336, -0.17763714492321014, 0.2709103226661682, -0.9780364632606506, -0.3702887296676636, -0.23558220267295837, -0.32229435443878174, -0.045040834695100784, -0.6357400417327881, -0.1508820652961731], [0.027312330901622772, 0.7249264121055603, -0.25361859798431396, 0.8676369190216064, -0.21337729692459106, 1.2876685857772827, -0.2585362493991852, 1.2200047969818115, 0.5128639936447144, 0.06728950142860413, 0.007001147139817476, 0.07856803387403488, 0.06492043286561966, -0.09324407577514648, 0.30941078066825867, 0.03476312384009361], [0.14702093601226807, 0.16681638360023499, -0.21380391716957092, -0.32029175758361816, -0.28080737590789795, -0.8063552379608154, -0.09670969843864441, 1.219840407371521, -0.3966809809207916, 0.0248136967420578, -0.063837930560112, -0.21373644471168518, 0.11764293909072876, 0.00409328518435359, -0.2610699236392975, 0.07718464732170105], [-0.1430349349975586, 0.5937700867652893, -0.1355317234992981, -0.620366096496582, -0.14153285324573517, 1.7652782201766968, 0.04985106736421585, -1.39713716506958, -1.0711276531219482, 0.030372310429811478, 0.08293064683675766, -0.02150583267211914, -0.30711713433265686, 0.03209622576832771, 1.3940030336380005, -0.1412418633699417]], "2_weights": [[-0.15201325714588165, 0.1821138560771942, -0.059297576546669006], [0.8627323508262634, 0.8819208741188049, 0.8496716618537903], [-0.3132306933403015, -0.007915002293884754, 0.09365981072187424], [0.24884282052516937, -0.4625283479690552, -0.17929528653621674], [-0.09283436089754105, -0.1605859100818634, 0.08865252882242203], [-0.7062687873840332, -0.19071577489376068, -0.21222098171710968], [0.11488737910985947, -0.061229005455970764, 0.03845655918121338], [0.723582923412323, 0.7895411849021912, 0.6466826796531677], [0.4360828995704651, 0.05677284300327301, -0.4434848427772522], [-14.754576683044434, -10.148456573486328, -9.823132514953613], [-0.0995749905705452, 0.22267957031726837, -0.09810259938240051], [-0.13223305344581604, 0.2670685350894928, -0.10342665016651154], [0.0624278225004673, 0.04813705384731293, 0.09834981709718704], [-0.030758220702409744, -0.12252754718065262, 0.07478361576795578], [-0.4740320146083832, 0.12461793422698975, 0.11952165514230728], [0.03893967717885971, -0.024753643199801445, 0.05405030399560928]], "0_bias": [0.04695712774991989, -0.37872210144996643, 0.5527728796005249, 0.473983496427536, 0.4273236095905304, 0.21995662152767181, 0.2732566297054291, 0.18946203589439392, -0.718673586845398, -0.11000744998455048, 0.3074531555175781, 0.261692613363266, 0.5134106278419495, -0.021637380123138428, 0.05991821736097336, 0.2524630129337311], "1_bias": [0.07024769484996796, -1.0871022939682007, -0.1595081388950348, 0.7953773140907288, 0.039591461420059204, 0.9460697174072266, -0.20715409517288208, -0.6449068188667297, -0.1018732562661171, -2.06432843208313, 0.0232001431286335, -0.24582083523273468, 0.06047669053077698, -0.15092407166957855, 0.4226166903972626, -0.149292454123497], "2_bias": [-0.5915263891220093, -0.6016547679901123, -0.6942901611328125]}