{"triplane_resolution": 2048, "triplane_voxel_size": 0.001953125, "sparse_grid_resolution": 512, "sparse_grid_voxel_size": 0.0078125, "range_features": [-7.0, 7.0], "range_density": [-14.0, 14.0], "data_block_size": 16, "atlas_width": 850, "atlas_height": 425, "atlas_depth": 17, "num_slices": 17, "slice_depth": 1, "0_weights": [[0.6633305549621582, 0.13092558085918427, 4.5379743576049805, 3.377882480621338, -0.7113641500473022, 2.0084846019744873, -5.607583045959473, 5.204335689544678, 0.37520644068717957, 0.18987315893173218, 0.007330363150686026, -0.24302825331687927, -3.7846498489379883, 1.3707716464996338, 0.11977722495794296, 2.9216043949127197], [2.7515807151794434, 1.9015460014343262, -6.675298690795898, -0.6267418265342712, -2.462765693664551, 0.24988609552383423, 1.7670501470565796, -1.363205909729004, -1.8237195014953613, 3.394831418991089, -0.20906105637550354, -0.019564934074878693, 1.4037178754806519, -2.4273455142974854, 0.1731857806444168, -1.0907024145126343], [2.837944984436035, -0.22845740616321564, 3.1579182147979736, -0.22296737134456635, 3.090017557144165, -1.2904281616210938, 5.508682727813721, -3.6342217922210693, -2.0245375633239746, -1.0784931182861328, -0.0498201884329319, -0.07824209332466125, 5.431142807006836, -1.5333044528961182, 0.27125370502471924, 0.5099906921386719], [0.13559909164905548, 0.5891366004943848, 0.019156213849782944, -2.7769241333007812, 0.2396268993616104, -0.8727267384529114, -1.0634161233901978, -0.4657559096813202, -0.3092513978481293, 0.02359684742987156, -0.22914250195026398, -0.028797458857297897, 0.40943625569343567, -0.4674190580844879, -0.032087769359350204, -1.7582331895828247], [1.470681071281433, 1.6323002576828003, 0.3711114823818207, -10.320767402648926, 0.5177170634269714, 0.6866480708122253, 0.13599984347820282, -8.307577133178711, -1.984779715538025, -9.005064964294434, -0.21542364358901978, 0.06077471002936363, -1.8660465478897095, -0.7395703196525574, -2.792039155960083, 1.6673556566238403], [-4.324816703796387, -0.4904017448425293, -0.045046258717775345, -0.08140667527914047, -0.2550281882286072, 0.21625091135501862, 0.2811836004257202, 0.41401195526123047, -0.12025531381368637, -0.6844380497932434, -0.16673405468463898, -0.2744148373603821, -0.2784837484359741, -0.15732336044311523, -0.6315086483955383, 0.42198458313941956], [3.232545852661133, 0.37439411878585815, -0.32723698019981384, 1.8764334917068481, 1.5920854806900024, 1.0217448472976685, 1.0131304264068604, 0.4475978910923004, 1.4560908079147339, -0.2420399785041809, 0.09025608003139496, -0.011287353932857513, 0.18379880487918854, 1.1086705923080444, 0.23969313502311707, 1.2349292039871216], [0.11010471731424332, -0.6224881410598755, -0.001177264959551394, -0.5084742307662964, -0.36311447620391846, 0.20218905806541443, -0.08447219431400299, -0.04441890865564346, -0.5752970576286316, 0.16913826763629913, -0.12169554829597473, -0.08687425404787064, -0.18951180577278137, -0.4430561661720276, -0.13554704189300537, -0.49480554461479187], [-0.044220756739377975, 0.17242902517318726, -0.1748940348625183, 0.5460220575332642, 0.07224881649017334, -0.23147208988666534, 0.09925445914268494, -0.08411570638418198, -0.02027481608092785, 0.08812853693962097, -0.05242455005645752, -0.05810018628835678, 0.09648897498846054, 0.20709648728370667, 0.15485993027687073, 0.27103331685066223], [0.013092533685266972, 0.08036297559738159, 0.031977538019418716, 0.16810420155525208, 0.002894134959205985, 0.051336824893951416, -0.10277671366930008, -0.0327008031308651, -0.15152043104171753, -0.11408662796020508, 0.10405834019184113, 0.1720322072505951, -0.011835805140435696, -0.18196816742420197, 1.803670883178711, 0.05802210792899132], [0.13558964431285858, -0.43248409032821655, 0.18794122338294983, -0.3646361231803894, -0.1407552808523178, 0.16278934478759766, -0.19964897632598877, 0.03392238914966583, -0.40115249156951904, 0.17596977949142456, 0.009831134229898453, 0.03635851666331291, -0.18714332580566406, -0.46122050285339355, -0.05613372102379799, -0.3059302270412445], [-0.11801300942897797, 0.02078378014266491, 0.08425253629684448, 0.1728789061307907, 0.24168601632118225, -0.20446231961250305, 0.34965988993644714, 0.11578216403722763, -0.06836970895528793, 0.09013207256793976, 0.15541884303092957, 0.03289809823036194, 0.055517468601465225, 0.21068650484085083, 0.20538407564163208, 0.2658419609069824], [0.24790823459625244, 0.028129639104008675, -0.12118463218212128, 0.016686508432030678, 0.1118011623620987, 0.2144342064857483, 0.021333815529942513, -0.13230755925178528, -0.09892347455024719, -0.17421263456344604, 0.19343557953834534, -0.11816368997097015, -0.06906040757894516, 0.030959557741880417, 1.96842622756958, 0.047070637345314026], [-0.055576443672180176, -0.36850595474243164, 0.0014527367893606424, -0.5032268762588501, -0.332389771938324, 0.01303088665008545, -0.2279697060585022, -0.014682788401842117, -0.3723779022693634, -0.01010296680033207, 0.06284908205270767, -0.03216095268726349, -0.052615873515605927, -0.3090512454509735, 0.05882271006703377, -0.0459526963531971], [0.06578372418880463, 0.17388314008712769, 0.037600185722112656, 0.238939568400383, 0.1508965790271759, -0.03288333863019943, 0.06684555113315582, -0.06429784744977951, -0.16259831190109253, -0.20307110249996185, -0.11191415786743164, -0.02376428432762623, 0.03454563394188881, 0.008363447152078152, 0.2086613029241562, 0.3167897164821625], [0.046493638306856155, -0.16956999897956848, -0.09017497301101685, -0.04298041760921478, -0.15082009136676788, 0.18707938492298126, -0.07823725789785385, -0.12518373131752014, 0.17489272356033325, -0.14876997470855713, 0.08070863783359528, -0.007806030102074146, 0.08103393763303757, 0.13523687422275543, 1.5109562873840332, -0.08867818117141724], [0.054434262216091156, -0.1302969753742218, -0.02214665152132511, 0.22680632770061493, 0.17982281744480133, -0.028961002826690674, 0.17438216507434845, 0.12329351156949997, 0.1607382446527481, 0.08436895161867142, 0.13690553605556488, -0.007239856291562319, 0.05111488327383995, -0.20672637224197388, 0.025103077292442322, 0.2068769633769989], [0.07286438345909119, 0.11710862815380096, -0.0003897536953445524, -0.16050846874713898, 0.003109922166913748, -0.07764257490634918, -0.08424028754234314, 0.04682530090212822, -0.39791131019592285, 0.21319155395030975, 0.037241674959659576, -0.03653588891029358, -0.022335026413202286, -0.28687188029289246, -0.33920741081237793, -0.15738287568092346], [-0.16080844402313232, -0.14696621894836426, 0.02020936645567417, -0.09368118643760681, 0.011545940302312374, -0.31282129883766174, -0.0075639658607542515, 0.1964200884103775, 0.5412859916687012, 0.05239351838827133, -0.02769281156361103, 0.13884694874286652, 0.053353361785411835, -0.18304313719272614, -2.440019369125366, 0.09492114186286926], [-0.016684167087078094, -0.05319454148411751, 0.014728321693837643, -0.06032988429069519, -0.04722185805439949, 0.6392853260040283, -0.0030403314158320427, -0.22667406499385834, 0.15029276907444, 0.10751497000455856, 0.0713970959186554, -0.042416226118803024, -0.02290494553744793, -0.10901518911123276, 0.04560895636677742, 0.002117973053827882], [-0.0431148000061512, 0.004612010903656483, -0.00754333334043622, 0.02852778136730194, 0.03987758606672287, 0.024759147316217422, 0.17782087624073029, 0.06054580956697464, 0.06174754723906517, 0.00885781366378069, -0.027134977281093597, -0.04572979360818863, 0.05460764095187187, 0.0046516708098351955, -0.013258709572255611, 0.2653185725212097], [-0.09143764525651932, 0.08128252625465393, 0.008459524251520634, -0.08943257480859756, -0.10411844402551651, -0.11210877448320389, -0.06321898102760315, -0.07450997084379196, 0.2470467984676361, 0.004060213919728994, -0.10027970373630524, -0.12157859653234482, 0.15690690279006958, 0.03096582554280758, 2.2154831886291504, -0.06136395037174225], [0.02790956385433674, 0.16796159744262695, 0.0832207053899765, -0.2047015130519867, 0.08954499661922455, -0.0499078705906868, 0.06836392730474472, 0.236688032746315, 0.0853099375963211, 0.1500004380941391, -0.2384137213230133, -0.2597214877605438, 0.042343031615018845, 0.06445430219173431, -0.3031616806983948, -0.15593360364437103], [0.11956038326025009, 0.0785411074757576, 0.01506537664681673, -0.2177373319864273, -0.01281169056892395, -0.0815528929233551, 0.09009042382240295, -0.14025337994098663, -0.11055836081504822, 0.08072645962238312, -0.07451342046260834, -0.10275360941886902, 0.051741763949394226, -0.09287551790475845, -0.3311050832271576, 0.11918263882398605], [-0.046349428594112396, 0.23714414238929749, 0.1602468490600586, -0.12915125489234924, 0.2450641691684723, -0.1393284797668457, -0.14083723723888397, 0.1437680423259735, -0.17843438684940338, 0.3131233751773834, -0.016500724479556084, -0.06960754096508026, -0.09892289340496063, -0.14392845332622528, -0.7938232421875, 0.015623513609170914], [0.12833794951438904, 0.044343724846839905, 0.13786306977272034, -0.19778642058372498, -0.05688543990254402, -0.5982290506362915, -0.3678537607192993, 0.24275334179401398, 0.1261061280965805, 0.5877276659011841, -0.008765730075538158, -0.19103795289993286, -0.0719527006149292, -0.08047838509082794, 0.19712741672992706, -0.21636761724948883], [-0.16262537240982056, 0.014832333661615849, -0.042194437235593796, -0.029424011707305908, 0.11522749811410904, -0.36317703127861023, 0.04588029161095619, -0.17132475972175598, -0.029930895194411278, -0.22694618999958038, -0.03756139054894447, -0.07651359587907791, 0.18408946692943573, 0.10793843120336533, 0.39094236493110657, -0.02485264092683792], [-0.023058509454131126, 0.03194208815693855, 0.0633014440536499, 0.14470496773719788, 0.06920994073152542, 0.17026370763778687, -0.01649359241127968, -0.009161614812910557, -0.7053055167198181, 0.14380615949630737, -0.24214190244674683, 0.004945019725710154, -0.1585691273212433, 0.1428358256816864, -3.6409261226654053, -0.20320162177085876], [-0.07810068875551224, 0.09244279563426971, -0.06625381857156754, 0.068563312292099, 0.0667664036154747, -1.1127630472183228, 0.30502384901046753, -0.12925943732261658, 0.4985882043838501, -0.06369340419769287, -0.10871920734643936, 0.05212417617440224, 0.048761770129203796, 0.050816576927900314, 1.0067765712738037, 0.341217964887619], [0.035822317004203796, -0.3725951015949249, 0.09161923080682755, 0.03919577971100807, -0.3469320833683014, 0.7376719117164612, -0.032723020762205124, -0.3286525309085846, 0.14102725684642792, 0.3540087938308716, -0.010492793284356594, 0.09822448343038559, -0.10331250727176666, -0.25210806727409363, 1.022525429725647, 0.012408902868628502], [-0.03602932393550873, 0.02603382058441639, 0.062199667096138, -0.0194307342171669, -0.24080194532871246, -0.2091420590877533, 0.015904240310192108, 0.01834465190768242, 0.036339495331048965, -0.012011686339974403, 0.16881802678108215, 0.07854089140892029, 0.026226401329040527, 0.08144056797027588, -0.4137968420982361, -0.0644276812672615], [0.0419369675219059, -0.23142002522945404, 0.04959539696574211, -0.03642156720161438, -0.21696427464485168, -0.520402729511261, 0.0330827459692955, -0.04449976608157158, -0.2146967053413391, 0.025992656126618385, 0.034879766404628754, -0.15683254599571228, -0.08431433886289597, 0.18632972240447998, -0.9385501146316528, 0.052546050399541855], [-0.02512848563492298, 0.14908483624458313, -0.027244264259934425, -0.03256889432668686, 0.10443329811096191, -0.23326288163661957, -0.035575706511735916, 0.12047731876373291, 0.18218545615673065, -0.09784607589244843, 0.021503066644072533, -0.21769830584526062, 0.01462848111987114, 0.03894226625561714, -0.9278976321220398, -0.07991011440753937], [-0.04044153541326523, 0.13721223175525665, 0.01630322076380253, 0.021257303655147552, -0.08595682680606842, 0.06623396277427673, 0.11385037750005722, -0.014946091920137405, -0.09981618076562881, 0.08371729403734207, -0.00015501450980082154, -0.045186981558799744, -0.04045196622610092, -0.1119329035282135, 2.2761340141296387, 0.22831124067306519]], "1_weights": [[-0.09309406578540802, -1.1161717176437378, -0.1569715291261673, 0.19345319271087646, -0.07056480646133423, 0.11739391833543777, -1.3473988771438599, -0.34934091567993164, -0.013807041570544243, 0.6915262937545776, 0.5218439698219299, 0.26391714811325073, -0.7700042128562927, 0.48527655005455017, 0.09966378659009933, 0.48855704069137573], [0.34739434719085693, 0.05330396816134453, -0.06995479017496109, -0.0011738622561097145, -0.27675458788871765, -0.5421406626701355, 0.21006682515144348, -0.24922457337379456, -2.2577712535858154, -0.11184508353471756, -0.05376721918582916, -0.031382594257593155, 0.46062102913856506, 0.10914410650730133, -0.07340838015079498, 0.11706844717264175], [0.20551958680152893, 0.20625677704811096, -0.22960609197616577, -0.5307022929191589, 0.2741895318031311, -0.09136288613080978, -0.07975278794765472, -0.30364343523979187, -0.23585309088230133, 0.31555598974227905, 0.55239337682724, 0.8365961909294128, 0.2846565842628479, 0.24659238755702972, 0.37634193897247314, -0.20375597476959229], [-0.5494392514228821, 0.15681837499141693, -0.2802058160305023, 1.7194207906723022, 0.30446532368659973, -0.07786671817302704, -0.0559503510594368, 0.2825701832771301, -0.9001649618148804, -0.2681405246257782, 0.3166445195674896, 0.9410943388938904, -0.7056677937507629, 0.22562970221042633, -7.512077808380127, -0.4267645478248596], [0.46426790952682495, -0.27844905853271484, -0.05899295210838318, -0.2187294363975525, -0.5437107086181641, -0.5791066288948059, -0.06920647621154785, -0.12397599965333939, 0.9609463810920715, -0.2532176077365875, -0.140977680683136, 0.14054878056049347, 0.10939185321331024, -0.6163301467895508, -0.06574182957410812, -0.33502188324928284], [-1.0890289545059204, 0.35061320662498474, -0.5176846981048584, 0.009315482340753078, -0.07341933995485306, -0.5633037090301514, 0.24378514289855957, -0.12713098526000977, -0.35229480266571045, -0.0827772244811058, 0.14316275715827942, -0.07792863249778748, -0.3969825804233551, 0.2451178878545761, 0.009497923776507378, -0.0027820600662380457], [0.16225452721118927, -0.7665587663650513, 0.20499472320079803, 0.15944117307662964, 0.031068027019500732, -0.11759448051452637, -0.126364603638649, -1.6264277696609497, -0.015950603410601616, -0.9887307286262512, -1.2050583362579346, 0.485251784324646, -1.9552664756774902, -0.747800886631012, -1.2666380405426025, 0.45122548937797546], [-1.008399486541748, 0.4871462881565094, -0.1490563005208969, 0.1578281968832016, 0.11249903589487076, -0.39281508326530457, -0.42007774114608765, 0.05527665838599205, -0.3803783655166626, 0.5352956056594849, 0.1189223900437355, -0.03147566318511963, -0.32591766119003296, 0.29035043716430664, 0.041005689650774, 0.22651518881320953], [-0.1168137788772583, 0.2436620444059372, -0.2619178295135498, -0.030411144718527794, 0.45423954725265503, -0.20735788345336914, 0.1840880662202835, -0.04718127101659775, -0.9822900295257568, 0.36547160148620605, 0.05713767930865288, -0.0530836321413517, -1.2052215337753296, -0.018587494269013405, 0.04106447845697403, 0.09651163965463638], [-0.2295708805322647, 0.21403367817401886, -0.08237352967262268, 0.06439106911420822, 0.3107766807079315, -0.4193096458911896, -0.8043537735939026, -0.05149504169821739, -0.14821572601795197, -0.1731969714164734, -0.3589422404766083, -0.12315811961889267, 0.006763084791600704, 0.1953257918357849, -0.5364318490028381, -0.24231888353824615], [-0.2749898433685303, -0.032198600471019745, -0.1465233564376831, 0.059960003942251205, -0.10119474679231644, 0.08517594635486603, 0.04726579040288925, 0.10002969950437546, -0.03304217383265495, 0.24114598333835602, 0.11876840144395828, 0.13190436363220215, 0.08179838955402374, 0.009011202491819859, 0.24824056029319763, -0.13938845694065094], [-0.1935184746980667, 0.061806268990039825, -0.12056172639131546, 0.1664406657218933, -0.03313203155994415, -0.20739223062992096, -0.059751298278570175, -0.013267330825328827, 0.2793218195438385, 0.21337831020355225, -0.2100134938955307, -0.17642736434936523, -0.09041403234004974, -0.12713488936424255, -0.13003987073898315, -0.04999305307865143], [-1.0423413515090942, 0.05764894559979439, -0.11179019510746002, 0.19208568334579468, 0.36290836334228516, -0.17472897469997406, 0.09171824902296066, 0.450704962015152, -0.7511650919914246, 0.9409321546554565, 0.7676705718040466, 0.14473679661750793, -0.9777840971946716, 0.7958483695983887, 0.6205386519432068, 0.8805087208747864], [0.172271266579628, -0.006834826897829771, -0.15858431160449982, 0.12981070578098297, 0.011904330924153328, -0.32458198070526123, -0.012356351129710674, 0.2856174111366272, -1.0704678297042847, -0.04328184947371483, -0.15824131667613983, 0.06178000569343567, 0.11605731397867203, 0.20130746066570282, -0.3117835819721222, -0.19726301729679108], [0.4031265377998352, -0.9178707003593445, -0.08396951109170914, -2.5832371711730957, -1.6360796689987183, -0.01911318488419056, 5.003927230834961, 16.71194839477539, -3.1066091060638428, -2.6711459159851074, -3.295729637145996, -2.536940097808838, 0.253702312707901, -2.0631978511810303, 1.2623528242111206, -1.373069405555725], [0.20004722476005554, 0.2902511656284332, -0.2791108787059784, -0.02147500589489937, -0.011049254797399044, -0.04171273857355118, 0.2422294020652771, 0.9899303913116455, 0.21386168897151947, 0.5688018202781677, 0.7075478434562683, -0.22560977935791016, -0.19343024492263794, 0.4340737462043762, 0.7033977508544922, -0.28047657012939453]], "2_weights": [[-0.7153100967407227, -0.5424942374229431, -0.5493248701095581], [-0.42365527153015137, -0.12909147143363953, -0.23430415987968445], [-0.09265661239624023, 0.22403189539909363, 0.12445291131734848], [-0.21764421463012695, -0.3971938192844391, -0.04378003627061844], [-0.25752487778663635, -0.22809427976608276, -0.25712600350379944], [-0.01682557538151741, -0.03446749597787857, 0.09528519958257675], [-0.7648654580116272, -0.7807603478431702, -0.3965402841567993], [0.9868706464767456, 0.878943920135498, 1.0824739933013916], [-0.8665317893028259, -0.7445381879806519, -0.8381969928741455], [-0.6200172901153564, -0.4399324059486389, -0.47373273968696594], [-0.6709421277046204, -0.20224104821681976, -0.16211803257465363], [0.11439584195613861, 0.45330357551574707, -0.17769451439380646], [-0.29650548100471497, -0.18440629541873932, -0.19167004525661469], [-0.46509820222854614, -0.5223079919815063, -0.5524703860282898], [1.5546631813049316, 1.0394043922424316, 0.9941763877868652], [-0.4083009958267212, -0.4851694703102112, -0.5756499171257019]], "0_bias": [0.2240365445613861, 0.11552920192480087, 0.15264810621738434, 0.039482779800891876, 0.20652566850185394, -0.227818563580513, -0.05583175644278526, 0.12687158584594727, -0.06580731272697449, 0.2792065143585205, -0.12337511777877808, -0.23736277222633362, 0.07150984555482864, 0.024591436609625816, -0.3343484699726105, 0.07682003080844879], "1_bias": [0.5062858462333679, 0.41220709681510925, -0.2729074954986572, 0.46998831629753113, 0.5721991062164307, -0.173028364777565, -0.483987957239151, 0.140005961060524, 0.3826293647289276, -0.06176376715302467, 0.031143173575401306, -0.24644596874713898, 0.10147521644830704, 0.3771961033344269, 0.504301130771637, 0.645557701587677], "2_bias": [-0.13841335475444794, -0.3025387227535248, 0.03411049023270607]}