{"triplane_resolution": 4096, "triplane_voxel_size": 0.0009765625, "sparse_grid_resolution": 512, "sparse_grid_voxel_size": 0.0078125, "range_features": [-7.0, 7.0], "range_density": [-14.0, 14.0], "data_block_size": 8, "atlas_width": 1953, "atlas_height": 522, "atlas_depth": 9, "num_slices": 9, "slice_depth": 1, "0_weights": [[-0.1517637073993683, 0.4836403727531433, -0.13370917737483978, 0.13690143823623657, 1.817107915878296, 2.6436946392059326, 0.09219824522733688, -2.0135223865509033, -0.05653327330946922, 3.2799150943756104, 0.8927357792854309, -0.7071200013160706, 0.3528425395488739, 1.774956464767456, -0.49717631936073303, 0.5878721475601196], [-0.27935218811035156, 0.21958278119564056, -0.016530362889170647, 0.2676234245300293, 0.13377170264720917, -0.019374635070562363, -0.20558589696884155, -0.8480731248855591, -0.033633776009082794, 0.6293755173683167, 0.5975068807601929, -0.17530612647533417, -0.004123771097511053, 1.1398032903671265, -0.2539540231227875, -0.17244471609592438], [-0.2455967664718628, -1.3523476123809814, -0.06805996596813202, -1.591476321220398, -1.316786289215088, -1.7415467500686646, -0.003302356693893671, -0.5651206374168396, -0.032084204256534576, -1.8040452003479004, -1.8855044841766357, 1.112764835357666, -0.2572613060474396, 0.5584945678710938, 0.4592823088169098, -0.14635401964187622], [-0.11480218917131424, 0.03491915762424469, -0.24659860134124756, 0.6933344006538391, 0.5952492952346802, -0.9449940323829651, -0.0328371524810791, -0.6681340932846069, -0.10672957450151443, 0.4571402072906494, -0.18665705621242523, -0.21060071885585785, 0.228764608502388, -0.7626132369041443, -1.5827101469039917, 0.03824404627084732], [0.041666820645332336, -0.02532089315354824, -0.27107203006744385, 0.654661238193512, 0.7511914372444153, -0.7496058344841003, -0.08877729624509811, -0.4594382345676422, 0.10509790480136871, 0.17337089776992798, 0.016384873539209366, 0.013576395809650421, 0.306780606508255, -0.736828625202179, -1.769518256187439, 0.17694583535194397], [-0.16203568875789642, -1.3905918598175049, -0.19870860874652863, 0.3856865167617798, -1.6763908863067627, -1.1556087732315063, -0.2000417858362198, 1.5836008787155151, -0.19991417229175568, 1.5927700996398926, 2.858156204223633, 0.27458369731903076, -2.325092315673828, 3.4535484313964844, 0.12878701090812683, 0.9699843525886536], [-0.1846276968717575, 0.11972317844629288, -0.13626785576343536, 0.8080922961235046, 0.5961872935295105, -0.8337079286575317, -0.1601697951555252, -0.7414100170135498, 0.08675070106983185, 0.49372512102127075, -0.022362563759088516, -0.032743699848651886, 0.5072949528694153, -0.8201513886451721, -1.584890365600586, 0.0702587142586708], [0.038313739001750946, -0.012155941687524319, -0.12524664402008057, -0.1726311892271042, 0.4283752143383026, 0.11269471049308777, -0.022173356264829636, 0.22676588594913483, -4.898768020211719e-05, -0.14538846909999847, 0.22638766467571259, 0.21570949256420135, -0.21565181016921997, 0.04416690394282341, 0.09469452500343323, 0.1883450299501419], [0.01669677160680294, -0.47673723101615906, 0.061058517545461655, -2.2954814434051514, 0.4497622847557068, 0.03943288326263428, -0.16098646819591522, -0.009324559010565281, -0.234575092792511, 0.3199886083602905, -0.5765582323074341, 0.04779362305998802, -0.0025787276681512594, 0.05610727518796921, 0.14738653600215912, -0.11737357825040817], [-0.15208347141742706, -0.23036660254001617, -0.06968992203474045, -0.2606223225593567, -0.021615594625473022, -0.429600328207016, 0.05467939004302025, -0.48091527819633484, 0.11819105595350266, 0.1176736056804657, 0.12879391014575958, -0.25761738419532776, 1.0651893615722656, 0.04619884118437767, -0.1661192774772644, -0.18627561628818512], [0.15631583333015442, 0.1418803483247757, -0.03404371440410614, -0.32690009474754333, 0.013224522583186626, 0.18947504460811615, -0.040138233453035355, 0.034155212342739105, 0.14818277955055237, 0.05990171805024147, 0.11121752858161926, 0.11284518986940384, -0.29643645882606506, 0.02697817049920559, -0.07074275612831116, 0.0966484546661377], [-0.13382162153720856, -0.7610030770301819, 0.04830985888838768, -2.145914077758789, 0.3917279541492462, 0.16274121403694153, -0.04032143950462341, 0.10425575077533722, 0.039209820330142975, 0.1399659663438797, -0.4933181405067444, -0.028779711574316025, 0.14627544581890106, -0.08793295174837112, 0.10415729135274887, -0.2676696181297302], [-0.13139696419239044, -0.3779506981372833, 0.18501326441764832, 0.06149850785732269, -0.15406008064746857, -0.0929306223988533, -0.0894278809428215, -0.37972763180732727, 0.019034771248698235, -0.009760793298482895, 0.09931846708059311, -0.21384863555431366, 1.1241556406021118, 0.09917108714580536, -0.2004116326570511, 0.03074255771934986], [0.027709316462278366, -0.03649237006902695, -0.035682614892721176, -0.5554327368736267, -0.15723812580108643, -0.28963398933410645, -0.024612534791231155, -0.09511027485132217, -0.09190963208675385, 0.0555582158267498, 0.24048730731010437, 0.13419708609580994, -0.14188577234745026, -0.0604337602853775, -0.019398175179958344, 0.52992182970047], [-0.22309382259845734, -0.45255225896835327, -0.15802067518234253, -1.167130708694458, 0.2531943917274475, -0.12775076925754547, 0.03634550794959068, -0.016695713624358177, 0.08536428958177567, 0.16836196184158325, -0.33265939354896545, 0.3796747028827667, 0.07288537174463272, 0.07663046568632126, 0.15357442200183868, 0.09749198704957962], [-0.025773508474230766, -0.45938563346862793, -0.07639965415000916, -0.14747533202171326, -0.024478189647197723, -0.026111459359526634, 0.20209825038909912, -0.029696572571992874, 0.10548724234104156, 0.002690414898097515, 0.04380129277706146, 0.27346113324165344, 0.8933221101760864, 0.0019285244634374976, -0.05353504791855812, 0.1119714304804802], [0.1937926709651947, 0.24478690326213837, -0.07603465020656586, 0.5254831910133362, -0.3630017042160034, 0.012969326227903366, 0.1224793791770935, 0.04306056350469589, -0.050116702914237976, -0.19224990904331207, 0.0835656076669693, 0.11940764635801315, -0.3630732297897339, 0.15688548982143402, -0.19265638291835785, 1.06110680103302], [-0.05014147236943245, -0.10347934812307358, -0.10138542950153351, 0.9164922833442688, 0.3756687045097351, -0.13264943659305573, 0.04682951048016548, 0.015032869763672352, -0.033395592123270035, -0.011141117662191391, 1.1610212326049805, 0.032777056097984314, 0.17545177042484283, -0.11488485336303711, -0.07522081583738327, -0.2953683137893677], [0.0814087837934494, 0.026209069415926933, 0.036112431436777115, 0.7031639814376831, 0.37708476185798645, -0.3998773396015167, 0.02122715674340725, 0.5445317029953003, 0.08788620680570602, -0.004008878488093615, -0.7652019262313843, 1.6488054990768433, -2.0803029537200928, -0.016125507652759552, -0.00514253368601203, -0.16817346215248108], [0.10987876355648041, -0.10566772520542145, 0.07456924766302109, -0.12292782962322235, 0.06935831904411316, 0.07823244482278824, -0.010791263543069363, -0.05713885650038719, -0.002898844890296459, 0.04756642132997513, -0.01415401790291071, -0.38564056158065796, 0.3126879632472992, 0.0015402856515720487, 0.057511959224939346, 1.099861741065979], [0.06319224089384079, -0.6194289326667786, -0.15727460384368896, 0.41970086097717285, 0.03666491433978081, 0.07863849401473999, 0.13141077756881714, -0.03520767763257027, 0.0948840007185936, -0.03433698043227196, -0.2099989354610443, -0.0594162754714489, -0.1148102805018425, 0.012025409378111362, -0.050252195447683334, 0.2716328203678131], [-0.1945420652627945, 0.02074972726404667, 0.018627788871526718, 0.05376735329627991, -0.06212235242128372, 0.5962756276130676, 0.13154321908950806, -0.0017446695128455758, 0.04375450313091278, -0.05261187627911568, 0.3111770749092102, -0.951284646987915, 2.970184087753296, -0.060405053198337555, 0.2401045858860016, 0.574841320514679], [-0.3454534411430359, 0.14415469765663147, -0.04870116710662842, -0.33494147658348083, -0.12055592238903046, 0.6558617949485779, -0.10378574579954147, 0.5139749050140381, -0.09744532406330109, -0.4874033033847809, -0.8618330955505371, -0.01803993247449398, -0.40387487411499023, -0.18920691311359406, 0.6314716339111328, -0.33818569779396057], [-0.41996097564697266, 0.16119304299354553, -0.1607893407344818, -0.956002950668335, -0.2919065058231354, 0.5447419285774231, -0.22436149418354034, 0.5982385277748108, -0.2092578262090683, -0.5095119476318359, -0.40459784865379333, -0.17726095020771027, -0.5417642593383789, -0.04753446578979492, 0.8976866602897644, 0.01625581458210945], [-0.23919767141342163, 0.09492558240890503, -0.2672743499279022, -1.0349806547164917, -0.08293694257736206, 0.5001274347305298, -0.21671436727046967, 0.5581815838813782, -0.1537385731935501, -0.48996901512145996, -0.6836097240447998, -0.42053619027137756, -0.8650006651878357, -0.1444135457277298, 0.8353241086006165, -0.14014574885368347], [-0.1457090973854065, 0.021543867886066437, -0.06663703918457031, 0.9444763660430908, 0.3581904470920563, 1.8221580982208252, -0.021299511194229126, 0.21266333758831024, 0.10445106029510498, -0.09309456497430801, -1.0740138292312622, -0.019801737740635872, 0.2607773244380951, -0.3637368679046631, 0.06726647913455963, -1.9437503814697266], [-0.13587075471878052, 0.7404055595397949, -0.1475808322429657, -1.389448642730713, -0.4538363814353943, 0.6305140852928162, -0.22212818264961243, 1.0305525064468384, -0.01780511997640133, -0.5341703295707703, -0.07000378519296646, 0.12029850482940674, 0.4662848114967346, 0.10659279674291611, 2.0606396198272705, 0.6587896347045898], [-0.09350171685218811, -0.07097893953323364, -0.09516622126102448, -3.0929017066955566, -0.36065247654914856, 0.28554901480674744, -0.15349344909191132, 0.2970627546310425, -0.21969416737556458, -0.8249423503875732, -0.8488361835479736, -0.5036949515342712, -4.162981986999512, 0.021696951240301132, 1.4873073101043701, -0.301636666059494], [-0.0926615297794342, -0.9035617709159851, 0.07167674601078033, -1.1308430433273315, -0.054120779037475586, -0.5800361633300781, -0.006776814814656973, -0.11805775761604309, -0.04548948258161545, -0.4233725368976593, 0.7419503331184387, 2.244633436203003, 1.9228992462158203, 0.291646808385849, 1.4534498453140259, -1.391926646232605], [0.14792177081108093, 0.2414843738079071, -0.04448363929986954, 1.5658682584762573, 0.19205960631370544, 1.110072135925293, 0.050651732832193375, -0.34920549392700195, 0.1103578582406044, -0.15538272261619568, -0.12153872847557068, -0.8087723851203918, 1.486687183380127, 0.030884917825460434, -1.52583909034729, 0.9694246649742126], [0.20736803114414215, -0.4854193925857544, 0.06222312152385712, -0.16228961944580078, 0.03350245580077171, 1.3297005891799927, 0.11899137496948242, 0.1728699505329132, 0.12454375624656677, 0.5340383648872375, -0.5287261009216309, 1.5171397924423218, 0.8099623918533325, -0.19341987371444702, 0.18676312267780304, 1.051897406578064], [-0.09819391369819641, 0.1453145146369934, -0.044020190834999084, -0.0914701521396637, 0.060967039316892624, 0.7246761918067932, 0.027158493176102638, -0.05760032311081886, 0.04209618270397186, 0.007427433039993048, -0.22904455661773682, 2.3341379165649414, -0.37963515520095825, 0.134296253323555, -0.1079515889286995, 0.4522768259048462], [0.09060264378786087, -0.6892609596252441, 0.014414525590837002, 0.22773711383342743, 0.5832364559173584, -0.014018496498465538, 0.02074410580098629, 0.03187285736203194, 0.037496697157621384, 0.11819461733102798, -0.746908962726593, 0.2406647950410843, -0.050196148455142975, -0.0848001167178154, 0.9829279780387878, 0.13225576281547546], [-0.09092158824205399, 0.22691339254379272, -0.04789303243160248, -0.4059584438800812, -0.07305510342121124, -0.09286541491746902, 0.038293689489364624, -0.05478658527135849, -0.09631000459194183, -0.054761167615652084, 0.42152875661849976, 0.25650128722190857, -0.7735808491706848, 0.02679244987666607, -0.40285465121269226, -0.2892480790615082]], "1_weights": [[0.06177406758069992, 0.08089835941791534, -0.019715916365385056, -0.14742028713226318, 0.03024131804704666, 0.041526611894369125, 0.0818287804722786, -0.014343369752168655, -0.07117906212806702, -0.29652273654937744, 0.044160109013319016, -0.2883050739765167, -0.087796151638031, -0.023460905998945236, -0.2146700769662857, -0.07611117511987686], [-0.20009033381938934, -0.2597012221813202, -1.0072360038757324, -3.9423751831054688, -0.016526157036423683, 0.14312447607517242, 0.11198955029249191, -0.3061274290084839, -0.11982715129852295, -0.1991562843322754, 0.08994650840759277, -0.21608760952949524, -0.41148141026496887, 0.04265506938099861, -0.22938181459903717, -0.04974548891186714], [-0.11989187449216843, 0.04711120203137398, 0.22831940650939941, 0.09110116958618164, -0.15066289901733398, -0.07896271347999573, -0.020225150510668755, 0.12491515278816223, 0.03761216253042221, -0.26027965545654297, 0.12637008726596832, -0.02662338875234127, 0.07248973101377487, -0.0008641325985081494, 0.0708494633436203, -0.25021588802337646], [-0.9205808043479919, -0.6934659481048584, 1.0447672605514526, -3.7931089401245117, 0.2030087262392044, 0.7427812218666077, 0.001956590684130788, -5.313513278961182, -0.27265793085098267, -0.6247368454933167, -0.5924950242042542, -0.32165852189064026, 0.9995598793029785, -0.11376386880874634, 0.7150768637657166, 0.8682574033737183], [-0.9244759678840637, -0.7366935014724731, -3.777752637863159, -0.31922194361686707, 0.21694329380989075, 0.7329789996147156, 0.2095041424036026, -0.5419671535491943, 0.12495908886194229, -0.7648029327392578, -0.012696119956672192, -0.29378387331962585, -0.19970761239528656, 0.12203450500965118, 0.06584763526916504, 0.09216232597827911], [0.5372607111930847, -0.4643002152442932, -0.8474185466766357, 0.08050508052110672, 0.18317149579524994, 0.87209153175354, 0.27566826343536377, 0.7629656195640564, 0.6254802942276001, 0.2826624810695648, 0.11112549155950546, 0.40996238589286804, 0.701886773109436, -0.013010003603994846, 0.7255487442016602, 0.7180472612380981], [0.32887059450149536, 0.08008798211812973, -0.09879949688911438, 0.06040200591087341, -0.11328364163637161, 0.05968816578388214, -0.2839096188545227, 0.18423785269260406, -0.24633067846298218, 0.040195953100919724, 0.25866299867630005, -0.15817950665950775, -0.07688013464212418, -0.04787721857428551, -0.08288644254207611, 0.12316744774580002], [-0.10967712104320526, 0.16084808111190796, -2.0526676177978516, -0.00300901522859931, -0.2125653624534607, -0.3641262352466583, 0.3934093713760376, 0.5561027526855469, 0.8937392234802246, 0.3434194326400757, -0.24496272206306458, 0.3480895161628723, -0.32681962847709656, 0.7378159761428833, 0.21891866624355316, 0.31032034754753113], [0.06318243592977524, -0.07875321805477142, 0.3563588559627533, -0.10095739364624023, -0.08081842213869095, -0.09607677906751633, 0.006343577057123184, -0.1172991544008255, 0.0624726340174675, -0.025806931778788567, -0.01683332771062851, 0.029055768623948097, -0.0019583478569984436, -0.11047890782356262, 0.22175580263137817, -0.16383610665798187], [-0.2466644048690796, -0.3315359652042389, -5.087573051452637, 0.6200962662696838, 0.5478614568710327, -1.6983299255371094, -0.4504278302192688, -0.695412814617157, -0.18230889737606049, 0.14274601638317108, 0.4837147891521454, -0.1529914289712906, 0.22699278593063354, -0.21309715509414673, 0.7746594548225403, -0.44160979986190796], [-0.698619544506073, -2.070371150970459, -3.6788551807403564, -1.333669900894165, 0.5382718443870544, -0.6696657538414001, 0.6808362603187561, 0.6334882974624634, 0.35936495661735535, 0.7029628157615662, 0.9700255990028381, 1.907196283340454, 0.9001392126083374, 0.8850368857383728, 0.3881775438785553, -0.0027875627856701612], [0.1452275812625885, 0.2102501392364502, 0.24608691036701202, -0.13994644582271576, -0.3773888945579529, -1.8275809288024902, -0.029331404715776443, -0.14809733629226685, -0.0828825831413269, 0.013665346428751945, -0.2513732314109802, -1.8917465209960938, -0.6587826013565063, -0.1576930284500122, -0.9672272801399231, -0.4490811228752136], [-0.47673100233078003, -1.461745262145996, 5.060734272003174, -2.5659332275390625, 1.6740080118179321, 0.740332305431366, 2.533787250518799, -1.3792179822921753, 1.9292393922805786, -1.2487270832061768, 2.898294687271118, -0.08155827224254608, -1.312347173690796, 1.3502278327941895, 1.4756925106048584, -3.1411540508270264], [-0.08553460240364075, 0.5296043157577515, 0.10054908692836761, -0.1708931177854538, 0.8723352551460266, -1.6958593130111694, -0.7643958330154419, 1.3558235168457031, 0.19098906219005585, 0.06292879581451416, -1.4199037551879883, 0.965336263179779, 0.3460635840892792, 0.5033151507377625, 0.7179739475250244, -0.9881496429443359], [0.04534535109996796, 0.6217061281204224, -0.403601735830307, -0.1872348040342331, -0.8840907216072083, -3.5772628784179688, -0.12815459072589874, 0.3299259543418884, -0.4426974952220917, 0.3374486267566681, -1.519622564315796, 0.030097641050815582, -0.27689242362976074, -0.2201491743326187, -1.7225624322891235, -0.7693226337432861], [-0.4593009054660797, -1.6770578622817993, 0.695827066898346, -1.4767370223999023, 0.03843832015991211, -0.2890462577342987, -0.18837721645832062, -0.6358504295349121, 0.2976941168308258, -0.3060433268547058, 0.06772726029157639, -0.14397157728672028, 0.9512388110160828, 0.05000076815485954, 0.5412757396697998, -0.35709142684936523]], "2_weights": [[0.29799818992614746, 0.4566362798213959, 0.5216359496116638], [-0.38985270261764526, -0.5165358185768127, -0.468910813331604], [2.0443613529205322, 2.025993585586548, 1.856896162033081], [-0.4667070508003235, -0.36328986287117004, -0.3350124657154083], [-0.7313812971115112, -0.38025352358818054, 0.2569989562034607], [-0.5885500907897949, -0.4470594823360443, -0.28932756185531616], [0.011134634725749493, -0.1486128270626068, -0.39379218220710754], [-3.7150795459747314, -3.430551528930664, -2.187241554260254], [-0.2658567428588867, -0.23337097465991974, -0.12185505777597427], [-0.2987738251686096, -0.25070950388908386, -0.22512570023536682], [-0.3938133716583252, -0.1853884905576706, 0.03142775595188141], [0.5869386196136475, 0.5421688556671143, 0.43848446011543274], [-0.6220697164535522, -0.5260761976242065, -0.2769796550273895], [-0.19848421216011047, -0.2201126217842102, -0.26133209466934204], [1.1198704242706299, 0.9034894704818726, 0.38487017154693604], [-0.333848237991333, -0.291393518447876, -0.19682227075099945]], "0_bias": [-0.18554912507534027, 0.07413890957832336, -0.013606424443423748, -0.7134889960289001, -0.11630414426326752, 0.7423737645149231, -0.0010282892035320401, 0.5716606974601746, -0.1160307228565216, -0.37703704833984375, -0.7533842325210571, -0.24092009663581848, -0.7689590454101562, 0.03258891403675079, 0.6636602878570557, -0.15749894082546234], "1_bias": [-0.5014916658401489, 1.110360860824585, -0.6542592644691467, 0.856607973575592, -1.6683820486068726, -0.14145104587078094, 0.8676580190658569, -2.0378170013427734, 0.30328378081321716, 1.0808347463607788, 0.4840678572654724, -0.9076140522956848, -0.5217922329902649, 0.6722135543823242, -1.1033265590667725, 0.4508431553840637], "2_bias": [-0.5806861519813538, -0.4688148498535156, -0.4454846978187561]}