{"triplane_resolution": 4096, "triplane_voxel_size": 0.0009765625, "sparse_grid_resolution": 512, "sparse_grid_voxel_size": 0.0078125, "range_features": [-7.0, 7.0], "range_density": [-14.0, 14.0], "data_block_size": 8, "atlas_width": 1872, "atlas_height": 531, "atlas_depth": 9, "num_slices": 9, "slice_depth": 1, "0_weights": [[0.4922664761543274, -0.22848990559577942, -0.2507335841655731, -1.8479442596435547, 2.40441632270813, 0.9919450879096985, -0.13305291533470154, 0.7314828038215637, 0.04210994020104408, -0.7005340456962585, -0.1726021021604538, 0.24070557951927185, 0.5478348731994629, -1.1001249551773071, 0.2521064281463623, -1.6826019287109375], [-0.5911386013031006, -0.08964820951223373, -0.35258281230926514, 1.3518301248550415, 1.9829341173171997, 0.6632195711135864, 0.3271225094795227, -0.8609387874603271, 0.7143695950508118, -0.723848819732666, -0.052412014454603195, -1.3170114755630493, -0.04036005958914757, 0.20072349905967712, -0.029286636039614677, 0.04482635483145714], [-0.23102134466171265, 1.0039094686508179, -0.15633101761341095, 1.149925947189331, 0.670770525932312, 1.2607531547546387, -1.4774316549301147, -0.5756082534790039, 0.21081945300102234, 0.7164746522903442, -0.1455262154340744, 2.1377112865448, -1.115729808807373, 0.685090959072113, -0.15103615820407867, -0.6717429161071777], [0.04540418088436127, 0.019154774025082588, -0.37170711159706116, -2.2835147380828857, 0.17158816754817963, -4.0244903564453125, 1.2259860038757324, 3.3379790782928467, -1.2071822881698608, -0.38359907269477844, 0.013653884641826153, -0.6328316926956177, 1.1312711238861084, 0.031431250274181366, -2.9650251865386963, 2.6632392406463623], [0.6447145938873291, -0.9096503853797913, -0.33017268776893616, -0.6720544099807739, -0.9986550211906433, -0.06237855553627014, -1.7171670198440552, -0.6988971829414368, 0.4709192216396332, 1.166171908378601, -0.11209632456302643, -0.4495663344860077, -0.9848573207855225, 2.615640163421631, -0.7102082371711731, 0.22636757791042328], [-0.8460261821746826, -0.005714617669582367, -0.10897517949342728, -0.00944904237985611, -1.64014732837677, -1.468923807144165, -0.8076568841934204, -1.43630051612854, -0.49293988943099976, -0.5654469132423401, -0.1894654482603073, -1.5965044498443604, 0.6874262094497681, -1.6977345943450928, 2.259808301925659, -0.2473711222410202], [-0.2889365553855896, 0.2524740397930145, -0.22618789970874786, -0.48101356625556946, -1.5021257400512695, -0.4985271096229553, -0.45109671354293823, -0.21703919768333435, 0.04212917387485504, 0.7538810968399048, -0.17774052917957306, -0.4086402952671051, -0.49260327219963074, 0.22817322611808777, -1.5844298601150513, -0.2650212347507477], [-0.1388038694858551, 0.18513816595077515, -0.003687584074214101, -0.18440525233745575, -0.32776156067848206, -0.2209082841873169, 0.039520036429166794, -0.20161695778369904, -0.4410470426082611, 0.031376853585243225, -0.030191045254468918, -0.0901617482304573, -0.3784780502319336, 0.12676721811294556, 0.022894149646162987, -0.4388769268989563], [0.41373369097709656, -0.165008544921875, 0.09859448671340942, 0.6456385850906372, 0.0819055438041687, -0.32062724232673645, -0.02909925766289234, 0.01843959465622902, -0.2526969611644745, -0.33498868346214294, -0.020878540351986885, 0.18602852523326874, 0.22952821850776672, -0.34773018956184387, 0.14894816279411316, 0.4426751732826233], [-0.025874564424157143, 1.3106660842895508, -0.07297820597887039, 0.14846986532211304, 0.19882330298423767, -0.2161540687084198, -0.20270663499832153, 0.10575100779533386, 0.573614239692688, 0.5015900731086731, -0.09065757691860199, -0.2613151967525482, -0.1622338742017746, 0.012495986185967922, 1.0908316373825073, 0.12174523621797562], [-0.37181025743484497, -0.002258897526189685, -0.0888705924153328, -0.007534457836300135, -0.159417986869812, 0.0013303671730682254, 0.07781165093183517, 0.05849292874336243, -0.30780595541000366, -0.18739169836044312, -0.037891991436481476, 0.16999664902687073, -0.43638792634010315, 0.06540872901678085, 0.20255215466022491, -0.26965683698654175], [0.4212966859340668, -0.009832708165049553, 0.0023399447090923786, 0.5499933958053589, -0.0025558657944202423, -0.21331480145454407, 0.0425422266125679, 0.1669749617576599, -0.1837080866098404, -0.2114749550819397, -0.05564793571829796, -0.13234290480613708, 0.10097547620534897, -0.5253503918647766, 0.19582483172416687, 0.19694332778453827], [0.055005066096782684, 1.0942093133926392, 0.00015934757539071143, 0.04702236130833626, 0.0584590844810009, -0.3459542393684387, -0.30008652806282043, -0.14521872997283936, 0.20460426807403564, 0.1707877814769745, 0.07789469510316849, -0.3490830063819885, 0.027578001841902733, 0.07487241178750992, 0.8576537370681763, 0.07910420745611191], [-0.6484158635139465, -0.1206623762845993, -0.011117400601506233, 0.015580025501549244, 0.0956735834479332, -0.10928265750408173, 0.016624389216303825, -0.008794091641902924, -0.10582925379276276, -0.4196832478046417, -0.08349937945604324, -0.00527193071320653, 0.01473240926861763, 0.26310858130455017, -0.03657228872179985, 0.014509468339383602], [0.1519349068403244, 0.023108577355742455, 0.014838261529803276, 0.4586045444011688, -0.10821478068828583, 0.025841636583209038, -0.04621360823512077, -0.300934761762619, -0.3481435477733612, 0.49031442403793335, 0.013014729134738445, -0.3743112087249756, -0.42673587799072266, -0.5295488238334656, 0.4029548764228821, -0.1817682683467865], [-0.3180966079235077, 1.0525423288345337, 0.12549754977226257, -0.3392808139324188, -0.016588957980275154, -0.2595117390155792, -0.14199954271316528, -0.15551023185253143, 0.21568401157855988, 0.18472914397716522, 0.13303950428962708, -0.08886124193668365, 0.006509287282824516, 0.2573879063129425, 0.6500414609909058, 0.12650568783283234], [-1.7727131843566895, 0.18797548115253448, -0.16118751466274261, 0.43586891889572144, -0.10126343369483948, -0.19412653148174286, 0.0991491824388504, -0.08965909481048584, 0.8573551774024963, -0.6137012839317322, 0.027111399918794632, -0.4006666839122772, 0.7865520119667053, -0.8686509728431702, -0.23220296204090118, -0.5284261703491211], [-0.6351374983787537, 0.17931881546974182, -0.08692342787981033, 0.3042604923248291, 0.22277981042861938, -0.006898797117173672, 0.10785890370607376, -0.06141334027051926, -0.6477116346359253, 0.25828954577445984, -0.0582277774810791, -0.30218878388404846, -1.297951340675354, -0.7248627543449402, 0.25994086265563965, 0.318831205368042], [0.058351729065179825, 0.0005116848624311388, -0.03278614953160286, -0.8644554018974304, -0.07437600195407867, 0.34505563974380493, 0.15477217733860016, 0.06866376101970673, -0.15681512653827667, -0.0006814998923800886, 0.02374701015651226, 0.2694152891635895, 0.10169357061386108, 1.085612177848816, -2.296046495437622, 0.2885774075984955], [-0.7306528091430664, -0.14880335330963135, 0.025284718722105026, 0.36582037806510925, 0.11273691803216934, 0.132940411567688, -0.004950780887156725, 0.10976383835077286, -0.1733851283788681, 0.6295055150985718, 0.1062292605638504, -0.03713948652148247, -0.19440937042236328, 0.044613342732191086, -0.008427513763308525, 0.5416838526725769], [-0.2455308586359024, -0.0012625070521607995, -0.06213684007525444, -0.017433887347579002, -0.005955736618489027, 0.004352272488176823, 0.0154958451166749, 0.05131068453192711, -0.9284642338752747, 0.06839416921138763, -0.05700113996863365, 0.057477306574583054, -1.0063930749893188, 0.9880722165107727, -0.029069257900118828, 0.016884272918105125], [-0.4410187900066376, -0.6757627725601196, -0.05643272399902344, -0.21505106985569, -0.11228382587432861, 0.057825058698654175, 0.12029122561216354, 0.05787889286875725, -0.6662265062332153, 0.02890387922525406, -0.029988858848810196, 0.08236011862754822, -0.814978301525116, 0.3211522698402405, 3.1795668601989746, 0.08565694838762283], [-0.43873363733291626, -0.13415630161762238, -0.39274147152900696, 0.11134803295135498, 0.5249334573745728, 0.18871980905532837, 0.6312193274497986, 0.5979447960853577, -0.0647350400686264, -0.032475538551807404, -0.2461225837469101, 0.5788193345069885, 0.03234253451228142, -0.6346799731254578, -0.5836155414581299, 0.12810185551643372], [-0.7272282242774963, 0.27143147587776184, -0.3041594922542572, -0.2237001657485962, 0.25281068682670593, 0.5065894722938538, 0.5646971464157104, -0.004008361604064703, -0.2852560877799988, 0.11054889857769012, 0.03906761854887009, 0.5615027546882629, -0.33805856108665466, -0.5896669626235962, -0.5322068929672241, 0.4154052436351776], [-0.5005380511283875, 0.03430742025375366, -0.3757129907608032, -0.12529341876506805, 0.5836552381515503, 0.46056151390075684, 0.6980539560317993, 0.48238852620124817, -0.05573157221078873, 0.3164075016975403, -0.18090157210826874, 0.6590132713317871, 0.008859103545546532, -1.0134514570236206, -1.05120050907135, 0.3277354836463928], [-0.3150295615196228, 0.1051919162273407, -0.05995235592126846, 0.07277511805295944, 0.5359752178192139, -0.06386658549308777, 0.8661433458328247, 0.8996882438659668, -0.061088208109140396, -0.48891332745552063, -0.15503451228141785, 0.6305537223815918, 0.8185988664627075, -0.4264647364616394, 0.0580514594912529, 0.3303542733192444], [-1.0062607526779175, 0.24761052429676056, -0.20663177967071533, -0.5125468373298645, -0.048711296170949936, 0.7902986407279968, 0.40689870715141296, -0.37775149941444397, -1.2817206382751465, 0.05915293097496033, -0.007116938009858131, 0.5074477195739746, -2.9895262718200684, 0.15038882195949554, 0.7526342868804932, 0.5003024935722351], [-1.6290448904037476, 0.37591293454170227, -0.0847800076007843, 0.22212673723697662, 0.5106368660926819, 0.013901229947805405, 0.9343843460083008, 0.7513282299041748, -0.08190912008285522, 0.8582995533943176, -0.15204006433486938, 0.5827143788337708, -0.12373006343841553, -3.0724234580993652, -5.467852592468262, 0.3515365421772003], [-1.3344541788101196, -0.8164145350456238, -0.16775326430797577, -1.1293308734893799, -0.3189607262611389, -0.9960408806800842, -0.11636173725128174, -1.2927659749984741, 0.7878184914588928, -0.006368496920913458, 0.054290711879730225, -0.12841743230819702, -0.6458934545516968, 0.0960865318775177, 2.3466877937316895, 0.7002055048942566], [-1.5209347009658813, -1.3468295335769653, 0.20553123950958252, 0.7854742407798767, 0.012772254645824432, -0.19968274235725403, 0.00849627610296011, 0.5621438026428223, -2.147230863571167, 1.1794122457504272, 0.018604325130581856, 0.6184684038162231, -1.0559760332107544, 1.7282443046569824, 2.0949954986572266, 0.5606353878974915], [-0.8951503038406372, 0.16794641315937042, 0.33613747358322144, -1.2037900686264038, 0.012380280531942844, -0.025075770914554596, -0.1765373796224594, -0.3982618451118469, -0.42494744062423706, -0.3243831396102905, 0.10886560380458832, 0.12443922460079193, -1.1963576078414917, -0.16690082848072052, 0.48929569125175476, 0.2343634068965912], [0.5635841488838196, -1.676092267036438, -0.04656939581036568, -0.3920144736766815, 0.0921541079878807, -0.33320799469947815, -0.12750205397605896, -0.6846397519111633, 0.0660325139760971, 2.5589427947998047, 0.01600463129580021, 0.10655297338962555, 0.5406016707420349, -0.17000894248485565, -0.17125678062438965, 2.339513063430786], [1.9197142124176025, -0.007204808294773102, 0.19310657680034637, -0.20756115019321442, 0.10395074635744095, 0.17963850498199463, -0.06788022071123123, 0.0341307632625103, 2.443502902984619, 0.5067264437675476, 0.031331565231084824, 0.03077447973191738, 1.3325347900390625, 1.0601311922073364, -0.23973387479782104, 0.433523565530777], [-0.15142226219177246, 0.2879529595375061, 0.0679098516702652, -0.11640013754367828, -0.007582497783005238, -0.006350220646709204, 0.04205949604511261, 0.10299938917160034, -0.1711377650499344, 0.41155537962913513, -0.00025745152379386127, -0.022363930940628052, -0.11257776618003845, 0.4572750926017761, -1.6220060586929321, 0.2772327959537506]], "1_weights": [[0.8882278800010681, -1.5623865127563477, -0.28142228722572327, -0.5743324160575867, -0.03160629794001579, 0.1847573071718216, -0.07843667268753052, -6.447413921356201, 0.7326555252075195, -0.16378170251846313, -0.11625798791646957, -0.4015887677669525, 0.4686039686203003, -1.8293062448501587, 0.01924300380051136, 0.10731256753206253], [0.4584368169307709, -0.09065063297748566, -0.26396846771240234, 0.17980024218559265, 0.028358841314911842, 0.14133109152317047, -0.06372940540313721, -2.4972822666168213, 0.4829440414905548, 0.41503727436065674, 0.006180514115840197, 0.025927269831299782, 0.3109361231327057, -0.4955070912837982, -0.0902489647269249, -0.30827030539512634], [0.048195622861385345, 0.1076887920498848, 0.06110408529639244, -0.060377635061740875, 0.23780512809753418, -0.22590897977352142, 0.19246743619441986, -0.06630747765302658, -0.18740546703338623, 0.01927764154970646, 0.07156510651111603, -0.1613955944776535, -0.2455722987651825, -0.052903901785612106, -0.22168107330799103, 0.25976696610450745], [0.9849345088005066, -0.26744839549064636, 0.46999090909957886, 0.003187276655808091, 0.061824068427085876, 0.9157657623291016, 0.037487179040908813, -0.39632880687713623, 0.47985103726387024, -0.10660611093044281, 0.07626648247241974, -0.37468042969703674, 0.13989557325839996, -0.3873513340950012, -0.24631613492965698, 0.6367979049682617], [-0.33676162362098694, -0.10954336076974869, 0.10386967658996582, -0.33173054456710815, -0.40253934264183044, 2.123335123062134, -0.13728773593902588, 0.06287926435470581, 0.013996572233736515, 0.05950145423412323, 0.34355592727661133, 0.43454915285110474, -0.0837731882929802, -0.35389444231987, 0.058331847190856934, 0.23562821745872498], [0.499311238527298, 0.8279810547828674, -0.364675372838974, 0.08212860673666, 0.1756470799446106, -0.5834872126579285, -0.15672799944877625, 0.6143705248832703, 0.5939978361129761, 1.0057867765426636, 0.01707787625491619, -0.06955503672361374, 0.34184232354164124, -0.3079530894756317, -0.13753162324428558, -0.37459391355514526], [-0.9296145439147949, 0.35689446330070496, -2.012662649154663, 0.41081342101097107, -0.10647136718034744, 0.382085919380188, 0.03339502215385437, 0.4326927363872528, 0.04927123337984085, 0.8100213408470154, 0.4569087326526642, 0.7175145149230957, 0.7991127967834473, 0.24146458506584167, -0.04323575273156166, -0.07872113585472107], [0.08664150536060333, -0.6044984459877014, 1.0093551874160767, -0.39262378215789795, -0.07032284140586853, -0.3881544768810272, -0.12531201541423798, -0.6922218799591064, -0.08508792519569397, -1.1883065700531006, -0.08543138206005096, 0.20864130556583405, -0.08915697783231735, 0.5232540369033813, -0.15937399864196777, 0.3744199872016907], [-0.9225243926048279, -0.639306902885437, 0.12605980038642883, 0.33868408203125, -0.011273001320660114, -0.13605915009975433, -0.20169226825237274, -0.9501213431358337, -0.9398443102836609, 0.09069513529539108, -0.1015205979347229, 0.17657352983951569, -0.46193942427635193, -1.8947392702102661, -0.1208709329366684, 0.034159526228904724], [-0.9106699824333191, 0.694929301738739, -0.09169846773147583, -0.2392910271883011, -0.009575235657393932, 0.20017561316490173, -0.016316184774041176, -1.5859990119934082, 0.2016509473323822, -0.040916748344898224, 0.2724195718765259, 0.2740383446216583, 0.20586469769477844, 0.39387330412864685, -0.20069478452205658, -1.1428565979003906], [-0.14592312276363373, -0.054020896553993225, 0.16534362733364105, 0.08126115053892136, 0.10649313032627106, -0.1667466163635254, -0.006921764463186264, -0.18137459456920624, 0.07125107198953629, -0.08409744501113892, -0.00287273689173162, -0.04421946778893471, -0.02622486650943756, 0.06630660593509674, 0.2877404987812042, 0.15404270589351654], [0.5628402233123779, -0.3575548827648163, -1.0986272096633911, -0.38276728987693787, -0.3131060004234314, -0.1460021287202835, -0.2151176780462265, -0.12941090762615204, -0.00435505248606205, -0.231959730386734, 0.4411288797855377, -0.04589666426181793, 0.04880232363939285, -0.5999308228492737, -0.06005128473043442, 0.3613823652267456], [0.9738479256629944, 1.4755396842956543, -0.36038970947265625, -0.6372997164726257, -0.46743494272232056, -0.4197534918785095, -0.0017824636306613684, -7.076608180999756, 1.1640856266021729, -0.4238148331642151, 0.11748990416526794, -0.22727300226688385, 0.6683383584022522, -0.7842451333999634, 0.021880008280277252, 0.11320304125547409], [-4.368346691131592, 0.44099968671798706, 0.02320285141468048, 0.14896972477436066, 0.029871350154280663, 0.4683452546596527, -0.6603146195411682, 0.4362679123878479, -0.541923463344574, 0.4427034556865692, -0.17034484446048737, 1.5708420276641846, 0.3769403398036957, 1.4637008905410767, -0.26234978437423706, -2.0830955505371094], [5.948728084564209, -0.7610660791397095, 8.092039108276367, -2.7722036838531494, -0.21635577082633972, -3.982917547225952, -0.02460273914039135, -0.10247514396905899, 0.14482611417770386, -1.0411359071731567, -2.4575693607330322, -2.242325782775879, -1.4840127229690552, 2.217179536819458, 0.07299067825078964, -1.6265525817871094], [0.030355079099535942, -0.9476485848426819, 0.069292813539505, 0.42298948764801025, -0.10315092653036118, -0.2835307717323303, -0.25943922996520996, -0.7580624222755432, -0.7526095509529114, 0.3996241092681885, -0.317909836769104, -0.22041048109531403, -0.256303071975708, -0.2989453971385956, -0.17020611464977264, 0.937343180179596]], "2_weights": [[0.42515334486961365, 0.3422453701496124, 0.23921756446361542], [-0.4056941568851471, -0.29627758264541626, -0.18781475722789764], [0.31901174783706665, 0.3319210410118103, 0.2853538691997528], [0.18621496856212616, 0.08487670868635178, -0.12268563359975815], [-0.09039819240570068, -0.04479434713721275, 0.20607449114322662], [-0.29999640583992004, -0.26522740721702576, -0.23042143881320953], [-0.07141343504190445, -0.08856138586997986, 0.10390409827232361], [-0.2940734922885895, -0.26285672187805176, -0.22041302919387817], [-0.3836131691932678, -0.23813802003860474, -0.055040813982486725], [-0.34809866547584534, -0.2747833728790283, -0.10452467203140259], [0.03885301202535629, -0.046803396195173264, -0.2748139500617981], [-0.42148056626319885, -0.3334958851337433, -0.10882474482059479], [-0.1513039618730545, -0.24824653565883636, -0.3696896433830261], [0.6092305779457092, 0.48215919733047485, 0.1425514966249466], [0.013934887014329433, -0.09529391676187515, -0.3389008045196533], [-0.5232226252555847, -0.426362007856369, -0.22471104562282562]], "0_bias": [-0.7082550525665283, -0.06234773248434067, -0.3584275543689728, -0.08308294415473938, 0.5643380284309387, 0.33848029375076294, 0.6906799674034119, 0.38446465134620667, -0.07925920188426971, -0.07938309013843536, -0.0009310966124758124, 0.5847686529159546, -0.09682590514421463, -0.6826838850975037, -0.7333506345748901, 0.136431023478508], "1_bias": [0.341946005821228, 0.11999126523733139, 1.0427041053771973, 0.38993534445762634, -0.33122551441192627, -0.9433988332748413, -0.3386150300502777, 0.5382207036018372, 0.35084429383277893, -0.6046913266181946, -0.057681143283843994, 0.16450248658657074, -0.5048344135284424, 0.16960495710372925, -0.3219948709011078, -0.35889574885368347], "2_bias": [-0.1501053273677826, -0.19661091268062592, -0.4760119915008545]}