{"triplane_resolution": 4096, "triplane_voxel_size": 0.0009765625, "sparse_grid_resolution": 512, "sparse_grid_voxel_size": 0.0078125, "range_features": [-7.0, 7.0], "range_density": [-14.0, 14.0], "data_block_size": 8, "atlas_width": 1998, "atlas_height": 342, "atlas_depth": 9, "num_slices": 9, "slice_depth": 1, "0_weights": [[-1.0806795358657837, 0.404183954000473, 2.5358099937438965, -1.383650541305542, -0.22521576285362244, 2.0729026794433594, -1.1039577722549438, 0.3176860809326172, 0.4155868589878082, -1.2538808584213257, 0.9341192841529846, -3.7985286712646484, 2.3962655067443848, -2.7070789337158203, 2.4016377925872803, 0.4774940609931946], [0.15015631914138794, 0.5139809250831604, -0.44101762771606445, 0.36457183957099915, 2.550262928009033, 1.7522388696670532, -1.8954721689224243, 0.9835011959075928, -0.4262729287147522, 0.016184281557798386, 2.6115875244140625, 0.5015572905540466, 0.44289982318878174, 0.7877123355865479, 2.5508909225463867, 1.472586750984192], [0.5011633634567261, 0.36054727435112, -0.40089693665504456, -0.19848456978797913, 4.0213823318481445, 0.6101489663124084, -3.6183393001556396, 2.666661500930786, 1.4671893119812012, -0.12969058752059937, -0.23192301392555237, 3.7276320457458496, 0.45292437076568604, 4.322408199310303, 1.4987748861312866, 2.4873533248901367], [3.8243184089660645, 12.179965019226074, 14.340252876281738, 22.981950759887695, 11.393802642822266, 21.369495391845703, 7.860479354858398, 4.7903337478637695, -15.778581619262695, -3.1600050926208496, 8.982142448425293, 16.971969604492188, 8.672224998474121, -17.202821731567383, 16.928266525268555, -7.021843910217285], [-2.6205763816833496, 12.35059928894043, 11.830696105957031, 12.87338638305664, 11.70064640045166, 18.29343032836914, 3.11655592918396, 6.669127464294434, -13.776155471801758, -3.360959053039551, 3.9808807373046875, 18.648801803588867, 7.6515679359436035, -4.678379535675049, 11.037415504455566, -10.947278022766113], [0.6927802562713623, 0.013894259929656982, -0.13212886452674866, 0.44696420431137085, 1.2785747051239014, 1.4214019775390625, 0.2361728847026825, -0.09275924414396286, 0.08464303612709045, 0.06503776460886002, 0.17874324321746826, -1.4759491682052612, -3.2139296531677246, -0.1129281222820282, 0.5235863924026489, 0.10257525742053986], [-1.3468354940414429, 0.6457175612449646, -0.8469527959823608, -1.3754150867462158, -0.10924123972654343, 0.973706066608429, -1.8809993267059326, 1.5804461240768433, 1.8664413690567017, -0.6839709877967834, -2.6672134399414062, -0.5199038982391357, -0.07711338996887207, -0.5587093830108643, -1.1226779222488403, -0.05712183937430382], [-0.043479107320308685, -0.2581048905849457, -0.003604589030146599, 0.036163080483675, 0.07431887090206146, -0.03353001922369003, 0.00553125748410821, 0.02898118831217289, 0.5046641826629639, -0.09729620814323425, 0.0459330715239048, -0.0012590697733685374, -0.07030320167541504, -0.18007586896419525, -0.013050360605120659, -0.5537799596786499], [-0.21992230415344238, 0.7929466962814331, -0.01054864376783371, 0.19175824522972107, 0.09819392114877701, -0.3663780987262726, 0.10407522320747375, 0.24318286776542664, -0.38396838307380676, 0.029823625460267067, 0.0880976989865303, -0.1389635056257248, -0.5712650418281555, -0.052909236401319504, -0.055942703038454056, -0.4813711941242218], [-0.02581588737666607, -0.14098350703716278, -0.38889259099960327, -0.3770439624786377, 0.07078397274017334, 0.6739963889122009, -0.3534140884876251, 0.15446245670318604, -0.045951519161462784, 0.8196685314178467, -0.016247915104031563, 0.1516081541776657, -0.22047100961208344, -0.24353468418121338, -0.05416888743638992, 0.30294597148895264], [0.12550410628318787, -0.0045166341587901115, 0.0198894701898098, -0.04253649339079857, 0.0008406132692471147, -0.1840674877166748, -0.10378337651491165, 0.048186227679252625, 0.35849130153656006, -0.3468574583530426, 0.07999925315380096, -0.04536813497543335, -0.021930277347564697, -0.0954412892460823, 0.15772932767868042, -0.5540127158164978], [-0.38465648889541626, 0.9444180727005005, 0.07232457399368286, -0.0434737466275692, 0.14938165247440338, -0.30908429622650146, -0.1387198567390442, 0.397427499294281, -0.3830982744693756, 0.15910866856575012, 0.052955083549022675, -0.039225369691848755, -0.35752061009407043, 0.036754194647073746, -0.14153577387332916, -0.6003848910331726], [-0.26909783482551575, -0.038654036819934845, -0.20696604251861572, -0.43442094326019287, 0.03167632967233658, 0.5214033126831055, -0.2903413474559784, 0.3398411273956299, 0.17305497825145721, 1.0475897789001465, -0.07242944836616516, 0.2865524888038635, -0.172965407371521, -0.3157769441604614, -0.22033163905143738, 0.15297023952007294], [0.14334805309772491, 0.06189027428627014, 0.1408066302537918, 0.10208965092897415, 0.023152384907007217, -0.15550725162029266, 0.11260408908128738, -0.052341528236866, 0.3541158437728882, -0.24985794723033905, 0.026932107284665108, 0.005376263055950403, -0.2358267456293106, 0.29108595848083496, -0.12389162182807922, -0.5103253722190857], [-0.32288822531700134, 0.43363291025161743, -0.16870462894439697, -0.13129009306430817, -0.11412825435400009, -0.3951970636844635, 0.11402211338281631, 0.0505889467895031, -0.286539763212204, -0.005964003503322601, -0.15445181727409363, 0.03394101932644844, -0.2890688180923462, -0.011165785603225231, 0.14580038189888, -0.37230682373046875], [-0.16341716051101685, -0.0684439167380333, -0.21988852322101593, -0.3080022931098938, 0.23566672205924988, 0.7563127279281616, -0.5684100985527039, 0.3356500267982483, 0.33774110674858093, 1.0793921947479248, -0.004178366158157587, 0.21774190664291382, -0.21907031536102295, -0.17773978412151337, -0.042032722383737564, 0.11015481501817703], [0.04474680870771408, -0.28178346157073975, -0.014475728385150433, -0.0646769180893898, 0.02476629428565502, 0.36856064200401306, -0.03780847042798996, -0.0764598548412323, 0.31879717111587524, -0.09546312689781189, 0.03996874392032623, -0.02008841000497341, 0.18906621634960175, -0.05492711067199707, 0.032417938113212585, 0.15169617533683777], [0.1752677708864212, 0.1931612342596054, -0.2506868839263916, 0.0646810382604599, 0.00012848460755776614, -0.3412731885910034, -0.04053498059511185, -0.20812998712062836, 0.3813689053058624, 0.09172047674655914, 0.0761714056134224, -0.02579490840435028, 0.7338668704032898, -0.14871752262115479, -0.03722625970840454, -0.28607818484306335], [-0.273159384727478, -0.5102163553237915, 0.26145103573799133, 0.5906161665916443, -0.02168126031756401, 0.32253119349479675, -0.07011249661445618, -0.0637628510594368, 2.267042636871338, 1.3479174375534058, -0.04061891883611679, 0.1461639553308487, 0.3131755292415619, 0.1630280762910843, 0.01036867219954729, -0.3146314024925232], [-0.0906115472316742, 0.058016031980514526, -0.030133983120322227, -0.02529013529419899, -0.006201065145432949, -0.26451629400253296, 0.014629451557993889, 0.019330279901623726, -0.10619060695171356, 0.09583260118961334, -0.002962258644402027, 0.02622644230723381, -0.0037213978357613087, 0.004019933752715588, -0.006014602724462748, -0.02409311756491661], [0.06195000186562538, 0.0535212866961956, -0.02978559024631977, 0.02828541398048401, 0.006443049758672714, -0.07992567867040634, -0.008035735227167606, 0.009409691207110882, -0.09208819270133972, -0.03599994629621506, 0.0033456909004598856, 0.0031541914213448763, -0.002375233918428421, -0.009961760602891445, 0.0035667289048433304, 0.07755247503519058], [-0.4298933744430542, -0.24328579008579254, -0.06732738018035889, -0.13101859390735626, 0.01147328969091177, -0.1516800969839096, -0.11439035832881927, 0.03453660011291504, 0.1807924211025238, 1.2153595685958862, 0.055694323033094406, -0.01908029057085514, -0.10739371180534363, -0.04503770172595978, 0.002450184663757682, -0.16371594369411469], [0.2242596596479416, -0.1314101219177246, 0.3859698474407196, 0.2974321246147156, -0.41873282194137573, -0.5106472373008728, 0.5233793258666992, -0.4858061671257019, -0.4672824442386627, 0.562852144241333, 0.23868171870708466, 0.06926514208316803, -0.25271713733673096, 0.28333014249801636, -0.09351220726966858, -0.015815261751413345], [0.1849846988916397, -0.3617717921733856, 0.24661922454833984, 0.26491665840148926, -0.24802237749099731, -0.41042494773864746, 0.5696654319763184, -0.11581403017044067, -0.2958422303199768, 0.6551246643066406, 0.4709395170211792, 0.008388882502913475, -0.023331210017204285, 0.10702686011791229, 0.20867574214935303, -0.37448495626449585], [0.2662733495235443, -0.01840842142701149, 0.3245907127857208, 0.3044283986091614, -0.3300083577632904, -0.7673884034156799, 0.6672888994216919, -0.220258429646492, -0.18877153098583221, 1.235116720199585, 0.5419817566871643, 0.1822173297405243, 0.05219811201095581, 0.3205881118774414, 0.15317559242248535, -0.2090398222208023], [0.0965273380279541, 0.16461077332496643, 0.38863474130630493, -0.05320798605680466, -0.42003288865089417, -0.369027704000473, 0.5437554717063904, -0.6759915351867676, -0.41158154606819153, 0.16824813187122345, 0.2347111701965332, 0.10084948688745499, -0.35432150959968567, 0.12440575659275055, -0.027449756860733032, -0.0875229761004448], [-0.12038968503475189, -0.5116345882415771, 0.39296427369117737, 0.6113660931587219, -0.14347465336322784, -0.5987967252731323, 0.504445493221283, -0.06540732830762863, -0.46909308433532715, -0.19707974791526794, 0.36755621433258057, -0.11760658025741577, 0.14990314841270447, 0.03453627973794937, -0.012950367294251919, -0.42784568667411804], [0.5428447127342224, 0.32835185527801514, -0.07045701891183853, 0.32236337661743164, -0.6025963425636292, -1.7824891805648804, 0.7510181069374084, -1.379705786705017, 1.3265783786773682, 2.700071334838867, 0.6217181086540222, 0.8000145554542542, -0.26874595880508423, 0.5359187722206116, 0.15533402562141418, -0.08669526129961014], [0.11320363730192184, -0.6319591403007507, 0.01836406998336315, 0.19239544868469238, 0.06547315418720245, 0.8404232859611511, -0.0929662361741066, 0.1173270121216774, 0.07263225317001343, -0.048181403428316116, -0.018061835318803787, -0.059227947145700455, -0.3901698887348175, -0.023959774523973465, 0.049028124660253525, 0.3725524842739105], [-0.13270632922649384, 0.5763916373252869, -0.20823724567890167, -0.297347754240036, -0.07252097129821777, 0.5271013975143433, -0.034622061997652054, -0.0112603222951293, 0.2752188444137573, -0.14507751166820526, -0.08379975706338882, 0.07392562925815582, -0.1296083778142929, -0.022931743413209915, 0.0024779336526989937, 0.41616788506507874], [-0.27198526263237, -0.09968087822198868, 0.02983955480158329, -0.06992676109075546, 0.05147445946931839, -0.26714178919792175, -0.3008642792701721, -0.13821977376937866, 0.27657490968704224, 5.154349327087402, -0.08505865931510925, -0.522053062915802, 0.28805065155029297, -0.023485425859689713, -0.09890861809253693, 0.12149928510189056], [-0.03011399507522583, 0.06433117389678955, -0.0034851261880248785, -0.024924319237470627, 0.007361558265984058, -0.18144747614860535, 0.004436722956597805, -0.0089216697961092, 0.13851551711559296, 0.09176840633153915, 0.014508352614939213, 0.032654281705617905, 0.04975966364145279, 0.007648187223821878, -0.010870659723877907, -0.10081881284713745], [-0.018255403265357018, -0.08565796911716461, 0.04586116969585419, 0.012860555201768875, 0.009622102603316307, 0.13716189563274384, 0.005269673652946949, -0.020500410348176956, -0.04768907278776169, -0.036950524896383286, 0.013552859425544739, 0.0031358529813587666, 0.023497605696320534, 0.009724196046590805, -0.0020874158944934607, -0.02334643341600895], [0.05224123224616051, -0.25009968876838684, 0.1745077222585678, 0.08044381439685822, 0.06816229224205017, 0.8369731307029724, -0.07193614542484283, -0.0705307275056839, -0.3756883442401886, -0.7191975116729736, -0.04322836175560951, -0.16105841100215912, -0.32226306200027466, 0.04940009489655495, -0.011493631638586521, -0.08859120309352875]], "1_weights": [[-0.03868785500526428, 0.08302057534456253, 0.25982242822647095, -0.29012590646743774, 0.015192014165222645, 0.07884868234395981, -0.030145399272441864, -0.04113386198878288, 0.7340661287307739, -0.031021850183606148, -0.10657806694507599, -0.04142151027917862, -0.18842722475528717, -0.10811898112297058, -0.5352232456207275, -1.1741631031036377], [-0.09373791515827179, -0.1671769618988037, -0.037234723567962646, 0.276045024394989, -0.09934023767709732, 0.1241222694516182, -0.2323591709136963, 0.04953962564468384, 0.3463256061077118, 0.08167681097984314, 0.2837671935558319, -0.11958342045545578, -0.019129769876599312, 0.035252660512924194, 0.14780186116695404, 0.5310221910476685], [-0.12174933403730392, -0.04035516455769539, -0.20252913236618042, 0.7118439078330994, 0.34760966897010803, 0.23310624063014984, -0.4230450987815857, 0.5400623083114624, 0.4599214792251587, -0.11904990673065186, 0.5089109539985657, -0.26698750257492065, 0.13652431964874268, -0.17525579035282135, 0.7314854860305786, -0.21776650846004486], [-0.3142704665660858, 0.2774786949157715, -1.5383377075195312, 0.06852114200592041, -0.23992347717285156, 0.020276576280593872, 0.2487822026014328, -0.30808478593826294, -0.8160558342933655, 0.03531329333782196, -1.2778246402740479, 0.41477859020233154, 0.3716524541378021, -0.28292110562324524, 0.4562373459339142, 0.4077603220939636], [-0.38470667600631714, -0.8567949533462524, 0.10146365314722061, 1.3878414630889893, 0.17225241661071777, -0.5307737588882446, -0.8901898264884949, 0.011499948799610138, 0.11752784252166748, 0.12275731563568115, -0.2037411481142044, 0.1842976212501526, -1.610293984413147, 0.02371286414563656, -1.9041296243667603, 1.1673990488052368], [0.013633948750793934, 0.3042164146900177, 1.0170010328292847, -0.11608756333589554, 0.03595639392733574, 0.09136739373207092, 0.016564717516303062, -0.03789965435862541, 1.0292131900787354, 0.16540701687335968, 1.6213691234588623, -0.5372854471206665, -0.07545166462659836, -0.18502113223075867, 0.15762558579444885, 0.7886939644813538], [-1.0634406805038452, 0.9246357679367065, -0.5778672099113464, -1.7143604755401611, 0.13345646858215332, 0.557986855506897, 0.4785096049308777, 0.30029627680778503, -5.931122779846191, -0.02678191103041172, -1.0607258081436157, -1.8377363681793213, 0.13979080319404602, -0.37821313738822937, -0.036685239523649216, -0.43452998995780945], [0.4000481069087982, 0.5542492270469666, 1.6812448501586914, -0.384220153093338, -0.006946351379156113, 0.2560940980911255, 0.6207737922668457, -0.02435331977903843, 1.0404977798461914, 0.1262439340353012, -0.6333359479904175, 0.6430383324623108, 0.1333964616060257, -0.10046441107988358, 0.010640695691108704, 0.7867990732192993], [-0.47181594371795654, -0.11652974039316177, -1.946495532989502, -0.20198705792427063, 0.0038255704566836357, 0.008649281226098537, -0.41495802998542786, -0.09726777672767639, -0.46745359897613525, -0.09957843273878098, -0.33802059292793274, -0.1793394833803177, 0.04388737678527832, -0.2630285322666168, -0.8673087954521179, -0.37117141485214233], [1.4812979698181152, 0.03684406727552414, -1.2822034358978271, -0.12788234651088715, -0.0017520393012091517, -0.06803040206432343, 0.1338752955198288, 0.06996690481901169, -0.34416908025741577, 0.005004649516195059, 0.9464650750160217, 2.629547119140625, 0.04855320230126381, -0.04805062338709831, 0.07271815091371536, -0.07220897078514099], [0.07576080411672592, 0.1143849715590477, 1.1105353832244873, -0.5190284252166748, 0.13128919899463654, 0.1635710895061493, 0.35706037282943726, 0.14596246182918549, 0.6631977558135986, 0.15172970294952393, 0.7859303951263428, -1.0367743968963623, 1.1374439001083374, -0.21508972346782684, -0.1832345724105835, -0.086008220911026], [-1.05107843875885, 0.3669169843196869, 1.9989899396896362, 1.5202317237854004, 0.24232296645641327, 0.3180098831653595, 0.5232181549072266, -4.646110534667969, 2.3990554809570312, 1.3006763458251953, -2.518728733062744, -2.2100298404693604, -0.22888752818107605, -0.26036521792411804, -1.521875023841858, -5.9916157722473145], [0.19851194322109222, 0.27890250086784363, -0.2363882064819336, 0.2786525785923004, -0.06943150609731674, -0.08086345344781876, 0.0584711953997612, -0.05501118674874306, -0.46155497431755066, -0.04320046678185463, -0.33556678891181946, 0.4463987648487091, -0.016398917883634567, -0.4207252562046051, 0.5264289379119873, -0.3806789815425873], [-0.0900484025478363, -0.3535655736923218, -1.8486725091934204, 0.26076042652130127, -1.3217753171920776, 0.1573491096496582, -0.1464288830757141, -0.9906202554702759, -1.6032737493515015, 0.6000490784645081, -0.47696563601493835, 0.33882683515548706, 0.07369188964366913, 0.009296628646552563, -0.5838224291801453, -0.6106539368629456], [-0.5734978318214417, 0.8063932061195374, -1.2436193227767944, -0.661598265171051, 0.4939742088317871, 0.3878140151500702, 0.6649209260940552, 0.15837551653385162, 0.25698453187942505, -0.03021918050944805, -0.015069493092596531, -0.6333521008491516, -0.3600470721721649, -0.07688314467668533, 0.018908897414803505, -0.08085737377405167], [0.051136795431375504, 0.003165771719068289, 0.26176732778549194, -0.028654640540480614, 0.15007399022579193, -0.062328193336725235, 0.008935872465372086, 0.21964848041534424, -0.06415625661611557, 0.1485244333744049, -0.5068877935409546, 0.3504423499107361, 0.043874043971300125, -0.09528851509094238, -0.12522752583026886, 0.8139365911483765]], "2_weights": [[0.5492976307868958, 0.5723105072975159, 0.698477566242218], [-0.5035417675971985, -0.3452831208705902, -0.3918329179286957], [-4.11683464050293, 9.32829475402832, 8.235675811767578], [-0.5035936236381531, -0.46845272183418274, -0.47013145685195923], [-0.10458814352750778, 0.2627243101596832, 0.8225973844528198], [-0.0555746927857399, -0.2281893938779831, -0.32407355308532715], [-0.38896849751472473, -0.30773869156837463, -0.1157248467206955], [-0.016883887350559235, -0.25760847330093384, -0.8941215872764587], [-0.9052378535270691, -1.9002617597579956, -1.5193284749984741], [0.13040943443775177, -0.13022129237651825, -0.37168723344802856], [-0.1560133695602417, -0.1473039984703064, -0.13439054787158966], [-0.26118117570877075, -0.27825891971588135, -0.35352569818496704], [-2.26859450340271, -2.3538994789123535, -3.2278103828430176], [0.05158025771379471, 0.14139656722545624, -0.06564459204673767], [0.256531685590744, 0.19749927520751953, 0.1107177585363388], [-0.4025784432888031, -0.5112923383712769, -0.5131716728210449]], "0_bias": [0.3257099986076355, -0.1672942191362381, 0.37218645215034485, 0.44222140312194824, -0.1851987987756729, -0.5638079643249512, 0.5851426720619202, -0.2019074708223343, -0.34406912326812744, 0.756208062171936, 0.44445058703422546, -0.12628206610679626, -0.1909581869840622, 0.26602864265441895, 0.20843492448329926, -0.23614981770515442], "1_bias": [1.0494801998138428, 0.31999102234840393, 1.6414990425109863, 0.7735919952392578, 0.7150214314460754, 0.1291240155696869, 0.33642810583114624, 0.12124144285917282, -1.2990061044692993, -0.526831865310669, 0.46970462799072266, 1.3747478723526, -2.373697519302368, -0.3437057137489319, -0.5470247268676758, -0.20322158932685852], "2_bias": [-0.43321913480758667, -0.4045908451080322, -0.31108570098876953]}