{"triplane_resolution": 2048, "triplane_voxel_size": 0.001953125, "sparse_grid_resolution": 512, "sparse_grid_voxel_size": 0.0078125, "range_features": [-7.0, 7.0], "range_density": [-14.0, 14.0], "data_block_size": 16, "atlas_width": 1904, "atlas_height": 221, "atlas_depth": 17, "num_slices": 17, "slice_depth": 1, "0_weights": [[-2.5813188552856445, -2.1026370525360107, 0.654114842414856, -2.220036506652832, 3.021876573562622, 1.4402103424072266, 1.3674460649490356, 1.3452115058898926, 2.410691022872925, -0.015010722912847996, -2.7716481685638428, -0.4712966978549957, 0.2319333404302597, -2.38739013671875, -0.09692414849996567, 2.0464682579040527], [-1.9561606645584106, 0.4232557415962219, -2.9708926677703857, 0.25949224829673767, 3.312229871749878, 0.7268201112747192, 3.009345531463623, -0.8842149376869202, 1.0995088815689087, 0.9397189021110535, 0.9849662184715271, 1.6275615692138672, 0.22122971713542938, 2.349074363708496, 0.0026608614716678858, 2.0987868309020996], [-1.496807336807251, 2.8741328716278076, -5.811372756958008, 0.7495183944702148, 2.688754081726074, -5.625324249267578, 3.6050984859466553, -1.3005166053771973, 0.002976310206577182, 0.9975659847259521, 4.290789604187012, 2.4831273555755615, 0.052762504667043686, 4.979249000549316, 2.513164758682251, 2.284669876098633], [-5.293239116668701, 24.513736724853516, 9.749530792236328, 14.21833610534668, 8.913030624389648, -9.6278076171875, 10.556801795959473, 3.780947685241699, -6.835044860839844, 0.9345987439155579, -20.796405792236328, 10.073951721191406, -3.678335666656494, 8.568729400634766, -14.655424118041992, 41.38718795776367], [-0.7443081736564636, -0.7247926592826843, -1.776247501373291, -0.19307558238506317, -0.005597860086709261, 0.817957878112793, -1.9626468420028687, 0.3187098503112793, 2.6917383670806885, 0.25105392932891846, -1.3016602993011475, 3.6879429817199707, -0.1853281557559967, -0.020036455243825912, -0.5289795994758606, 4.579204082489014], [1.3982692956924438, 2.0087552070617676, -2.3090600967407227, -1.117045521736145, 0.13276605308055878, -1.1277446746826172, 3.6678295135498047, -1.9561479091644287, 1.2383242845535278, -1.277280569076538, -0.5368397831916809, -7.329117298126221, -1.1716676950454712, -0.42552870512008667, -1.7704962491989136, 6.219306945800781], [-0.7072468400001526, 0.5086346864700317, -0.31946688890457153, -1.1667861938476562, -0.11397271603345871, -0.3963150978088379, -2.1220357418060303, 1.494324803352356, -1.3961161375045776, -1.8898967504501343, -2.3777670860290527, 0.8164637684822083, -0.15185512602329254, -0.3634985089302063, -2.158068895339966, -2.234182357788086], [-0.14290615916252136, -0.2545757591724396, -0.06397406756877899, 0.09364718198776245, 0.11099036037921906, 0.15587690472602844, 0.518761157989502, -0.2651025652885437, 0.087213434278965, -0.1738949418067932, 0.1134573295712471, -1.1582963466644287, -0.27231091260910034, -0.16411444544792175, -0.2559282183647156, -0.4736117124557495], [-0.04797400161623955, -0.20692838728427887, 0.20259737968444824, 0.4100591838359833, 0.04747876152396202, 0.011181856505572796, -0.16951556503772736, 0.14444786310195923, -0.896397590637207, -0.5349082946777344, -0.17777171730995178, -0.30500826239585876, -0.06592452526092529, 0.017604295164346695, 0.728996992111206, 0.8716867566108704], [-0.3265672028064728, -0.12118198722600937, -0.22726429998874664, -0.3927338719367981, -0.05948719009757042, -0.05355366691946983, 0.6175404787063599, 0.9033301472663879, 0.493308424949646, -0.04583965241909027, 0.052493516355752945, 0.36307427287101746, 0.9184918999671936, -0.10238349437713623, 0.1984163224697113, 0.3530460298061371], [0.03929327055811882, -0.05691372975707054, -0.040932394564151764, 0.016472015529870987, -0.024297455325722694, -0.03735003620386124, 0.42348596453666687, -0.19501425325870514, -0.03356559947133064, -0.4204714000225067, 0.1534496545791626, -1.205650806427002, -0.24460481107234955, -0.11143746972084045, -0.023257913067936897, -0.4271596670150757], [-0.2219066619873047, 0.013830508105456829, 0.2809634804725647, 0.14976264536380768, 0.100399449467659, 0.05758466199040413, -0.40351712703704834, 0.3901785612106323, -0.8317319750785828, -0.41353991627693176, -0.16818982362747192, -0.2258947342634201, 0.09558586776256561, 0.08010254800319672, 0.5818379521369934, 0.6396743059158325], [-0.5490757822990417, -0.007422583643347025, -0.0788496658205986, -0.4537819027900696, -0.09877968579530716, -0.18770939111709595, 0.6637647151947021, 1.1008522510528564, 0.5926839709281921, 0.13249218463897705, -0.02811041660606861, 0.557942271232605, 0.9370421171188354, -0.1813398003578186, 0.012141975574195385, 0.21296098828315735], [0.09073507785797119, -0.12234662473201752, 0.07142205536365509, 0.14552603662014008, -0.16474305093288422, -0.137669637799263, 0.6588066816329956, -0.1450197845697403, 0.03220982104539871, -0.3219432532787323, 0.10267181694507599, -1.1493301391601562, -0.5276481509208679, 0.1914108246564865, -0.11040128022432327, -0.2693933844566345], [-0.192034512758255, -0.30764663219451904, 0.02414957620203495, -0.010098293423652649, -0.15597231686115265, -0.07495225965976715, -0.11797960847616196, 0.3323782682418823, -0.5878463983535767, -0.556821882724762, -0.256165087223053, -0.21097694337368011, 0.01710628531873226, -0.033321019262075424, 0.6895588636398315, 0.5518180727958679], [-0.37829872965812683, 0.0022706156596541405, -0.19750970602035522, -0.3446204960346222, 0.1071159765124321, 0.09806851297616959, 0.33655425906181335, 1.132606863975525, 0.3678247034549713, 0.011748159304261208, -0.03866461664438248, 0.6621708869934082, 0.7967714667320251, -0.06654631346464157, 0.12764309346675873, 0.20849652588367462], [-0.06556090712547302, -0.04512816667556763, -0.06664919853210449, 0.0026841743383556604, 0.055347759276628494, -0.028139742091298103, -0.3102414309978485, -0.14194756746292114, -0.17662402987480164, -0.10184542834758759, -0.12540225684642792, -0.2816629707813263, -0.09814193099737167, -0.059779416769742966, 0.8833130598068237, 0.2714617848396301], [0.11412966996431351, -0.2029283344745636, -0.16424140334129333, 0.011835928075015545, 0.05670229718089104, 0.035566627979278564, 0.07540030777454376, 0.2273871898651123, 0.39301371574401855, -0.01497676596045494, 0.01660567708313465, -0.38606008887290955, 0.4170166552066803, -0.03230580314993858, 0.05930695682764053, -0.2468024343252182], [-0.16800051927566528, 0.36532488465309143, -0.13750852644443512, 0.19690705835819244, -0.025458484888076782, -0.11973703652620316, 0.42319589853286743, 1.091180682182312, -0.15675783157348633, -0.6463494300842285, -0.5904521346092224, 1.0827022790908813, 0.4400399625301361, -0.021417664363980293, -0.014798557385802269, 0.4842188358306885], [0.021245233714580536, -0.015932602807879448, 0.03496505320072174, 0.004818334244191647, -0.0037539114709943533, 0.01839054562151432, -0.0879891887307167, 0.028054283931851387, -0.06086286902427673, 0.11835736036300659, 0.017725646495819092, 0.3271819055080414, 0.05712630972266197, 0.016354022547602654, -0.29801514744758606, -0.04004743695259094], [-0.035767387598752975, 0.043491512537002563, 0.004457840695977211, 0.03232259675860405, -0.004904755391180515, 0.002337113721296191, 0.04233758896589279, 0.02564968727529049, -0.2341773509979248, -0.05443795397877693, -0.06175905466079712, -0.039173051714897156, 0.007711560931056738, -0.001689983531832695, 0.011275701224803925, -0.04647637531161308], [0.055713724344968796, -0.3829043507575989, -0.13666130602359772, 0.018854083493351936, 0.10343079268932343, -0.11472591012716293, 0.725044310092926, 0.1232447624206543, 0.44865062832832336, -0.09526175260543823, -0.10724537819623947, -0.40850937366485596, -0.4119791090488434, -0.010903590358793736, -0.5816013216972351, -0.20325733721256256], [0.5208680629730225, -0.007828917354345322, 0.4285808205604553, 0.3257729709148407, -0.19276311993598938, 0.07474955171346664, -0.052718501538038254, 0.07876858115196228, -0.8007116913795471, -0.029223430901765823, 0.1472836285829544, 0.09909021109342575, 0.2980034351348877, 0.19366300106048584, -0.23585005104541779, -0.37217146158218384], [0.4772452414035797, -0.05535685271024704, 0.18683600425720215, 0.26555904746055603, -0.027723219245672226, 0.27447324991226196, -0.3112585246562958, 0.10418400913476944, -0.8718400597572327, 0.15998253226280212, 0.242886483669281, -0.09286867082118988, 0.39301735162734985, 0.036790866404771805, -0.05934087559580803, -0.585165798664093], [0.5104642510414124, 0.15952253341674805, 0.4251977801322937, 0.2946176826953888, -0.08348987996578217, -0.02687191031873226, 0.0020886545535176992, 0.44806987047195435, -0.7660349607467651, 0.3836807906627655, 0.46126192808151245, 0.12728165090084076, 0.8062416315078735, 0.2432204931974411, -0.029029320925474167, -0.6581303477287292], [0.4785844385623932, 0.045375220477581024, 0.4970012903213501, 0.057088691741228104, -0.1779928207397461, -0.03554298356175423, 0.305932879447937, 0.23420868813991547, -0.2643507421016693, 0.3926348090171814, 0.22934146225452423, 0.436125785112381, 0.21713043749332428, -0.01969117671251297, 0.04113134369254112, -0.5632450580596924], [0.21999527513980865, 0.03716275095939636, 0.08525548130273819, 0.5947098135948181, 0.06306575238704681, 0.11551100015640259, -1.0105026960372925, -0.6344859600067139, -1.3377548456192017, -0.18779870867729187, -0.19107310473918915, -0.22989919781684875, 0.15253058075904846, -0.02032634988427162, -0.41202467679977417, -0.3128913938999176], [0.21961136162281036, -0.297846257686615, 0.4660038948059082, 0.13454724848270416, -0.14961200952529907, 0.177049458026886, 0.16573190689086914, 0.9797504544258118, 0.09450890868902206, 1.0052000284194946, 0.903188169002533, 0.530336856842041, 1.5331079959869385, 0.27806031703948975, 0.11487963050603867, -1.7885876893997192], [-0.136640265583992, 0.08666696399450302, -0.13199545443058014, 0.18276166915893555, 0.07878377288579941, 0.025213588029146194, 0.04147367551922798, -0.3221825063228607, -0.6372300982475281, -0.3401792049407959, -0.23803354799747467, 0.7366605401039124, -0.2262578010559082, -0.008021560497581959, 0.659716010093689, -0.5750377774238586], [0.12076631188392639, -0.020977618172764778, -0.010841467417776585, -0.17741219699382782, -0.01785365119576454, -0.04041863977909088, 0.4141252040863037, 0.35239937901496887, 0.44378364086151123, 0.4318477511405945, -0.02962840348482132, 0.2595345973968506, -0.1100447028875351, 0.00747420359402895, 1.2239192724227905, 0.5423011779785156], [-0.3927551209926605, -0.1489868015050888, -0.16891323029994965, -0.1828473061323166, -0.07922209054231644, -0.09251394122838974, 0.9425476789474487, 2.9335079193115234, 0.2999621629714966, 0.6406662464141846, 0.08259104937314987, 1.5092549324035645, 3.673444986343384, 0.1051967665553093, -0.24407948553562164, -0.06462542712688446], [-0.0002640067250467837, -0.03905488923192024, 0.013155336491763592, -0.006806638557463884, -0.0053683798760175705, 0.010429074987769127, 0.06105920672416687, 0.10512035340070724, 0.08566509932279587, -0.07837415486574173, 0.033735133707523346, -0.1151014193892479, 0.015865636989474297, -0.0026466359850019217, -0.06205473840236664, 0.11033593863248825], [-0.006309239659458399, -0.027912592515349388, -0.006504529155790806, 0.030025813728570938, 0.0002179832517867908, -0.008375383913516998, 0.13898886740207672, -0.032971885055303574, -0.033601172268390656, 0.0035965903662145138, 0.010879908688366413, 8.130535570671782e-05, 0.059275951236486435, 0.0048058247193694115, 0.020891668274998665, -0.23963961005210876], [-0.15458206832408905, 0.18766285479068756, -0.038418520241975784, 0.11522499471902847, -0.05025244504213333, -0.028319640085101128, -0.03049188293516636, -0.9719765186309814, 0.5779529809951782, -0.962506890296936, 0.1821203976869583, -0.496501088142395, -1.0154696702957153, 0.01006768736988306, 0.6011961102485657, -0.41731515526771545]], "1_weights": [[-0.5082310438156128, 0.2527691423892975, 0.2008349448442459, -0.6401652097702026, -0.6964383721351624, 0.06659717857837677, 0.12706924974918365, 0.016956403851509094, -0.3420933485031128, -0.2995394766330719, 0.19760778546333313, -1.0172009468078613, 0.21081781387329102, 0.17527063190937042, 0.6499090790748596, -1.1678544282913208], [-0.34195518493652344, 0.09369709342718124, -0.31415390968322754, 0.8501248955726624, -0.2539273202419281, 0.1567070037126541, 0.13066110014915466, 0.012361696921288967, 0.3659113347530365, 0.12947329878807068, -0.03591282293200493, 0.44710543751716614, 0.05455555021762848, 0.01393964048475027, -0.21590758860111237, 0.4900265634059906], [-0.3616836965084076, 0.21440766751766205, 0.1454465389251709, -0.4975144565105438, -0.5284795761108398, 0.4862547814846039, -0.006930286530405283, -0.4695429801940918, 0.2989805042743683, -0.7368351221084595, 0.30813342332839966, -0.39495015144348145, 0.22068533301353455, 0.5038898587226868, 0.45714259147644043, -5.405855178833008], [-0.6428914070129395, 0.3248756527900696, -0.27982524037361145, 0.2124701589345932, 0.4046527147293091, 0.0014189284993335605, 0.47691190242767334, 0.25171706080436707, -0.14957542717456818, -0.2707017958164215, -0.27953386306762695, 0.04589279741048813, -0.6582090258598328, -0.08287956565618515, -0.2595452666282654, -0.11215032637119293], [0.024637725204229355, 0.9098662734031677, -0.35149189829826355, -0.09283850342035294, 0.16598989069461823, 0.7955021858215332, 0.9237467050552368, -0.6884015202522278, -0.24842017889022827, -0.0525897815823555, 0.8519845604896545, 0.9254377484321594, 0.5671892166137695, 1.1104358434677124, -1.8004882335662842, 0.5585013031959534], [-0.8650093078613281, -0.3615283668041229, -1.1982698440551758, -4.176636219024658, 0.2761789560317993, 0.11668425798416138, -0.8218539953231812, -0.26798751950263977, -1.17730712890625, 0.6928481459617615, 0.13296912610530853, -0.008829145692288876, 0.5146386623382568, -0.467561274766922, -0.0044871484860777855, -0.2110150009393692], [1.129075050354004, -0.1111200600862503, 0.8619801998138428, 0.7511622905731201, 0.7328643202781677, 0.5967354774475098, 0.2019491195678711, -0.09932010620832443, 0.8247950077056885, 0.374656617641449, -0.015536470338702202, 0.35299742221832275, 0.9630643129348755, -0.07917118072509766, -0.04641260579228401, 0.6239838004112244], [-1.482309341430664, 0.11670979857444763, -0.009530293755233288, -0.451374888420105, -0.21949857473373413, 0.03706333786249161, 0.3215962052345276, 0.033762942999601364, -0.6273058652877808, -0.1456771045923233, 0.18111857771873474, -0.6229749917984009, -0.04180748015642166, 0.252559095621109, -0.4271286129951477, -0.6116216778755188], [-0.25964194536209106, -1.4419461488723755, -1.8724559545516968, -1.023576259613037, -3.8199374675750732, 0.6384677290916443, -1.1766318082809448, -0.7012442946434021, -0.5310784578323364, -0.7185115814208984, 0.18135574460029602, -0.338459312915802, -2.176504373550415, 0.555293619632721, 1.582115888595581, -0.48546624183654785], [-0.8697862029075623, 0.07139425724744797, 0.3248952031135559, 0.9027448296546936, -0.010159902274608612, -0.1678423136472702, 0.0559283122420311, 0.05976773425936699, 0.17456766963005066, -0.21694843471050262, 0.02398652583360672, -0.1347152590751648, 0.015556122176349163, 0.002097568940371275, 0.11564794182777405, -0.10340657830238342], [-0.4017675220966339, 0.313349187374115, 0.5882604122161865, -0.8410282731056213, 0.00030749852885492146, 0.08379140496253967, 0.49003660678863525, 0.005215073935687542, -0.5075763463973999, 0.14509932696819305, 0.5656487941741943, -0.8605753183364868, 0.03774654492735863, 0.22812411189079285, -0.8160696029663086, -1.0893527269363403], [0.6236713528633118, 0.05258377268910408, 0.12274030596017838, -0.026502925902605057, 0.3059838116168976, -0.02074551396071911, 0.06116637587547302, 0.05634131282567978, 0.053873732686042786, 0.03308971971273422, -0.09130384027957916, 0.026049988344311714, -0.1595419943332672, -0.0584549754858017, -0.041695334017276764, -0.02219918742775917], [0.6586700677871704, -0.007683510892093182, -0.2808177173137665, -1.4865611791610718, 0.9575309157371521, 0.37992405891418457, 0.2698582708835602, -0.08596600592136383, -0.38919106125831604, -0.09784146398305893, -0.0789555236697197, 0.5104671716690063, -0.01497574057430029, -0.049046266824007034, -0.08530212938785553, 0.19873455166816711], [0.04524555057287216, -0.6070932149887085, -1.670216679573059, -0.2079559564590454, -1.2349326610565186, -0.37389329075813293, -0.0379706546664238, 1.3169074058532715, 0.45079305768013, 0.7133203744888306, -1.0751523971557617, -0.6786649227142334, -0.5204043388366699, -0.9840587973594666, -1.2851864099502563, 0.10774128139019012], [0.15989023447036743, 0.2615765631198883, -0.4669448435306549, 0.9471989274024963, -0.20429085195064545, 0.011352828703820705, 0.14419162273406982, -0.025561491027474403, -0.4266846776008606, 0.21712495386600494, 0.28974074125289917, -0.6611754894256592, 0.19050954282283783, 0.17981445789337158, -0.24768966436386108, -0.7485858201980591], [-0.19769208133220673, 0.040284957736730576, -0.19861583411693573, 0.2921319305896759, 0.16882595419883728, -0.09243444353342056, 0.10168852657079697, 0.09747417271137238, 0.3597831726074219, -0.040640994906425476, -0.08756137639284134, -0.14471879601478577, -0.05602452903985977, -0.07459985464811325, -0.2337372601032257, 0.08211509883403778]], "2_weights": [[-0.27846530079841614, -0.18611261248588562, -0.14066064357757568], [-0.3535884618759155, -0.17863573133945465, -0.34163177013397217], [0.19821695983409882, 0.1658213883638382, 0.14876607060432434], [-0.4114908277988434, -0.19493046402931213, -0.10314415395259857], [0.11806659400463104, 0.19212375581264496, 0.2042839676141739], [0.01132898684591055, -0.07470952719449997, -0.3769218325614929], [-0.3067879378795624, -0.32792916893959045, -0.10887174308300018], [-0.32061514258384705, -0.48392337560653687, -0.8867154717445374], [-0.8601466417312622, -1.597802758216858, -1.4053605794906616], [0.6214818954467773, 0.3206591308116913, 0.3060288429260254], [-0.8608455061912537, -0.030581535771489143, -0.09557764232158661], [-0.2677161991596222, -0.2221861183643341, -0.1811613291501999], [-0.1920335292816162, -0.10669628530740738, 0.0014660287415608764], [0.02451835386455059, 0.2960658073425293, 0.5161980986595154], [-0.18341095745563507, -0.16691645979881287, -0.143808051943779], [-0.4304080605506897, -0.506208598613739, -0.4774706959724426]], "0_bias": [0.5988773107528687, 0.0383562371134758, 0.39675620198249817, 0.44918093085289, 0.04383916035294533, 0.0986863374710083, -0.1190045103430748, 0.27636703848838806, -0.8263493180274963, 0.10794446617364883, 0.3107722997665405, -0.17460109293460846, 0.37288352847099304, 0.1877642571926117, 0.008645609021186829, -0.5640975832939148], "1_bias": [0.3150152266025543, 0.19955852627754211, 0.16707423329353333, -0.656222403049469, 1.080992579460144, -0.09574287384748459, 0.3319140374660492, -0.8626136779785156, -1.1234430074691772, -0.4621906876564026, -1.389125943183899, 0.77099609375, 0.34328174591064453, -0.8846515417098999, -0.17426347732543945, -0.7757090330123901], "2_bias": [-0.2652604877948761, -0.48213163018226624, -0.5878186225891113]}