{"triplane_resolution": 2048, "triplane_voxel_size": 0.001953125, "sparse_grid_resolution": 512, "sparse_grid_voxel_size": 0.0078125, "range_features": [-7.0, 7.0], "range_density": [-14.0, 14.0], "data_block_size": 16, "atlas_width": 697, "atlas_height": 255, "atlas_depth": 17, "num_slices": 17, "slice_depth": 1, "0_weights": [[1.9205992221832275, -0.01262944657355547, 3.389737606048584, 0.76584792137146, -2.824890375137329, 1.9066380262374878, -0.9256322383880615, 1.9352487325668335, 0.2926771640777588, -0.35156014561653137, 0.4023817479610443, -0.7148227691650391, -1.17332923412323, -0.17666421830654144, -0.16417638957500458, 2.5894644260406494], [2.0654091835021973, 0.14823433756828308, 1.8635659217834473, -1.4348808526992798, -1.8424296379089355, 3.2229080200195312, -0.87900310754776, 1.6806296110153198, 0.5830059051513672, 2.9093005657196045, 1.5296772718429565, 2.3408920764923096, 0.6994363069534302, -0.05211864784359932, -0.14469105005264282, 2.7590155601501465], [1.4307537078857422, 0.7166975736618042, -0.32639819383621216, 0.1954856812953949, 2.2634165287017822, 4.810393333435059, -3.933893918991089, -3.487272262573242, 2.8654141426086426, 0.5471575856208801, 3.2494513988494873, 3.87777042388916, 0.3986021876335144, -0.007721440866589546, -0.07567844539880753, 4.923024654388428], [-0.321363240480423, -1.2068337202072144, -0.07749110460281372, 0.258844256401062, 0.8249807357788086, -0.8250520825386047, 0.8247021436691284, 0.28126832842826843, -0.586428701877594, -0.09023178368806839, -1.4229152202606201, -0.1570669710636139, 0.17776994407176971, -0.13220711052417755, -0.5097881555557251, -0.3337855339050293], [-0.4061618447303772, 0.9243334531784058, 0.31294187903404236, -3.087367057800293, 2.877049446105957, -0.5370025634765625, -3.699286937713623, -3.47584867477417, -2.2348968982696533, 2.349928379058838, 0.510333240032196, 2.189842700958252, 0.6994657516479492, -0.1732024997472763, 0.13451120257377625, -1.5464922189712524], [0.13588331639766693, -0.8307615518569946, -0.49433037638664246, 0.02603970654308796, -0.3404206335544586, -0.3387018144130707, -0.7271195650100708, 0.05442706122994423, 0.14693376421928406, 0.08323445916175842, -2.069223165512085, -0.12119852751493454, 0.19423823058605194, 0.08808504045009613, -0.5745736956596375, -0.2383103221654892], [-0.030131371691823006, -0.7472050786018372, -0.5814417004585266, -0.08572416007518768, 0.03116634115576744, -0.44671204686164856, -0.7574214339256287, 0.07744000852108002, 0.10285846143960953, -0.11241726577281952, -1.8878865242004395, 0.14389340579509735, 0.24042043089866638, 0.08516238629817963, -0.608999490737915, 0.01605594903230667], [0.06480661034584045, -0.6525348424911499, 0.9525147080421448, 0.021900227293372154, 0.1740204393863678, 0.5173180103302002, 0.789780855178833, -0.6004747152328491, -0.33502197265625, 0.5471112132072449, -0.3890710473060608, -0.10222773998975754, -1.001100778579712, -0.09624625742435455, -0.002182643860578537, -0.054340727627277374], [0.07744824886322021, -0.15944808721542358, 0.8552730083465576, -0.10548097640275955, 0.6346215009689331, 0.3014586567878723, 0.3508393466472626, -0.8482150435447693, -0.5780587792396545, 0.46510395407676697, 0.30620327591896057, 0.18867406249046326, 0.37896865606307983, 0.014042787253856659, 0.03512485325336456, -0.08432627469301224], [-0.5870169401168823, 0.34024322032928467, 0.07646433264017105, -0.45780807733535767, 0.13762976229190826, -0.2537021338939667, -0.6676477193832397, 0.21749413013458252, -0.27774733304977417, 0.04886213690042496, 0.15335243940353394, 0.595970869064331, 0.921973705291748, -0.05599730461835861, 0.5399055480957031, -0.05950865522027016], [0.08685459941625595, -0.5276055335998535, 1.1674081087112427, 0.1554471254348755, 0.40262943506240845, 0.4791889488697052, 0.6458367109298706, -0.43277227878570557, -0.18616141378879547, 0.6130138635635376, -0.252228319644928, 0.03275464102625847, -1.0688848495483398, -0.10324618965387344, 0.0629812479019165, 0.0524577759206295], [0.028391338884830475, -0.24297206103801727, 1.0722097158432007, -0.4155142605304718, 0.755975067615509, 0.24276301264762878, 0.6750998497009277, -0.5852908492088318, -0.5892972350120544, 0.4616047143936157, 0.45475783944129944, 0.3297925591468811, 0.2646239399909973, 0.07050608098506927, 0.10906711965799332, -0.07558269053697586], [-0.29790085554122925, 0.28901952505111694, -0.0758228600025177, -0.5762268900871277, 0.2658938467502594, -0.04469155892729759, -0.4893745183944702, 0.056882672011852264, -0.2416098713874817, 0.007683091796934605, 0.2114177942276001, 0.3011051416397095, 0.8440799117088318, 0.1596049666404724, 0.803976833820343, -0.05712546408176422], [-0.12529535591602325, -0.6665446162223816, 1.0446653366088867, -0.030681626871228218, 0.22131675481796265, 0.30587100982666016, 0.5011321306228638, -0.22451667487621307, -0.2319139838218689, 0.5771144032478333, -0.17285528779029846, 0.0004778571892529726, -1.1183080673217773, 0.08532416820526123, 0.13689950108528137, 0.07600441575050354], [0.2794362008571625, 0.09188541769981384, 0.8691698312759399, -0.148523211479187, 0.5253049731254578, 0.19304265081882477, 0.5773341655731201, -0.5690076947212219, -0.5614643096923828, 0.1346122771501541, 0.0393768809735775, 0.41849786043167114, 0.0823008269071579, 0.024197939783334732, 0.1997450590133667, 0.02900123782455921], [-0.32355549931526184, 0.06507327407598495, -0.03608783707022667, -0.5264458060264587, 0.05966164916753769, 0.07307201623916626, -0.41328245401382446, -0.11783724278211594, -0.019282661378383636, 0.10931229591369629, -0.015815354883670807, 0.4150480031967163, 0.9426865577697754, 0.2754155993461609, 0.6888849139213562, -0.14934061467647552], [-0.4377782940864563, 0.4686335027217865, 0.6034416556358337, -0.004176258109509945, 0.47134143114089966, -0.36277949810028076, -0.38156482577323914, 0.19125531613826752, 0.4409894049167633, 0.542081356048584, 0.20933209359645844, 0.19526264071464539, 0.3653552532196045, 0.1493229866027832, -0.004489945247769356, -0.17568254470825195], [0.5521392226219177, 0.2966216504573822, -0.41724923253059387, 0.3768423795700073, -0.05543874204158783, -0.24015897512435913, 0.033543672412633896, 0.4328385889530182, -0.02911975048482418, 0.008195862174034119, 0.1613808125257492, 0.7439538836479187, 0.21061035990715027, 0.09637632966041565, 0.3403974771499634, -0.07839791476726532], [0.7081028819084167, -0.5141112804412842, 0.3345267176628113, 0.44509080052375793, 0.32774055004119873, 0.6543523073196411, 0.7863985300064087, -0.543178915977478, -0.10597275197505951, 2.1306700706481934, -0.5108186602592468, 1.5318983793258667, 0.3124557435512543, -0.09295076131820679, 0.08741971105337143, 0.33124446868896484], [-0.0706736147403717, 0.113307423889637, 0.00892020482569933, -0.04155147448182106, 0.0839964896440506, 0.020136689767241478, 0.2302618771791458, -0.07856949418783188, -0.012539645656943321, 0.06508825719356537, -0.034599531441926956, 0.23979344964027405, -0.023618124425411224, -0.006037855986505747, 0.15204180777072906, 0.004834799561649561], [-0.20015235245227814, 0.03910185024142265, -0.20686432719230652, -0.092006154358387, 0.11971557885408401, -0.10754598677158356, 0.19445663690567017, -0.0619783028960228, 0.061010438948869705, 0.13504013419151306, -0.08382738381624222, -0.020614590495824814, 0.3069520890712738, -0.08840583264827728, -0.7446608543395996, 0.007652881555259228], [-0.31345465779304504, -2.6507554054260254, 0.5388230085372925, -0.05559002235531807, -0.19490119814872742, 0.5013195276260376, 0.5438406467437744, -0.13309243321418762, 1.2268455028533936, -0.11479906737804413, -2.268162488937378, 1.2007989883422852, -3.500671148300171, -0.06792798638343811, 0.03242405503988266, -0.04230862855911255], [0.25984421372413635, 0.15964192152023315, 0.061546336859464645, 0.3140754997730255, -0.1011284738779068, 0.09257639199495316, 0.37016206979751587, 0.20109324157238007, 0.3638685345649719, -0.4171089828014374, 0.5581415891647339, -0.8690114617347717, 0.23888418078422546, -0.0936809554696083, -0.6461570858955383, 0.1685882955789566], [0.4033268690109253, 0.20875659584999084, -0.08672312647104263, 0.3885689973831177, -0.3114142119884491, 0.0882105827331543, 0.7605093717575073, -0.008000626228749752, 0.019453756511211395, -0.22493161261081696, 0.4866562485694885, -0.5630112290382385, 0.05461883544921875, -0.2626037299633026, -0.6850464940071106, 0.18608595430850983], [0.004456599708646536, 0.5323012471199036, 0.07225638628005981, 0.3187413215637207, -0.07694265246391296, -0.17613916099071503, 0.17565332353115082, 0.4042799472808838, 0.08291718363761902, -0.3478238582611084, 0.9690137505531311, -0.7639544606208801, 0.2459864318370819, -0.3485184907913208, -0.6179298162460327, 0.20982281863689423], [0.5037862062454224, -0.5212744474411011, 0.2641940116882324, 0.25534549355506897, 0.01883956417441368, 0.19133266806602478, -0.5646800994873047, -0.3276435136795044, 0.65871661901474, -0.23391659557819366, 0.8837254643440247, -0.9301534295082092, 0.41486603021621704, -0.18483245372772217, -0.6532321572303772, 0.5099812746047974], [0.3456864356994629, 0.2539214491844177, -0.24037033319473267, 0.7692552208900452, -0.2188958376646042, -0.0031543029472231865, 1.318701982498169, 0.06165485829114914, -0.2094309777021408, 0.036803703755140305, 0.05508562549948692, -0.2483627200126648, -0.17503654956817627, 0.0048804073594510555, -0.6130861639976501, -0.40242230892181396], [-0.8945081830024719, 1.4572410583496094, -0.2476854920387268, -0.23415330052375793, -0.532501220703125, -0.9937953948974609, -0.4832935035228729, 1.0440673828125, 0.10496954619884491, -3.462900400161743, 1.6248162984848022, -2.3430898189544678, 1.5209442377090454, 0.10464292764663696, 0.02098558284342289, 0.0856219232082367], [-0.0857788696885109, 0.2954244911670685, -0.059010203927755356, -0.3420904278755188, -0.6945837736129761, -0.1143142357468605, 0.24535711109638214, -0.3780811131000519, -0.45722952485084534, -0.27669671177864075, -0.20774105191230774, 0.36069977283477783, 0.12058062851428986, 0.1789921075105667, 0.015550961717963219, -0.1423034518957138], [-0.25622156262397766, -0.2860010862350464, -0.434567928314209, -0.3055703043937683, 0.08900516480207443, -0.1035509780049324, -0.7469427585601807, -0.052297648042440414, 0.6607443690299988, 0.2617012858390808, 0.2881154417991638, 0.8233456015586853, 0.32395198941230774, 0.017014948651194572, 0.06378047168254852, 0.19921396672725677], [-0.4022212624549866, 1.3216670751571655, -0.11775034666061401, -0.5589619278907776, 0.05525537207722664, -0.4569568336009979, -0.4147135317325592, 0.18072332441806793, -0.3705288767814636, -0.17860369384288788, 0.6085521578788757, -0.2877776622772217, 5.492854595184326, 0.19261260330677032, 0.49361205101013184, -0.08604800701141357], [0.07306354492902756, -0.2001454383134842, -0.041332077234983444, 0.085566945374012, -0.055004436522722244, -0.0077364481985569, 0.05698084086179733, -0.05372437462210655, -0.06657308340072632, 0.06114581227302551, -0.022323455661535263, -0.04543159902095795, -0.04947991669178009, -0.10473629832267761, -0.10913592576980591, -0.02557784877717495], [-0.28036433458328247, 0.11893259733915329, -0.02828647568821907, -0.041251443326473236, -0.27078306674957275, 0.015254756435751915, 0.3192369043827057, 0.048938293009996414, 0.08125201612710953, -0.15440374612808228, 0.1657862663269043, -0.4412839412689209, -0.08127561211585999, 0.0506943017244339, -0.14748360216617584, -0.03672826662659645], [0.7032351493835449, 0.8391025066375732, 0.2778855264186859, -0.006249475292861462, -0.37360817193984985, 0.2772708833217621, -0.053853828459978104, 0.0857718214392662, -0.35450562834739685, 0.3331185579299927, 0.859733521938324, 2.2987778186798096, -1.4277052879333496, -6.14357995800674e-05, 0.021840211004018784, -0.05957813188433647]], "1_weights": [[-0.1992165446281433, -0.299328476190567, 0.6459569334983826, 0.20701825618743896, 0.423449844121933, 0.1523076593875885, -0.21668115258216858, 0.05705839395523071, -0.4023970663547516, -0.06691792607307434, 0.0537605844438076, -0.14451073110103607, -0.41715970635414124, -0.2101854532957077, 0.06596919149160385, -0.24586772918701172], [1.0314862728118896, -0.7834848165512085, -2.193835735321045, 0.7009460926055908, -1.7149800062179565, -1.261335849761963, -0.6392124891281128, 0.05609610676765442, -3.9076569080352783, 0.23294992744922638, -0.523189902305603, -0.1982327103614807, -0.032690826803445816, 0.8887906074523926, -0.39677539467811584, 0.026157543063163757], [-0.5622296929359436, -0.7756787538528442, 0.1283523589372635, 0.0002767468977253884, -0.01170857809484005, 0.04157058149576187, -0.166653573513031, -0.33885133266448975, -1.2741119861602783, -0.11621671915054321, 0.14918212592601776, -0.2993795573711395, 0.05018077790737152, -0.22247515618801117, -0.04513419419527054, -0.3447728753089905], [-1.2750493288040161, 1.1905344724655151, -0.751467227935791, 0.6329061388969421, 0.047214213758707047, 0.1324211061000824, 0.5345171689987183, -0.06002318859100342, 0.025770248845219612, -0.5101066827774048, 0.5191879868507385, 0.09284649044275284, -0.4325716495513916, -0.5076388716697693, -0.29242414236068726, -0.09559468924999237], [-0.12085764110088348, 1.1360265016555786, -1.0468323230743408, -1.345165729522705, -0.30018842220306396, 0.05047168582677841, -0.9940612316131592, -0.052220724523067474, -0.9686858057975769, 0.14086727797985077, -0.6948253512382507, -0.2256080061197281, -0.08758708834648132, 0.27842894196510315, -0.743759036064148, -0.1805351972579956], [0.1776515245437622, 1.4390584230422974, -0.8900868892669678, 0.5052152872085571, 0.7607733607292175, 0.23001514375209808, -0.08582483232021332, -0.13834671676158905, 0.7544890642166138, -0.4995974004268646, -0.40834707021713257, -0.05174710974097252, 0.00806877575814724, -0.2439710944890976, -0.23629292845726013, -0.27895215153694153], [0.5428306460380554, -0.7855613827705383, -0.260596364736557, -0.7174436450004578, 0.5745853185653687, 0.4512603282928467, -0.6584948301315308, -0.3420462906360626, -0.02696099504828453, -0.06823688745498657, 0.03132796287536621, -0.11074110865592957, -0.28034594655036926, 0.06001848727464676, 0.48311662673950195, -0.046473532915115356], [-1.6380259990692139, -1.028333306312561, 0.10128967463970184, -0.48819491267204285, -0.494931161403656, -0.3258107006549835, -0.1250583827495575, -0.052971430122852325, 1.1241180896759033, 0.38452425599098206, 0.11867231130599976, -0.025249764323234558, 0.01476843561977148, -0.4157034456729889, 0.3547869026660919, -0.022563040256500244], [0.09212358295917511, -0.2398655265569687, 0.4313863515853882, -0.310110867023468, 0.4411764442920685, 0.019079528748989105, 0.5140625238418579, 0.00632560346275568, -0.7431594133377075, -0.11201949417591095, -0.03181970864534378, -0.31621721386909485, -0.32249706983566284, -0.1579759418964386, 0.40412479639053345, -0.020900510251522064], [0.004366924986243248, -0.19200661778450012, -0.28156986832618713, -1.72328782081604, 0.57829749584198, 0.143523707985878, 0.03715330734848976, -0.12119346112012863, 1.5390480756759644, -0.16074688732624054, 0.26267457008361816, -0.2279704064130783, -0.37670573592185974, -0.15565526485443115, 0.5001776218414307, -0.21977871656417847], [-0.8031021356582642, -1.7873966693878174, 0.9893310070037842, -0.7809996008872986, 0.9107846021652222, 1.4001458883285522, 0.02171250805258751, -0.08749029040336609, 0.36942997574806213, -0.48149728775024414, 0.387709379196167, -0.3467094600200653, -0.5839642882347107, -0.9024917483329773, 0.8113241195678711, -0.20049387216567993], [0.1116052195429802, -0.6977247595787048, 0.1924053579568863, -0.7352883219718933, -0.41613224148750305, -0.21138648688793182, 1.4434263706207275, -0.08837930113077164, -1.396417498588562, 0.2651321589946747, 0.2724423408508301, -0.18541516363620758, -0.3305181562900543, -0.1057422086596489, 0.6842633485794067, -0.10493538528680801], [-0.020996754989027977, -0.6969411373138428, 1.4218614101409912, -0.07850734144449234, 1.1179895401000977, 0.15811452269554138, 0.899877667427063, -0.199722558259964, -3.7488596439361572, -0.3296107351779938, 0.2079182118177414, -0.21013420820236206, -0.16903230547904968, -0.24728909134864807, -0.07783921808004379, -0.005336336325854063], [0.00014417267811950296, -0.0080301184207201, -0.39711856842041016, 0.06393179297447205, -0.0006829372723586857, 0.2335829734802246, 0.09568899124860764, 0.22901277244091034, -0.12904833257198334, -0.25851336121559143, 0.13780303299427032, 0.12003715336322784, 0.07762095332145691, -0.1595093309879303, -0.02423865906894207, -0.00016049724945332855], [0.33369332551956177, 0.12489386647939682, -0.1570139080286026, -0.49187809228897095, -0.22391782701015472, -0.029759466648101807, -0.1016172543168068, -0.18293707072734833, -0.07981310039758682, -0.15008629858493805, 0.18074603378772736, 0.042766161262989044, 0.0677599236369133, 0.0013585814740508795, 0.34465643763542175, 0.07762183248996735], [0.5875065326690674, -0.3119141459465027, -0.8621581792831421, -1.8192321062088013, 0.4304061830043793, 0.6874536871910095, 0.6047991514205933, -0.14632059633731842, 0.34589019417762756, 0.632716715335846, 0.19602757692337036, 0.012574792839586735, -0.31741034984588623, 0.3631535768508911, 0.5034621357917786, -0.15305176377296448]], "2_weights": [[0.3604326546192169, 0.38799041509628296, 0.4018968641757965], [0.35195761919021606, 0.3933928906917572, 0.4762772023677826], [0.3799486756324768, 0.34183892607688904, 0.278227835893631], [-0.22958840429782867, -0.2598285675048828, -0.25271672010421753], [-0.38585999608039856, -0.2951425611972809, -0.183839350938797], [0.07661039382219315, -0.07986857742071152, -0.309419184923172], [-0.23338302969932556, -0.2621050179004669, -0.2907976508140564], [-0.1757117360830307, 0.06276582181453705, 0.042523641139268875], [0.15851175785064697, 0.17251577973365784, 0.15153004229068756], [-0.24547038972377777, -0.0729905441403389, 0.19357864558696747], [0.1293214112520218, 0.20302262902259827, -0.060685183852910995], [0.06592073291540146, 0.4264957010746002, 0.12509246170520782], [-0.0064718653447926044, 0.011157245375216007, 0.10270798206329346], [0.005703754257410765, -0.09678636491298676, -0.37403154373168945], [-1.053755760192871, -0.6793004870414734, -0.17206348478794098], [0.02930546924471855, -0.04916693642735481, -0.005146970506757498]], "0_bias": [0.4188339114189148, 0.23766390979290009, 0.08374453336000443, 0.5687430500984192, -0.06400509923696518, -0.13403041660785675, 0.3815848231315613, 0.2427956610918045, 0.15435698628425598, -0.21796509623527527, 0.6417032480239868, -0.8104957342147827, 0.23511090874671936, -0.15227444469928741, -0.5233221054077148, 0.27243971824645996], "1_bias": [1.6009801626205444, -1.2308372259140015, -0.5741607546806335, 0.44469207525253296, 0.4371660351753235, 0.3926670253276825, 0.3355916738510132, -0.26144859194755554, -0.4735286831855774, 0.7192836403846741, -1.4467569589614868, -0.4903489351272583, -0.04570785164833069, 0.523515522480011, -2.4946787357330322, -0.12502650916576385], "2_bias": [-0.39434415102005005, -0.45147705078125, -0.4554460942745209]}