{"triplane_resolution": 2048, "triplane_voxel_size": 0.001953125, "sparse_grid_resolution": 512, "sparse_grid_voxel_size": 0.0078125, "range_features": [-7.0, 7.0], "range_density": [-14.0, 14.0], "data_block_size": 16, "atlas_width": 1547, "atlas_height": 221, "atlas_depth": 17, "num_slices": 17, "slice_depth": 1, "0_weights": [[0.2799566984176636, 0.21115945279598236, 1.8618592023849487, 1.8862464427947998, 0.37943515181541443, 3.8365557193756104, 2.5929670333862305, 1.9618803262710571, 1.1176143884658813, 3.018376588821411, 2.1621944904327393, 2.004509449005127, 0.9109228253364563, 0.7852086424827576, -4.156858444213867, 1.9813604354858398], [2.0335183143615723, 1.3046846389770508, 1.573747158050537, 1.740416169166565, 1.8456133604049683, 3.2136390209198, 2.6286022663116455, 1.366321086883545, 0.19983936846256256, 3.208265542984009, 1.6916455030441284, 1.8484468460083008, 1.2210384607315063, -0.11704981327056885, -3.6989126205444336, 2.32741379737854], [3.6752729415893555, 2.8248989582061768, -0.016953760758042336, 0.28453364968299866, 5.09550142288208, -0.055372707545757294, 1.8421711921691895, 0.18190568685531616, -3.2456207275390625, 2.6194911003112793, 0.5959925055503845, -0.38037294149398804, 2.559131145477295, -2.2370498180389404, 3.9395484924316406, 3.455244779586792], [-0.6405240297317505, 0.5183395743370056, -0.2484116107225418, -0.9783065915107727, -2.4378015995025635, -11.724286079406738, 0.3595729470252991, 3.0320990085601807, -1.5272955894470215, 0.07802103459835052, 2.2501754760742188, 1.7472734451293945, -24.828523635864258, -2.1316022872924805, -2.426805019378662, -1.8312156200408936], [1.1227922439575195, -10.616832733154297, -0.6657871603965759, -1.297494888305664, -1.4823836088180542, 0.03658919408917427, -0.13368186354637146, 0.12056289613246918, -0.002689899643883109, -0.20104332268238068, -0.06175718456506729, -0.578270673751831, 1.7589153051376343, 0.08601495623588562, 1.4849299192428589, 0.3425602316856384], [0.3729485869407654, -2.0575873851776123, 3.376743793487549, -7.470223426818848, -3.3609089851379395, -0.222146674990654, -1.2638310194015503, 2.6907429695129395, 0.8708311915397644, -0.950077474117279, -2.4564449787139893, -0.8815234303474426, -0.18973004817962646, 0.17682699859142303, 0.562002956867218, -1.0254461765289307], [11.43226432800293, 7.584122657775879, -0.60951828956604, 2.7818148136138916, -2.8726348876953125, -0.6849778890609741, 5.368581771850586, -0.21554411947727203, 12.604159355163574, 15.245953559875488, -4.571695804595947, 2.8699498176574707, -6.572243690490723, 5.2968597412109375, -20.431467056274414, -0.29222092032432556], [-0.7891400456428528, 0.034366801381111145, -0.0821443498134613, 0.06329746544361115, 0.0878407210111618, -0.7722211480140686, 0.3282844126224518, 0.33752337098121643, -0.2622758150100708, 0.18237219750881195, -0.7781266570091248, -0.5300903916358948, -0.9666443467140198, -0.4910285770893097, -0.5246298313140869, -0.3248172104358673], [0.12925387918949127, -0.7420482635498047, 0.16335809230804443, 0.0011472320184111595, -0.4659196734428406, -0.058236610144376755, -0.06261313706636429, -0.05590363219380379, 0.6563564538955688, 0.2883864641189575, -0.5853158235549927, -0.19814734160900116, -0.3792676627635956, -0.567718505859375, 0.3280469477176666, 0.04205029085278511], [-0.08851206302642822, 0.06946028023958206, 0.3786616325378418, -0.06648178398609161, 0.2612343430519104, -0.00041686007170937955, -0.1064191535115242, 0.5157023668289185, 0.04137763753533363, 0.09470308572053909, 0.08377421647310257, 0.22868983447551727, 0.018593819811940193, -0.310606449842453, 0.07897794246673584, -0.07402303069829941], [-0.8821300268173218, -0.1400354653596878, -0.05684414505958557, 0.09156803786754608, 0.14237052202224731, -0.4595505893230438, 0.3627759516239166, 0.512364387512207, -0.09798885136842728, -0.033431526273489, -0.7099807262420654, -0.29949241876602173, -1.0805655717849731, -0.6311229467391968, -0.23500776290893555, -0.262831449508667], [0.12693408131599426, -0.5533239841461182, -0.012568227015435696, -0.04148637875914574, -0.44579628109931946, 0.013799850828945637, 0.005357877351343632, 0.2071404904127121, 0.7299073338508606, 0.16474732756614685, -0.5941329598426819, -0.399712473154068, -0.41992267966270447, -0.7155314683914185, 0.370013028383255, -0.03329221531748772], [0.03166668862104416, -0.10157380253076553, 0.4378114342689514, -0.08331690728664398, 0.08594156056642532, -0.15937528014183044, -0.20166003704071045, 0.30170273780822754, -0.29160016775131226, -0.17581219971179962, 0.23265695571899414, 0.135189950466156, 0.24988077580928802, -0.2522214949131012, -0.03493316099047661, -0.13759152591228485], [-0.6702419519424438, -0.22011514008045197, 0.3278135657310486, -0.29098817706108093, 0.0479104183614254, -0.29643866419792175, 0.2851403057575226, 0.20852981507778168, 0.15124399960041046, -0.24584925174713135, -0.5023858547210693, -0.543961226940155, -0.7558649778366089, -0.5353551506996155, -0.15211337804794312, -0.28650256991386414], [-0.1698586344718933, -0.4694651663303375, -0.1903935819864273, 0.0037750296760350466, -0.2567921578884125, 0.16018180549144745, -0.10209151357412338, 0.012258760631084442, 0.5517280101776123, 0.20743843913078308, -0.3727729022502899, -0.3013630211353302, -0.6560901999473572, -0.6331660151481628, 0.552307665348053, 0.02992090955376625], [-0.23400145769119263, 0.014979545958340168, 0.515457272529602, -0.2151709944009781, -0.0899147018790245, -0.1653655767440796, -0.039988115429878235, 0.3884729743003845, -0.167460635304451, 0.0010427901288494468, 0.21338891983032227, 0.377093642950058, 0.3384441137313843, -0.09404424577951431, 0.13779427111148834, -0.1515883356332779], [0.9372595548629761, 0.037158507853746414, 0.014392967335879803, -0.022090498358011246, -1.0281673669815063, 0.3755788803100586, 0.21202462911605835, 0.522756040096283, 0.025290561839938164, -0.3301767408847809, 1.3098379373550415, -0.8273186087608337, 0.4348320960998535, 0.2930541932582855, 0.7247976064682007, 0.12116128206253052], [-0.2664473056793213, 0.9904780983924866, 0.17682689428329468, 0.03240233659744263, 0.3535540699958801, -0.2073158472776413, -0.27145451307296753, -0.28411760926246643, -0.13731421530246735, 0.4662654399871826, 1.41445791721344, 0.861553430557251, -0.759261429309845, 0.38900965452194214, -0.3347395658493042, 0.18656983971595764], [0.023010922595858574, 0.6127763390541077, -0.13112518191337585, 0.18456977605819702, -0.5756618976593018, -0.030172839760780334, 0.15400457382202148, 0.4236844778060913, 0.19833385944366455, -0.155302956700325, -0.8057014346122742, 0.7706814408302307, 0.9499397277832031, 0.9510425329208374, -0.06233403459191322, -0.03765784204006195], [0.004416682757437229, -0.7770445346832275, 0.5012008547782898, 0.034348152577877045, -0.08995230495929718, 0.02862728387117386, 0.25485002994537354, 0.2399069219827652, 0.5047264695167542, 0.2898777723312378, 0.0382096953690052, 0.367635577917099, -0.2206287384033203, 0.17601928114891052, 0.5667386651039124, -0.16170544922351837], [0.10887815803289413, 0.05353865027427673, 0.07115030288696289, -0.053133927285671234, 0.011224023997783661, -0.13033676147460938, 0.17170029878616333, 0.2936500012874603, -0.13235391676425934, -0.0985085517168045, -0.24657851457595825, -0.011896982789039612, 0.7975743412971497, 0.11019645631313324, 0.13189595937728882, -0.242895245552063], [-0.0021624471992254257, 0.448891282081604, 0.22800590097904205, 0.028849685564637184, 0.024917347356677055, 0.5654236674308777, 0.2886677086353302, 0.33401045203208923, 0.24721093475818634, 0.05017292499542236, -0.7131016850471497, 0.2484249472618103, -0.25867652893066406, 0.07139815390110016, 0.18883861601352692, 0.10485401749610901], [-0.020938994362950325, -0.0067550488747656345, -0.6798479557037354, 0.3310108482837677, -0.3072490692138672, -0.10793064534664154, 0.09295395761728287, -0.46671995520591736, 0.2642037570476532, 0.06622183322906494, -0.041990362107753754, -0.27082374691963196, 0.2667086124420166, 0.12140534073114395, 0.0044716945849359035, 0.0727643296122551], [0.20033930242061615, 0.04681042209267616, -0.46997544169425964, 0.17383547127246857, -0.3165211081504822, 0.007894691079854965, 0.12726689875125885, -0.5588788390159607, -0.11317206919193268, 0.3204001486301422, 0.10801417380571365, -0.2343772053718567, 0.1853117197751999, 0.02452690154314041, 0.01386465784162283, 0.3903961479663849], [0.2946487069129944, -0.15057992935180664, -0.6368499994277954, 0.09468124061822891, -0.13023045659065247, 0.08830156922340393, 0.12056579440832138, -0.5328651666641235, 0.15091902017593384, 0.285480797290802, 0.12718097865581512, -0.3044646680355072, 0.3801768720149994, -0.007786986883729696, 0.11106834560632706, 0.29231366515159607], [-0.5439654588699341, 0.4913669228553772, -0.7933633327484131, 0.24554574489593506, -0.9824532866477966, 0.17324575781822205, 0.21918579936027527, -0.555366575717926, 0.6701030731201172, -0.40330034494400024, 0.1404423862695694, -0.11737112700939178, 0.6935603022575378, 0.2637636661529541, 0.14791138470172882, 0.09149634093046188], [0.8168884515762329, -0.1862199306488037, -0.11749798059463501, 0.20500877499580383, -0.11764873564243317, 0.03647134453058243, 0.18495631217956543, 0.12221784889698029, -0.450765997171402, 0.5884482264518738, 0.12234847992658615, -0.4614737331867218, -1.2043777704238892, 0.30599337816238403, -0.23979519307613373, 0.4313914179801941], [-0.04205368086695671, -0.974139928817749, -0.7390182018280029, 0.49627333879470825, -0.4387984871864319, -0.33828410506248474, -0.021273812279105186, -1.0090564489364624, -0.1618725210428238, 0.47201961278915405, 1.3770147562026978, -1.3110299110412598, -0.23648540675640106, -1.159922480583191, -0.33533623814582825, 0.2607104778289795], [-0.14857597649097443, -0.413939893245697, -0.23300963640213013, 0.02095039375126362, -0.05300673469901085, -0.19365887343883514, -0.5396087169647217, 0.17364490032196045, -0.12905201315879822, 0.28368622064590454, -0.3468259871006012, 0.19915398955345154, 0.9178315997123718, 0.5446826815605164, 0.9881622195243835, -0.35953325033187866], [-0.3075399100780487, 0.520857036113739, 0.27134254574775696, -0.02821146883070469, -0.12386506795883179, 0.8354330062866211, -0.2521202266216278, -1.33158278465271, -0.23976120352745056, -0.32786825299263, 0.979669988155365, -2.311182975769043, -0.3386422097682953, -0.13199011981487274, -0.23628175258636475, 0.3355042040348053], [-0.08640724420547485, -0.05101899057626724, 0.26798826456069946, -0.059753596782684326, 0.11685537546873093, 0.0472622774541378, 0.04695003107190132, 0.4972333610057831, -0.23043280839920044, -0.1693485677242279, 0.7676153182983398, 0.02172016352415085, 1.1294981241226196, -0.16829915344715118, -0.11041378229856491, -0.1724558174610138], [0.10100047290325165, 0.29140523076057434, -0.22871211171150208, -0.008394552394747734, 0.28520843386650085, -0.15656308829784393, -0.01062287762761116, -0.16833710670471191, 0.07801418006420135, -0.13301981985569, 0.29483625292778015, -0.4978048503398895, 0.7211079001426697, -0.42805978655815125, -0.25670525431632996, 0.10671863704919815], [0.08260467648506165, -0.29817211627960205, -0.05055154114961624, -0.03977324441075325, -0.12816734611988068, -0.1908736377954483, 0.10495653748512268, -0.41644638776779175, 0.1627446562051773, 0.0502735860645771, -0.021059628576040268, -0.5565544962882996, -0.267587810754776, 0.02213452197611332, 0.16503164172172546, 0.013740992173552513], [0.04952286556363106, -0.0724233016371727, 0.10807742178440094, -0.035734351724386215, 0.37143513560295105, -0.4471637010574341, 0.030707798898220062, -0.4914585053920746, 0.27675777673721313, 0.2249484658241272, 0.06983176618814468, -0.598393440246582, -0.1182885393500328, -0.20306992530822754, 0.10824324935674667, -0.10845988243818283]], "1_weights": [[-0.6576898694038391, -0.40878716111183167, -0.22523261606693268, -0.21266016364097595, -0.5271198153495789, -0.3397715985774994, -1.7670276165008545, -0.26092663407325745, -0.30903464555740356, -0.023746617138385773, -2.368705987930298, 0.13583554327487946, -0.08237914741039276, 0.23620650172233582, 0.06737015396356583, -0.24635247886180878], [0.3604125380516052, 0.2450622022151947, 0.20249176025390625, 0.10614927113056183, -0.171330064535141, 0.12733471393585205, -0.24843119084835052, 0.8129879832267761, 0.2248671054840088, -0.1866208016872406, -0.15446849167346954, -0.2940683960914612, 0.4306570589542389, 0.07339095324277878, -0.09606236964464188, 0.20081199705600739], [4.436878681182861, 1.0944491624832153, -2.0758676528930664, -1.5259426832199097, -0.12171247601509094, 0.778045654296875, 0.0807015672326088, 0.6062759757041931, 1.463469386100769, 2.191333293914795, 0.5085769295692444, -0.42879730463027954, -0.019411278888583183, 0.7532870769500732, -0.2078179121017456, 0.9160945415496826], [1.7829086780548096, 0.37277042865753174, 2.046243906021118, -0.3633931577205658, 0.038833193480968475, 0.837357759475708, 1.7366993427276611, 0.22095751762390137, 1.2924232482910156, 1.0837979316711426, 1.3421984910964966, -0.6666661500930786, 0.609916627407074, 0.47432616353034973, -0.48281797766685486, 0.8487369418144226], [0.9340927600860596, -0.11214708536863327, 0.37996214628219604, 0.13597863912582397, -0.2800130248069763, 0.16256743669509888, -3.2796876430511475, 0.805396556854248, 0.4324537515640259, 2.4424753189086914, 2.340663194656372, 0.3954399526119232, -0.07182842493057251, 1.011658787727356, 0.022483790293335915, -0.11569889634847641], [-0.43660396337509155, 0.37520742416381836, -0.09243021160364151, -0.33332082629203796, -0.06848523020744324, 0.39171233773231506, 0.08814172446727753, 1.3658040761947632, -0.17772550880908966, -0.042710304260253906, 0.23957498371601105, 1.0260976552963257, 0.8170953392982483, -0.30458691716194153, -0.03851763531565666, 0.18018457293510437], [0.18237729370594025, -0.05843896046280861, 0.4561600387096405, 0.7581419944763184, -0.47480642795562744, 0.13857050240039825, 0.1133246198296547, 0.7299648523330688, -0.00876771379262209, 0.03505738824605942, 0.12238071113824844, -0.09700185060501099, -0.601545512676239, 0.26933082938194275, 0.010009302757680416, 0.14116932451725006], [0.9083179831504822, 0.2606734335422516, -2.605431318283081, -0.15889716148376465, 0.07940471917390823, 0.2922915518283844, 0.349491149187088, -0.5606614947319031, 1.0773603916168213, 0.27650418877601624, 0.3490496277809143, 0.02228705771267414, -0.6074340343475342, -0.1312035471200943, -0.09567579627037048, 0.23306486010551453], [0.824237048625946, 0.3540087640285492, 0.11563494801521301, 0.17727255821228027, -0.17374616861343384, 0.4115138649940491, 0.11046788096427917, -0.25044116377830505, 0.2323736697435379, 0.45855188369750977, 0.9229071736335754, 0.4444796144962311, 0.284443736076355, -0.13174384832382202, -0.15927095711231232, 0.35060012340545654], [-0.9189877510070801, 0.1523621380329132, -0.20308028161525726, -0.4824366271495819, -0.21554814279079437, 0.2074563056230545, 0.004316689912229776, -0.8986989855766296, 0.08391602337360382, -0.22085388004779816, 0.04107151925563812, -0.1011369451880455, -0.8796730637550354, 0.22204571962356567, -0.35973840951919556, 0.32703906297683716], [-0.19604156911373138, 0.13916923105716705, 0.17229120433330536, 0.16936461627483368, -0.06671661883592606, 0.21692202985286713, -0.250727117061615, -1.5358089208602905, 0.3493083417415619, -0.12120750546455383, 0.23942731320858002, -0.29180601239204407, -0.006250077858567238, -0.09511356800794601, -0.04885305091738701, 0.22587808966636658], [-1.8745754957199097, -0.18419960141181946, 0.010195334441959858, 0.4230841100215912, -0.6203060150146484, -0.169374480843544, 0.32645130157470703, -0.518204391002655, -0.7183054685592651, -0.5447409152984619, 0.23678500950336456, -0.8491982817649841, 0.48672497272491455, -0.7395574450492859, 0.09494955092668533, 0.08555805683135986], [-0.02071210741996765, 0.43205687403678894, 0.008892511017620564, -0.1906655877828598, -0.31730860471725464, -0.0014997486723586917, 0.6453610062599182, -0.18348300457000732, 0.45576849579811096, -0.11100858449935913, 0.36804795265197754, -0.062195032835006714, -0.41747888922691345, 0.008065317757427692, -0.2058907002210617, 0.2551533281803131], [-0.027117285877466202, 0.31683918833732605, -0.2739548683166504, 0.02140132710337639, -0.022216690704226494, 0.1583322435617447, -0.3890264332294464, 0.5326752662658691, 0.3094351887702942, 0.003183844732120633, 0.4459538757801056, 0.2175855189561844, -0.07813316583633423, 0.17350783944129944, -0.5058286786079407, 0.2350640892982483], [-0.3155781030654907, -0.10316713154315948, -0.00835301075130701, -0.02468874119222164, -0.39484328031539917, -0.10387355089187622, 0.04246983304619789, -0.36223700642585754, -0.19213467836380005, -0.43870478868484497, -0.6057000160217285, -0.5584290027618408, -2.0099048614501953, -0.0745980441570282, 0.19490984082221985, 0.05522216483950615], [-0.39566999673843384, 0.08079423755407333, 0.13961076736450195, 0.19047240912914276, -0.29728153347969055, 0.23855364322662354, -0.8656653761863708, -0.5821866989135742, 0.3975476920604706, -0.5319600105285645, -0.795869767665863, -0.7140319347381592, -0.39062103629112244, 0.019173821434378624, -0.07212520390748978, 0.37236809730529785]], "2_weights": [[0.5396243929862976, 0.4749993085861206, 0.4144359827041626], [-0.21500995755195618, -0.04926450178027153, 0.1003856509923935], [-1.0687166452407837, -0.9466423988342285, -0.8376526832580566], [-0.37761190533638, -0.29760363698005676, -0.21881429851055145], [-0.1640845388174057, 0.028617845848202705, 0.015436948277056217], [-0.2860887348651886, -0.17414739727973938, -0.06925643235445023], [-0.3501203954219818, -0.28798818588256836, -0.2425660341978073], [-0.20424431562423706, -0.19527894258499146, -0.18803468346595764], [-0.1472276896238327, -0.16654665768146515, -0.17496033012866974], [-1.0423774719238281, -0.8947739601135254, -0.7524574995040894], [0.49191391468048096, 0.41252458095550537, 0.33772075176239014], [-0.3977816700935364, -0.3398474454879761, -0.2909885048866272], [-0.3970363438129425, -0.4544035792350769, -0.4829602539539337], [-0.10109370201826096, -0.12053315341472626, -0.14963863790035248], [0.2938186526298523, 0.14446265995502472, -0.11616642028093338], [-0.1316833347082138, -0.2412508726119995, -0.3511770963668823]], "0_bias": [-0.012031788937747478, -0.15330633521080017, -0.5936076045036316, 0.19353991746902466, -0.13934233784675598, -0.05514339730143547, 0.17685261368751526, -0.49375879764556885, 0.15117861330509186, 0.012760316953063011, 0.1808597296476364, -0.2823130190372467, 0.271558552980423, 0.08621867001056671, 0.015521903522312641, 0.10331328958272934], "1_bias": [0.23039847612380981, 0.040142159909009933, -1.773167610168457, 0.5876247882843018, -0.568442165851593, 0.06646762043237686, 0.43127796053886414, -0.2055223435163498, -0.2896479368209839, 0.24517904222011566, -0.3553766906261444, -0.18274565041065216, 0.7930656671524048, -0.4428269565105438, -0.23383387923240662, -0.3391547203063965], "2_bias": [-0.18387189507484436, -0.25142738223075867, -0.21591775119304657]}