{"triplane_resolution": 4096, "triplane_voxel_size": 0.0009765625, "sparse_grid_resolution": 512, "sparse_grid_voxel_size": 0.0078125, "range_features": [-7.0, 7.0], "range_density": [-14.0, 14.0], "data_block_size": 8, "atlas_width": 1629, "atlas_height": 504, "atlas_depth": 9, "num_slices": 9, "slice_depth": 1, "0_weights": [[-0.1255730837583542, -0.08804916590452194, 1.4462662935256958, -0.10687512904405594, 0.2013985812664032, -0.22629143297672272, -1.487058162689209, -0.5104377269744873, 1.2868716716766357, 0.11850833892822266, -0.030102593824267387, -2.1287362575531006, 0.7706652283668518, 0.035351917147636414, -1.0884318351745605, 1.071839451789856], [-0.1120234802365303, 0.1457291543483734, 0.17308419942855835, -0.1659412384033203, 0.20828759670257568, 0.8693376779556274, -0.26927170157432556, 0.8392151594161987, 2.191422462463379, 0.25451338291168213, 0.0022914838045835495, 0.6411125063896179, -0.4808948338031769, 0.5841506719589233, -0.8214244246482849, -1.5098719596862793], [1.258322834968567, -0.4578228294849396, 0.7522685527801514, -0.1513633131980896, 0.002708835294470191, -0.7189591526985168, -0.9024970531463623, 0.6690012216567993, 1.4431599378585815, -0.8382411599159241, -0.015149147249758244, 2.86306095123291, 2.1599879264831543, 0.8165796399116516, 0.5474736094474792, 1.4289627075195312], [-2.714679479598999, -2.0512430667877197, -0.7541292309761047, -0.15132394433021545, -29.215553283691406, 1.724564552307129, -4.25839376449585, -4.736619472503662, 0.8238205313682556, 7.116774559020996, -8.861032485961914, 8.420267105102539, 4.774585247039795, 6.6102447509765625, 1.6697367429733276, 0.07709857821464539], [-1.4350539445877075, -0.7089720964431763, -0.6797356009483337, -0.18050019443035126, -0.1143685132265091, 1.1692641973495483, 2.2209157943725586, 0.40112197399139404, -2.6026437282562256, -0.508190393447876, 1.0705993175506592, -0.07355710864067078, -0.4881574511528015, -2.3908376693725586, 0.36638885736465454, -1.8720288276672363], [0.5777757167816162, 0.8722551465034485, -0.5285475850105286, -0.1282764971256256, -0.1967693567276001, -1.723505973815918, 1.281786561012268, -2.37412691116333, -0.6792325973510742, 0.9944810271263123, -4.229156970977783, -0.8141012191772461, -1.9209641218185425, 0.8740432858467102, 0.5060445666313171, 1.164192795753479], [-0.6147812604904175, 0.25189587473869324, -0.3302473723888397, -0.19256600737571716, 0.11463119834661484, 0.12377111613750458, -0.8855739831924438, -0.874457597732544, -1.1156138181686401, 0.11496557295322418, 0.06373676657676697, 0.3727443516254425, -0.5617551803588867, 0.69022136926651, 1.0377038717269897, 0.25687679648399353], [0.03284495696425438, 0.048946212977170944, -0.1836344301700592, -0.06827516853809357, -0.39629289507865906, 0.10550517588853836, 0.08029226958751678, -0.19086356461048126, -0.17320403456687927, 0.5396032929420471, -0.1931367665529251, -0.021053114905953407, 0.2598787844181061, -0.07995015382766724, -0.19497890770435333, 0.13469722867012024], [-0.06641073524951935, 0.68480384349823, 1.2804030179977417, 0.17371824383735657, -0.1824616938829422, 0.6637715697288513, 0.20637066662311554, 0.8743190765380859, 0.5143327713012695, 0.3712494969367981, -0.27574506402015686, -0.4113941788673401, -0.42167115211486816, 0.3056644797325134, -0.3599909543991089, 0.420221745967865], [-0.44908323884010315, 0.3136777877807617, 0.02585405297577381, 0.14818792045116425, 0.18870769441127777, 0.17927978932857513, 0.3867763578891754, -0.1396501660346985, -0.2730759084224701, 0.03632976487278938, 1.4660300016403198, 0.10866574198007584, 0.04155615344643593, -0.14937981963157654, 1.314621925354004, 0.0022777309641242027], [0.08304566890001297, 0.23639947175979614, -0.007254799362272024, 0.0938035249710083, -0.175081267952919, 0.09140720963478088, -0.0689309611916542, -0.04692470654845238, 0.005947651341557503, 0.592676043510437, -0.0633624792098999, 0.044101815670728683, 0.13915006816387177, -0.08119066804647446, -0.03221091255545616, 0.35806599259376526], [-0.16999071836471558, 0.5222989320755005, 1.4636260271072388, -0.16136988997459412, 0.03724747523665428, 0.6734039187431335, 0.500950276851654, 0.9838767051696777, 0.41271013021469116, 0.2714976966381073, -0.05774960294365883, -0.20490621030330658, -0.40538865327835083, 0.4040748178958893, -0.22890374064445496, 0.44252222776412964], [-0.17950259149074554, 0.2290264070034027, -0.17602849006652832, 0.0017792641883715987, 0.27367231249809265, 0.3286125361919403, 0.4379066228866577, -0.23050259053707123, -0.2253873497247696, -0.029719645157456398, 1.3433469533920288, -0.14654120802879333, 0.01665709912776947, 0.030693233013153076, 1.4305150508880615, 0.005841550417244434], [-0.03655298426747322, 0.2675822079181671, -0.23395660519599915, -0.01567191444337368, -0.39471951127052307, 0.015899652615189552, -0.22197911143302917, 0.07381557673215866, 0.020123880356550217, 0.5080349445343018, -0.023358844220638275, -0.20840218663215637, -0.07407555729150772, 0.10875752568244934, 0.29392915964126587, 0.7032744884490967], [-0.061788782477378845, 0.6865646839141846, 1.1263381242752075, 0.014966263435781002, 0.09536626935005188, 0.8191084861755371, 0.32551145553588867, 0.5437420606613159, 0.19578735530376434, -0.33757323026657104, -0.2975628674030304, 0.057528041303157806, -0.271026074886322, 0.47451192140579224, 0.0449041947722435, 0.5568975210189819], [-0.27685555815696716, -0.0647226944565773, -0.31915923953056335, -0.04188695549964905, -0.09211505949497223, 0.24751177430152893, 0.10664969682693481, -0.2037709355354309, 0.03255956619977951, -0.012948721647262573, 0.5661934614181519, 0.08025229722261429, 0.2431177794933319, 0.05843047797679901, 0.8906286358833313, -0.09233947098255157], [0.05085718259215355, 0.013917597942054272, -0.02023576758801937, -0.00575704500079155, -0.47112518548965454, 0.27347466349601746, -0.7120926976203918, -0.09143974632024765, -0.15385840833187103, 0.04233299568295479, -0.21647968888282776, -0.6146378517150879, 0.11354828625917435, -0.6795075535774231, -1.7167779207229614, 2.0028653144836426], [0.23037713766098022, 1.4935834407806396, -0.9861825108528137, -0.16933691501617432, 0.48680052161216736, 0.9979563355445862, 0.03256376460194588, -0.4941669702529907, 0.25194141268730164, -1.5267360210418701, -0.2387811541557312, 0.4961044192314148, -0.1586141586303711, 0.39443498849868774, 1.0750521421432495, 0.04768717661499977], [-0.0855865478515625, -0.3767748773097992, -1.0506516695022583, 0.018533356487751007, -0.6476760506629944, -0.7591910362243652, -0.9348462224006653, -0.1567213535308838, 0.12760548293590546, 0.4366312325000763, -3.0087478160858154, 0.26256850361824036, -0.1665012687444687, 0.0013477220200002193, -0.596842348575592, -0.08004768192768097], [-0.12640869617462158, -0.023941531777381897, -0.17739877104759216, -0.030926499515771866, -0.6310969591140747, -0.13541443645954132, -0.1932782381772995, 0.12566179037094116, -0.03152509033679962, -0.18352745473384857, 0.27039381861686707, -0.3522584140300751, -0.03962230309844017, -0.04866041988134384, -0.9105819463729858, 0.670308530330658], [-0.2753799557685852, 1.3729914426803589, -0.4654884338378906, -0.16047509014606476, -0.3486713171005249, 0.9064785838127136, -0.01457979716360569, -0.07063096761703491, 0.019015785306692123, -0.8738234043121338, 0.23698477447032928, 0.1467624306678772, 0.05758218839764595, 0.13261790573596954, -0.31221383810043335, -0.20259736478328705], [-0.13742628693580627, -0.02222793735563755, -0.6305412650108337, 0.0010931806173175573, 0.2592752277851105, 0.2466336339712143, -0.04881066828966141, 0.26760998368263245, -0.00228120107203722, -0.02696404792368412, 4.514700889587402, 0.012126173824071884, 0.364535391330719, 0.2362794727087021, 0.3376826047897339, -0.05006658658385277], [0.2702937424182892, 0.0776444599032402, -0.3122605085372925, -0.2289770543575287, -0.4922533929347992, 0.05684387683868408, -0.25804394483566284, 0.4787798225879669, 0.427004337310791, -0.5074639320373535, -0.9772198796272278, -0.14729022979736328, 0.45194414258003235, 0.18647077679634094, -0.6839461326599121, -0.21123145520687103], [0.5227236151695251, -0.3440500497817993, -0.36816835403442383, -0.20487917959690094, -0.5046108365058899, -0.10347618162631989, -0.018445055931806564, 0.19655781984329224, 0.2778640687465668, -0.6085231304168701, -0.7686362266540527, -0.06799785792827606, 0.2514837682247162, 0.031065259128808975, -0.0155254565179348, -0.2247229665517807], [0.17321887612342834, 0.06645163148641586, -0.3111833930015564, -0.1569855809211731, -0.34603676199913025, 0.003149376716464758, -0.16203485429286957, 0.47942185401916504, 0.258077472448349, -0.5342711806297302, -1.5467957258224487, -0.05212535336613655, 0.15651553869247437, 0.08706448972225189, -0.1473483294248581, -0.29783573746681213], [0.21133241057395935, 0.3648170232772827, -0.18054769933223724, -0.2670150399208069, -0.7310705184936523, 0.05175308883190155, -1.51878023147583, 0.2494286596775055, 0.36256828904151917, 0.04935269057750702, 0.9488973617553711, 0.19826099276542664, 0.9286367297172546, -0.13193577527999878, -2.1697466373443604, 0.20347090065479279], [0.5293908715248108, -1.976815938949585, -0.28709596395492554, 0.03968825936317444, -0.1407492607831955, -1.3543667793273926, 0.0122843561694026, 0.3367513418197632, 0.34942469000816345, -1.0904572010040283, 0.3605886995792389, -0.09384136646986008, 0.15561510622501373, 0.21682581305503845, 1.0017056465148926, -0.7407321929931641], [-0.0511024072766304, 0.09304670989513397, -1.570313572883606, -0.06462419033050537, -0.8917955160140991, 0.6254400610923767, 0.5042937397956848, 0.7188080549240112, 0.35223039984703064, -1.7947075366973877, -5.219069480895996, 0.026986679062247276, 0.1451692134141922, 0.6558126211166382, 0.33529165387153625, -0.8808955550193787], [0.14205972850322723, 0.2244320511817932, 0.6536822319030762, 0.15713214874267578, -0.1670914888381958, 0.8771225214004517, 0.34503576159477234, -0.22358936071395874, -0.06862064450979233, 0.13673235476016998, 2.638068675994873, -0.7518137693405151, -0.024445313960313797, 0.3870280086994171, 0.04280121624469757, -1.1923248767852783], [-0.7957677245140076, -1.8454185724258423, 0.7088778018951416, -0.04968453571200371, 0.5704450607299805, -1.4789342880249023, -1.3529645204544067, -0.6112978458404541, 0.09242444485425949, -1.7480095624923706, 2.730804920196533, 0.32690128684043884, 0.6818787455558777, 0.6556744575500488, -1.1304943561553955, -0.7635682821273804], [0.04994722455739975, -0.22132030129432678, -0.8111904263496399, -0.033598147332668304, -0.47713005542755127, -0.24684715270996094, 0.044049330055713654, 0.1920437514781952, -0.09389414638280869, -0.40556249022483826, 0.6925004720687866, 0.33913448452949524, 0.38434842228889465, -0.2872071862220764, 0.30873438715934753, -0.032107871025800705], [-0.49819520115852356, 0.007728977128863335, -0.46941378712654114, -0.013915961608290672, -0.15416383743286133, -0.1711886078119278, 0.10594385862350464, -0.3847407102584839, 0.1412588506937027, 0.4036674201488495, -0.30863505601882935, 0.2520604431629181, -0.012869326397776604, 0.03915524482727051, 0.27246978878974915, 0.15596920251846313], [-0.15324929356575012, 0.8733426332473755, 0.45435720682144165, -0.05619049817323685, -0.7620115280151367, 0.5361499190330505, -0.04966682568192482, -0.03919588029384613, -0.07883897423744202, 0.4393884539604187, -0.44266432523727417, -0.0719459056854248, 0.17858996987342834, -0.11525757610797882, 0.46023842692375183, 0.14175330102443695], [0.030274685472249985, -0.021081745624542236, 0.16679979860782623, -0.044809259474277496, 0.5971843004226685, 0.05676158890128136, 0.31146883964538574, 0.10689619928598404, -0.05320654436945915, -0.19828714430332184, -1.3847622871398926, -0.05473102256655693, -0.083916075527668, -0.1658623218536377, 0.4558606445789337, -0.09824717044830322]], "1_weights": [[-0.016193419694900513, 0.17380908131599426, 0.14636611938476562, 0.3616805970668793, 0.27203527092933655, 0.09515859931707382, 0.18595774471759796, 0.5740541219711304, -0.58214271068573, 0.4148190915584564, 0.2062641829252243, -0.38470274209976196, -0.3892337679862976, -0.9256533980369568, 0.3449087142944336, 0.3058284819126129], [0.9385547041893005, -0.8655433058738708, 0.33778536319732666, 0.6318114995956421, 0.49617820978164673, -0.8349892497062683, -0.4388107657432556, 0.06787817925214767, -0.2649618685245514, 0.542091429233551, 0.3210669755935669, -0.2957477867603302, 1.4083776473999023, -1.4079831838607788, -0.14025014638900757, 0.6607421636581421], [0.34196120500564575, -0.037022609263658524, 0.04338933527469635, -0.2006940394639969, 0.3012235760688782, -0.43109118938446045, -4.227071285247803, -1.0615062713623047, -0.096564881503582, -0.19602325558662415, -0.7211160659790039, 0.046848196536302567, 0.5281018614768982, 1.222015142440796, -0.3859553933143616, -0.20481452345848083], [-0.3128812909126282, -0.03778732568025589, -0.13773371279239655, -0.1896105259656906, 0.014520952478051186, 0.13626712560653687, 0.144741952419281, 0.1673744171857834, 0.3050004839897156, -0.009703335352241993, 0.20528578758239746, 0.14957401156425476, -0.13768236339092255, 0.040278661996126175, 0.14287564158439636, -0.003708835691213608], [-0.1870703399181366, 3.2075326442718506, -6.597995281219482, -1.4968113899230957, -1.8423274755477905, 2.561415195465088, 0.8673795461654663, -1.119626760482788, -0.042097099125385284, -1.8507083654403687, -1.0348246097564697, 0.04322553053498268, 0.9356705546379089, 2.504240036010742, 0.03700760751962662, -0.9353852272033691], [-0.46275824308395386, 0.08676489442586899, -1.6452642679214478, -0.37413161993026733, -0.17286965250968933, -0.21075379848480225, -2.0183091163635254, 0.5043798089027405, 0.06109008565545082, -0.42576539516448975, 0.19259916245937347, -0.07291863858699799, -0.425447940826416, -0.37184205651283264, -0.2563725411891937, -0.3669544458389282], [-0.10165062546730042, 0.8947532773017883, -1.459528923034668, -0.7039958238601685, -0.6940885782241821, -0.1152171865105629, 0.8675887584686279, 0.32448798418045044, -0.19605381786823273, -0.7750622034072876, 0.7428242564201355, 0.007615755312144756, -0.8709135055541992, -0.7729348540306091, -1.0114412307739258, -0.5608645677566528], [-0.25443461537361145, -0.10685193538665771, 0.44395145773887634, 0.5326194763183594, 0.1612098664045334, -0.05465192720293999, 0.040389351546764374, -0.6506826281547546, -0.08481039106845856, 0.7127630114555359, -0.4723542630672455, 0.0901084691286087, 0.245596244931221, 0.6197738647460938, -1.7739417552947998, 0.41157054901123047], [0.8511776924133301, -0.4479435086250305, -0.7565472722053528, 0.7686014771461487, -0.0902036726474762, 0.23153306543827057, -1.2685047388076782, 0.12515553832054138, -0.022310635074973106, 0.7696824669837952, -0.8089843988418579, -0.22880329191684723, -0.10984297841787338, -0.0990138053894043, -2.354412794113159, 1.1050474643707275], [-0.36876925826072693, -1.9721622467041016, -0.025680899620056152, 0.9593855738639832, 2.2110660076141357, 1.0641815662384033, -3.81603741645813, -0.9522512555122375, 0.06105141341686249, 0.715143620967865, 2.1658520698547363, -0.1847148984670639, 4.152709484100342, -0.8576444387435913, -4.5381999015808105, 1.0774686336517334], [-1.2712037563323975, 4.9117960929870605, 3.2334351539611816, -0.6084235906600952, 1.2663594484329224, -1.7229585647583008, -0.2474033683538437, -2.234802007675171, -0.0863879844546318, -1.4307562112808228, -3.1312623023986816, 0.09141881763935089, 5.24627685546875, -2.434901714324951, 5.357104301452637, -1.8826546669006348], [-0.29944169521331787, 0.7085726261138916, 0.7345927357673645, 0.402673602104187, -0.4402886629104614, -0.13895288109779358, 1.3774919509887695, -0.3587089776992798, -0.024001557379961014, 0.6146138310432434, -0.6106223464012146, -0.26651957631111145, 0.15963073074817657, 0.49497315287590027, -0.498762309551239, 0.5414789915084839], [0.2556065618991852, -0.06681942939758301, -0.42971983551979065, 0.5591509938240051, -0.34635451436042786, 0.14647401869297028, -0.1693016141653061, -0.28809458017349243, -0.061994414776563644, 0.6379311084747314, -1.020849585533142, -0.20424053072929382, -0.20297807455062866, 0.4918156564235687, -0.8290345668792725, 0.7003825306892395], [0.27935776114463806, 0.13307595252990723, -1.042183756828308, -0.04694921523332596, -0.09850981086492538, -0.38105934858322144, -3.9565582275390625, 0.552177369594574, -0.390830397605896, -0.20829154551029205, 0.6461787819862366, 0.07438897341489792, 0.07357954978942871, -1.270538568496704, 0.4866011142730713, -0.16788028180599213], [0.5243762731552124, 0.07188912481069565, -0.653317928314209, 0.583234429359436, -0.6575966477394104, 0.18647633492946625, -0.7016274929046631, -0.31432682275772095, -0.24841557443141937, 0.40405943989753723, 0.28044047951698303, -0.4267527461051941, 0.811604380607605, -0.7641996741294861, 0.22122769057750702, 0.6581054329872131], [-0.1968851089477539, 0.9412946701049805, 1.0239665508270264, -0.3642505407333374, -0.6493903398513794, 0.6985331773757935, -0.46843037009239197, -1.157748818397522, -0.2968394160270691, -0.36597737669944763, 0.11136607825756073, -0.03022163361310959, -1.0162956714630127, -2.2414069175720215, 0.5412654876708984, -0.29189711809158325]], "2_weights": [[-0.23743341863155365, -0.16967619955539703, -0.1540382206439972], [0.3426390290260315, 0.3783547878265381, 0.4465382695198059], [-0.3845614194869995, -0.37707456946372986, -0.3598909080028534], [0.8638023734092712, 0.5728813409805298, -0.15163743495941162], [-0.2539731562137604, -0.35516461730003357, -0.3456442654132843], [-0.3552958369255066, -0.3573858141899109, -0.390752375125885], [-0.40605854988098145, -0.43012991547584534, -0.5417085886001587], [-0.24982911348342896, -0.22906221449375153, -0.1480853408575058], [0.030214795842766762, -0.004161935765296221, 0.03502366691827774], [-0.7321909070014954, -0.33110642433166504, 0.15535609424114227], [-0.17456571757793427, -0.13050062954425812, -0.06076076254248619], [-0.1533345878124237, 0.25071170926094055, -0.06184738129377365], [0.20558521151542664, 0.23478682339191437, 0.26218411326408386], [-0.6439923644065857, -0.5455660223960876, -0.5504387617111206], [0.6200850009918213, 0.6081891059875488, 0.43184638023376465], [-0.3893272280693054, -0.5321702361106873, -0.3104648292064667]], "0_bias": [0.5147820115089417, -0.1045885682106018, -0.2641836702823639, 0.02805975079536438, -0.3460482060909271, -0.1516733318567276, -0.2040119767189026, 0.42716819047927856, 0.3189085125923157, -0.4353821873664856, -1.1075778007507324, -0.18717332184314728, 0.3550020754337311, 0.1828744113445282, -0.1409434974193573, -0.15614578127861023], "1_bias": [0.26429474353790283, -0.3711163103580475, 0.20402319729328156, -1.1445635557174683, 0.7084718346595764, 1.025595784187317, -0.09054146707057953, -0.40711650252342224, -0.2767522931098938, -0.3738011419773102, 0.6117914319038391, -0.25123921036720276, -0.05337539315223694, 0.23026897013187408, 0.012867663986980915, 0.047926340252161026], "2_bias": [0.5521487593650818, 0.3653768002986908, -0.5821260809898376]}